#input normalization
1 0
1 0
1 0
1 0
1 0
#output normalization
3.71596 119.127
#neurons weights
-0.0238555
0.497018
0.0272698
-0.191487
-0.0687644
0.311468
0.685485
7.18692
-4.09565
4.43127
2.26402
20.3836
-0.241962
-2.4633
-0.203469
-21.8224
0.32002
1.9496
0.129
1.6551
0.403197
-0.310777
14.4642
-0.704058
0.196312
1.13736
-2.63235
-0.0481555
-0.8677
0.371932
-0.230241
0.425587
0.0927786
-0.0211301
-0.688195
-0.0239517
-1.52311
1.21697
-0.624691
-1.25482
0.490304
-0.430624
-0.237169
-0.427261
-1.59598
1.7078
-1.3402
-0.284388
0.985293
1.20321
-0.603185
-0.35284
1.04935
-0.260365
0.448295
-3.92952
#synapses weights
-9.28366
-0.487408
3.49992
-0.889725
-0.0955554
-0.648326
0.546894
0.0124447
3.16564
-0.361972
0.288299
-0.307039
0.000490633
2.74666
3.49373
1.05519
-1.35763
0.817521
0.911829
-3.34907
0.829541
-1.69459
-0.0722645
1.48299
8.21235
1.12736
0.191412
-0.0482186
-4.55797
-1.18589
0.580739
-1.14918
-0.0266414
8.21333
8.8495
7.70044
-0.144143
-3.92778
0.913806
0.612504
0.461325
-0.535745
0.142973
0.505523
-1.91363
0.0085155
-0.339748
-0.156933
2.15509
-0.298606
-0.0360518
0.0482661
-0.00192297
-9.05894
-2.62003
-1.33116
0.833331
0.838017
-2.05235
0.078979
0.169272
-0.00915597
-0.000709154
0.414907
0.100957
0.0158962
-0.363405
-0.248618
3.66101
0.722401
-0.122075
-0.642418
-0.236288
3.79463
0.52146
1.226
-0.564367
-1.42614
2.97287
0.56809
1.29212
-0.481999
-0.933125
2.46171
-0.502077
-0.596631
0.445322
0.0226421
10.5615
9.29045
1.58321
-0.842731
-0.938829
2.20502
-1.17456
-0.284241
-0.00777693
0.0907645
2.70872
0.133764
-0.240346
-0.0745171
0.0785981
2.30463
-0.325982
-0.539218
0.271437
0.0132281
1.30705
1.13508
-5.44589
0.460941
2.27621
-1.27084
0.0886525
-0.9412
1.32473
0.059623
1.88633
-0.932935
-0.0159751
1.02828
-0.136929
-3.916
0.353824
-0.00829122
-0.449573
2.14256
-0.985097
-6.70101
0.773357
0.866314
-0.015874
-0.300948
0.0536847
-6.29094
0.0656213
1.73809
1.32364
1.55785
0.55308
0.610907
3.76934
0.518355
1.34499
0.270418
-2.46325
-0.439009
0.177676
-1.49001
0.910847
-1.08663
1.39183
1.78755
1.44039
-0.442317
-1.18224
0.518115
0.97164
-0.668925
1.35166
0.637606
-0.810258
-2.05758
-0.984513
-0.716775
-0.943134
-1.63274
-1.1611
-0.469946
0.112114
1.16329
1.18486
-0.364151
1.83236
-0.0762691
-0.363222
0.000118995
0.092846
-0.143369
-0.0875821
0.163793
0.460873
-0.188381
-0.479427
-0.195003
0.134176
-0.62854
-0.0617842
-0.455901
-0.384409
-0.350945
-0.174433
-0.0353899
-0.00857649
-0.225629
0.00504088
0.444866
0.338217
0.071202
0.635563
-0.41512
1.11349
2.24584
0.812761
-0.720507
-1.23467
1.18246
1.45079
-0.685491
0.996531
1.30612
0.016867
-1.18979
-0.960102
-0.324981
-0.990393
-1.55369
-0.66465
-0.264844
-0.454714
1.45064
1.32396
-0.0189553
1.77085
-0.553728
-0.26634
-0.537146
-0.718042
-0.760052
-0.133982
0.790583
0.22281
-0.568277
-0.237638
-0.580852
-0.827077
-0.119251
0.339965
0.825693
0.358746
-0.0698188
0.915461
0.673695
0.500949
0.642143
-0.463772
-0.692416
-0.37306
-0.666518
-0.297549
0.407936
-0.281907
0.158803
-0.247941
-0.124955
-0.0802147
0.192926
0.48689
0.215662
-0.60578
-0.47151
0.146368
0.230589
0.48525
-0.0634099
-0.424694
0.253571
0.0999997
-0.342896
0.123937
-0.0118915
-0.707544
-0.452822
-0.836904
-1.70158
2.80599
2.58785
-2.03652
-3.48069
-0.224271
18.5478
-0.589575
-0.330046
0.553335
-17.8757
-2.22019
2.63556
2.38284
1.662
1.27296
1.24701
12.7809
1.13203
1.16179
0.767274
-2.82808
-1.49066
1.25845
-2.57664
0.943602
0.173029
-0.160194
-0.626731
-0.0448963
1.71622
1.11709
0.566176
0.235254
0.579097
-1.64691
0.454108
0.69525
1.7811
1.9462
1.81669
1.22991
1.69195
0.516955
1.77826
0.778425
-1.15652
0.69427
-0.657794
-0.0737821
-1.26595
0.831087
-1.84706
-1.21594
-1.20996
1.00262
2.88559
-0.204275
-1.00821
0.476463
-2.05691
-1.23001
1.66824
1.99396
2.29502
1.69789
0.61102
3.0096
0.780396
1.0544
0.177291
-1.43716
-1.80528
0.385997
-2.82078
-0.552001
-0.964124
-0.256002
1.20316
0.19178
-2.24812
-2.2907
0.10996
0.894406
-0.111561
-0.642937
-0.225084
-0.83196
-2.13773
-1.31435
-0.819124
-0.930726
-2.49699
-1.40672
-0.576809
-0.752093
0.404917
0.498461
-0.381444
0.332686
0.156984
0.443122
0.567218
0.31024
-0.437137
0.0350847
0.792092
-0.0659911
-0.0477193
-0.374829
-4.24706
0.80413
2.24523
0.229004
-0.0169851
0.360772
-0.557246
-0.386939
-0.352813
-0.0617435
-0.0844125
0.260242
1.0405
0.874939
-0.0275076
-0.938247
0.692176
-1.6464
-2.2519
-2.08537
1.77771
2.26575
-0.341491
-2.03099
1.13712
-1.75471
-1.35276
1.29545
2.10656
1.50007
1.29381
1.29616
3.47158
1.38805
1.41699
0.740385
-1.37272
-1.67015
0.300091
-2.58147
0.585315
0.287699
0.754701
-0.113027
-0.554163
-0.0349275
0.209731
0.166212
-0.519656
-0.0231426
0.590064
-0.120248
-3.024
-0.376049
-0.621672
0.129292
0.043378
0.0715906
-0.284063
-0.56815
-0.382694
0.30013
0.470183
0.706096
-0.0727291
-0.332753
0.704915
-1.86694
-0.871403
-0.992958
0.340547
0.0880116
0.351418
-0.133797
0.644508
-1.58384
-1.10127
1.26674
0.542765
0.563672
0.860843
0.205424
1.65442
0.118916
0.437825
0.537916
-0.92516
-0.23227
-0.676476
-1.71284
-0.526345
-1.08657
-0.320579
0.0233432
-0.0966008
-1.48328
-2.16525
-0.259618
-0.120297
-0.846148
-0.141074
-0.986869
-0.863093
-1.09657
-0.448068
-1.16694
-0.644692
-1.84289
-1.38227
-0.276378
-1.05064
-0.449295
-0.24947
0.0465879
-0.12044
1.27588
1.92526
-0.163867
-2.12757
-0.389727
2.80362
3.86436
-0.0507117
-0.728653
1.15754
-0.419152
1.02546
1.57435
3.9211
3.21625
3.23146
1.00786
3.63432
1.47433
2.62365
1.74011
0.0573457
1.01334
0.211272
-0.77939
-1.22246
-0.241684
0.335244
0.366305
0.622265
-0.872977
-0.806132
0.0399188
0.117571
-0.750176
0.335647
-0.793142
-0.472079
-1.60284
-1.60575
-0.973443
-0.485952
-1.73998
-0.145034
-1.19696
-0.211236
0.2526
-1.22218
-0.0286544
-0.185662
-0.644817
0.842462
-1.20464
-1.01738
-0.635211
0.96114
0.846818
0.04907
-0.610104
0.685769
-1.03313
-0.23384
0.302279
1.29127
0.612127
0.878276
0.746788
0.369471
0.327667
0.619489
-0.251188
-0.557329
-0.961005
0.425291
-0.921589
0.212629
-0.267342
2.09104
0.695832
1.2507
-0.366447
-0.360649
0.0360189
0.828692
-0.233014
1.41927
0.65107
-2.40023
-1.36405
-0.921095
-0.901192
-0.0807608
-1.16024
-0.87909
-0.200375
0.0374435
1.06236
0.311084
0.365574
1.84339
1.36683
1.614
-7.65742
-0.333584
0.00564407
0.282679
-5.91209
0.18953
0.533168
0.22395
14.4999
0.996367
-0.118445
0.978987
0.75989
0.800366
0.399196
-6.1556
0.229914
1.0474
0.551919
-0.775321
1.37997
-2.5641
0.34982
-0.0158171
0.175824
-0.885671
-0.31535
-0.340471
0.0138022
0.0972417
0.148232
-1.12414
-0.385792
-0.555496
-0.44125
-0.442049
0.327928
0.352432
-0.250305
-0.0942097
0.674634
0.0186497
0.203711
-0.442338
-0.987655
-0.220084
0.154589
-0.536169
-0.773914
-0.315869
-1.5185
-1.84765
-1.98866
1.53977
8.67969
-0.563242
-0.219424
0.575425
-6.99933
-0.773167
3.04228
2.13074
2.08151
1.83619
1.32456
4.47464
1.02262
1.26483
0.640781
-2.0891
-1.02694
2.17138
-2.01372
0.13271
-0.837057
0.935406
1.9121
2.54502
-0.263281
-1.50212
0.320836
1.42249
-0.635574
1.77461
0.567263
-0.136649
-1.2723
-1.21066
-0.831144
-0.465013
-0.601703
-0.705396
-0.355994
-0.37588
1.07186
0.171145
0.117364
1.63804
0.0317495
-0.177831
2.18152
-0.737668
-0.109633
1.04659
2.13877
-0.639329
-0.132645
0.446671
-3.47793
-1.08412
-1.39632
-0.227902
-0.362928
-0.0199041
0.186223
1.28357
-0.0377818
-0.00236432
-0.175607
0.16737
-0.678607
0.529412
-0.654286
-0.0163442
0.17257
0.303497
-0.860461
-0.426634
0.913001
2.06243
0.0590942
-0.415747
0.343425
0.644513
0.411699
-0.20847
0.882935
0.384095
0.529476
0.383391
1.54259
0.875689
0.219443
0.0401641
0.157294
-0.110992
0.0982512
0.0484571
7.15107
-3.93643
-0.674463
-2.34954
2.13993
1.53551
9.43077
6.99307
3.2663
3.09422
5.77018
1.6225
-4.4868
5.06895
2.68966
8.31082
-7.51916
0.465876
-5.75787
12.5728
-1.57645
5.33045
-6.16803
-6.28421
-6.32742
