#input normalization
1 0
1 0
1 0
1 0
1 0
#output normalization
3.71596 119.127
#neurons weights
-0.0786552
-0.0987681
0.142948
0.170938
-0.435748
-3.68358
9.07284
-0.730151
-0.131454
3.84636
-2.09345
-1.8984
0.694186
0.738817
0.312179
-0.752798
2.11862
-1.5084
0.365879
-0.375728
2.62168
-0.00738281
-0.426177
3.17838
0.699004
1.64546
-0.0263338
-0.70773
0.340809
-1.54521
0.419846
0.427899
-0.16388
-0.0911807
0.0928267
0.381134
0.0986043
-0.233568
-0.447629
0.101865
-0.28191
-1.27392
-0.388579
-0.252925
-0.610181
0.495566
0.586241
-0.33087
-0.537837
0.53416
0.363043
0.0443718
0.272939
0.554966
0.132535
1.48122
#synapses weights
0.3596
-0.54771
0.130261
0.762683
-1.91965
-0.0619244
0.389455
-0.0206431
4.23412
1.70182
-0.384376
-0.229698
-0.0134634
-0.693775
1.13182
1.05932
-1.25003
0.0376023
-1.13717
0.394885
0.0943451
-0.841875
0.049649
1.818
1.15299
-1.15064
-0.437397
0.281596
-4.28639
-1.78065
0.109591
-0.0905672
0.00619507
-1.34994
-0.764475
0.276818
-0.0809222
-0.0529579
2.11678
0.342473
-0.969598
0.422919
0.622777
-0.741434
0.286844
2.68629
0.386798
-1.01507
0.752641
-0.148361
-0.877499
0.307382
0.0221342
-0.340891
-0.668131
1.23264
0.603785
0.649033
4.25889
1.16584
-0.0418088
0.235763
0.016703
-2.39898
-0.418721
3.60983
-0.0653371
-1.64186
0.960191
-0.394531
5.67383
0.1184
-1.91349
1.77547
0.177023
-0.124222
-0.250384
-0.00672376
3.4075
1.64429
-0.234666
-0.356831
-0.0125816
-1.05524
-1.11696
-0.339178
-0.117484
0.33447
-2.20204
-0.257626
-0.282621
-0.0266025
-0.000178467
4.39887
2.82887
-1.21619
0.342932
0.592606
-0.771335
0.508375
0.428837
0.0830364
0.04582
1.70114
-0.540829
-0.147989
1.33105
-0.0790527
-0.155894
-0.806901
2.07876
-0.352985
-1.09151
0.800566
-1.2563
2.02918
-0.481047
-0.770919
1.89919
0.618871
2.20259
-0.732738
-0.0820561
0.587946
-1.55638
0.169965
0.462169
-0.216835
0.287884
0.369578
-0.359743
-1.35936
-0.256378
0.42659
0.248331
-0.16721
-0.215147
0.505661
0.174872
0.586816
-0.224206
-0.599496
0.24268
-0.227346
-0.00210906
-0.347992
-0.472838
-0.198567
-0.483388
-0.0162476
0.23677
-0.982315
-0.121433
0.123443
-0.130298
0.732663
-0.152143
0.107839
-0.231399
-0.4124
0.22973
0.214918
0.115389
-0.319923
-0.292332
0.123356
0.29145
0.45668
0.151963
0.310139
-0.19679
0.172475
0.0707471
0.00236938
0.577088
0.128512
0.272136
0.0437611
-0.053234
-0.084766
-0.337249
0.212231
-0.26819
-0.0839681
0.0698864
0.230371
0.202266
-0.60304
-0.0488615
0.372555
0.424277
0.348272
-0.391899
0.82852
-0.06179
-0.0916672
-0.394241
-0.464837
-0.252905
-0.302772
-0.679438
0.486947
0.0152662
-0.209778
0.457872
-0.794325
0.569779
0.915902
-0.581751
0.416959
-0.5582
0.276593
-0.0570806
0.398833
0.145036
0.370043
0.413656
-0.0106063
1.24531
-0.413871
0.694367
-0.137702
-0.54058
-0.483841
-0.809081
0.410515
-0.523159
-0.247274
0.250902
-0.697927
0.195338
-0.933881
-0.355952
0.131115
0.38899
0.227679
-0.325981
0.32552
0.442284
-0.311822
-0.536244
0.069164
0.315036
-0.440826
-0.231283
-0.240719
-0.12549
-0.519118
0.0820041
0.015727
0.722405
-0.830497
0.626105
0.138384
-0.452869
1.36981
-0.233007
-0.445556
0.468398
-0.488471
0.654284
-1.02231
0.165527
0.0519106
-0.364935
-0.734706
0.292741
0.49808
-0.407996
-0.00517518
-0.907057
0.0689887
0.567597
-0.173128
0.243882
0.4404
0.23961
-0.370045
0.142484
-0.461074
-0.0287315
-0.964965
-0.778659
0.464882
0.247203
0.192385
-0.369514
0.37302
-0.152245
-0.185327
-0.123854
-0.296169
0.224579
-0.361996
-0.166912
-0.660786
-0.435301
-0.458865
-0.239636
0.546626
0.309147
0.269088
-0.0957267
-0.366217
0.240121
-0.128927
0.758874
0.0597278
-0.197222
0.418654
0.242184
0.146796
0.234154
0.276372
-0.415271
0.480887
0.453509
-0.50681
0.469818
-0.00182771
-0.204926
-0.358679
-0.141758
0.201582
0.31488
0.790276
-1.1878
0.612331
-0.852101
-1.18758
0.716146
-0.959716
-1.23485
-0.409438
-0.222449
0.130711
-0.451389
0.472842
0.230567
-0.546327
-1.44009
-0.396782
0.0184996
-1.11021
-0.68279
-0.389652
-0.800623
-0.0514653
0.105684
0.571012
-1.26656
2.02004
-2.35397
-0.585623
1.27339
-1.89248
1.92893
2.15714
-0.202792
-0.585238
0.73949
1.27211
-0.71014
-0.247201
0.296641
2.42957
0.349759
-0.633171
2.3978
-0.280263
1.70512
0.976872
0.963252
0.22462
-0.936219
-0.528997
1.5961
-1.65936
-0.556963
1.00355
-1.56041
1.62659
1.98172
-0.113902
0.274329
0.555138
0.82469
-0.982428
-0.353149
0.47887
1.42903
0.535666
-0.569435
2.60856
-0.0254205
0.946889
0.665513
0.399636
0.125984
-0.380655
0.995708
-2.04172
0.479363
-0.454365
-0.911537
1.4083
-1.99695
-2.33261
-0.899404
-0.300586
-0.534065
-1.92953
-0.345331
-0.19666
-0.126071
-2.35984
-0.854453
-0.961916
-2.27585
-1.26172
-1.60061
-1.24506
-0.637677
-0.859077
0.790857
0.426716
-0.551201
0.278168
-0.666528
-1.04791
1.37477
-1.36687
-0.870249
0.505388
-0.0836133
-0.252434
-1.07548
0.671292
-0.336769
-0.0210639
-0.875459
-0.985927
-0.369779
-1.87383
-0.497142
-1.25088
-0.124673
-0.542424
-0.0957015
0.0150805
0.724048
-0.816781
0.432367
-0.103126
-0.75229
1.03143
-1.07649
-0.519959
0.238205
0.518132
0.344058
-0.556483
0.0600613
0.38755
-0.119472
-0.643262
-0.783282
0.278294
-0.635652
-0.000728579
-0.850368
-0.399099
-0.331695
-0.436263
0.109935
0.301855
-1.13978
0.708889
0.219534
-0.690502
0.910588
-0.974128
-0.907213
0.046194
-0.335485
-0.493851
-1.26267
-0.247766
-0.176621
-0.494275
-0.937316
-0.822604
-0.600848
-1.86343
-0.111467
-1.07363
-1.19882
-0.268328
-0.0120781
-0.335858
-1.36603
1.64629
-1.02602
0.423113
1.6656
-1.80086
2.22012
1.74755
0.220145
0.102423
-0.265082
0.672484
-1.16673
0.0019753
0.174068
2.25238
0.400769
-0.209714
2.51322
-0.167832
1.65453
0.593956
-0.446486
0.646903
-0.840646
-0.909186
0.671111
-0.703622
-0.542004
0.424518
-0.517475
1.01708
0.532566
-0.4818
0.53005
0.0626638
0.600441
-0.329472
-0.355432
-0.261207
1.0746
0.0119423
-0.0238761
0.357169
-0.538798
0.448996
-0.0636623
0.205363
0.487181
-0.395578
0.679832
-0.778628
0.631892
0.3515
-0.906781
0.845483
-1.77016
-0.683595
0.247881
-0.0279353
-0.215533
-1.03387
0.970696
0.00292449
-0.101547
-1.12877
-0.708023
0.425943
-1.32417
-0.0192877
-0.746076
-0.371159
0.191607
-0.269154
0.388218
1.219
-1.40067
1.30976
0.532625
-1.48106
2.3746
-2.4269
-2.34983
0.183884
0.293431
0.0442209
-1.78738
0.515528
-0.176389
-0.470723
-1.84205
-0.68725
0.546352
-2.60924
0.553442
-1.94693
-0.394406
-0.301062
-0.592055
1.22313
-0.399851
0.269135
-0.568128
-0.110765
0.709364
-0.255675
1.27114
0.280863
-0.379901
-0.428318
0.106605
0.393536
-0.414637
0.423877
-0.0845624
0.771653
-0.142044
-0.325579
0.889582
0.0360982
0.309423
0.402926
0.0595461
0.241156
-0.367885
0.00240588
-0.588318
-0.194184
-0.552386
0.154811
0.687651
-0.148426
0.390409
0.0631084
0.337248
-0.0241253
0.00394992
0.234712
0.10926
0.243572
0.316235
0.315834
0.509587
0.180405
-0.0600119
-0.0260406
-0.222384
0.333838
-0.393539
-0.201585
0.152807
-0.0183043
0.311916
0.0673822
-0.357715
0.696449
0.0416095
-0.122182
-0.247654
0.42888
0.0874837
-0.328839
0.385195
-0.0104477
-0.0763233
-0.438754
-0.0244362
0.464894
-0.644627
-0.20891
0.0287943
-0.184679
-0.384478
-0.0990762
0.24125
-1.7556
2.00449
-1.35892
1.11228
1.4565
-2.60559
2.7941
1.8343
-0.0128082
0.506561
-0.0646172
1.98049
-1.02965
0.46957
0.22273
2.05135
1.5268
-0.618581
2.15682
0.250962
1.11244
0.407773
-0.662394
0.942268
-1.00313
0.357136
0.389145
-0.603536
0.31808
0.408981
-0.372448
0.60973
0.412891
0.411394
0.0383819
-0.0561321
0.0204807
0.336138
0.25677
-0.298057
0.497678
0.107108
-0.0168186
0.549627
0.276754
0.00597306
0.146984
0.457764
0.245644
-0.0269528
0.225603
-0.27874
0.0108851
-0.510438
0.238275
-0.394447
1.00486
-0.358318
-0.44861
-0.586697
0.0647059
-0.557016
0.0713111
0.431577
-0.586203
0.317304
-0.00706689
0.241636
0.489615
0.297448
0.449824
0.246411
0.43367
-0.16347
-0.0698416
-3.97319
1.34204
-0.674481
0.596782
-1.25822
1.1982
-2.6271
0.61724
-1.92454
7.36343
4.95439
-6.96377
-3.81113
-2.23902
-2.41677
4.14727
1.22829
-3.04027
-5.62511
1.76856
0.94882
-0.837813
4.46884
0.421628
2.359
