#input normalization
1 0
1 0
1 0
1 0
1 0
#output normalization
43.5728 176.774
#neurons weights
-0.122996
-0.115534
0.127028
0.438307
0.441849
-0.225617
2.88648
-4.66117
11.6461
15.7859
0.68929
0.376714
0.681002
-7.18416
0.416673
-1.39945
-0.451429
-8.15469
18.999
-0.99393
16.2237
-0.587823
-0.741452
-0.481177
-2.83076
0.704672
-0.543136
-0.551332
-0.228231
-0.525768
0.458564
0.0626885
-0.625665
0.445114
-0.807903
-0.325523
1.48484
0.351397
0.456379
3.37385
0.467911
0.30138
1.43521
0.218911
-0.352913
0.30695
1.23666
-1.19692
-1.12063
0.785696
1.26049
-1.27037
-0.686792
0.550179
-0.00978478
0.386582
#synapses weights
1.55655
-0.732457
-2.04347
2.9664
-0.306984
0.0268976
-0.000112673
0.00251689
2.41078
1.93025
0.607213
-0.0242007
0.0429732
-7.65153
-5.00067
6.89149
0.0179201
3.17992
-6.51758
-2.44085
1.71387
-0.0236704
0.446133
14.936
9.63443
-0.928931
0.663578
1.05321
-3.0796
-0.0464867
-4.37674
0.197243
-0.566951
-1.09886
0.372082
2.51892
-0.0585996
1.70194
-1.40371
-1.35039
-10.3411
0.0626072
-4.14506
17.7388
-2.91148
0.648488
1.37108
2.00797
-9.2262
-0.0100127
1.31785
-0.962648
-0.612972
1.3151
-1.19126
1.38608
-0.866826
-1.19575
1.37986
-0.382627
-8.01279
-0.0169747
-4.50821
3.32292
-3.11773
0.59638
0.00434757
0.72685
18.5672
6.63896
2.88411
-0.918385
-0.610796
0.438746
-1.2872
-0.0672523
0.0171702
-0.405153
22.1048
13.3721
1.80815
-0.366185
-1.63629
3.4252
-0.213428
-3.36431
1.64017
-0.677442
-4.17131
-0.614839
-0.720044
0.285122
-0.290502
-3.39524
0.245801
8.2606
-2.06452
-2.98333
-0.157298
-2.04674
-1.24978
1.32558
2.94235
-7.90165
0.911638
2.70888
-0.709889
-2.53192
4.63341
-0.780127
0.937954
-0.688211
-2.61021
6.49087
-0.952848
0.886649
-0.016328
1.22025
1.16578
-0.307783
0.29934
0.0173849
1.31243
-1.4182
-1.12222
0.471276
0.212784
1.04072
0.679268
-0.693731
0.477174
1.45831
0.195702
-0.293358
1.01381
0.524591
0.0598611
0.343963
-1.17853
-0.738021
0.619055
-1.09605
1.02599
-0.504564
-1.19321
0.443902
-0.701248
0.388125
0.581771
1.04347
1.23841
-0.461696
-0.387302
-0.435399
-0.605848
-0.157647
0.0596622
0.0482744
0.37432
0.343471
0.357817
0.0472988
-0.258804
-0.75843
-0.202649
0.700452
-0.863102
-0.707271
-1.0545
-1.0975
-0.807146
-1.4411
0.292229
0.38947
0.676014
-0.614517
-2.09744
1.54301
-0.588637
-0.926672
-0.537873
0.156329
0.727834
0.83997
-0.510607
-0.67047
0.0785848
0.57179
0.215587
-0.212909
1.60793
0.192762
-0.913639
0.751722
0.731143
0.135088
0.0544711
-0.582209
1.08955
0.259475
1.10824
0.33601
0.0312812
0.201261
-0.101697
1.11418
1.60495
-0.04835
0.23003
0.589449
0.809663
-0.0127647
-0.0457438
-0.894872
-0.00862757
0.0262067
-0.388091
0.859386
-0.489346
-0.971352
0.239017
-1.01971
0.197026
1.01147
1.59561
-1.60724
-3.74102
3.60143
0.307439
-3.92442
-1.51761
0.990656
0.531345
0.0388982
-0.772686
-0.458478
0.00862013
-0.314496
0.960686
-0.10172
3.74976
1.01362
-0.379518
0.852717
1.05873
0.0776074
1.26197
-0.495239
-0.484308
-0.145466
0.603959
1.66781
2.29713
1.39878
1.23663
0.478132
-1.54067
-0.25255
-1.7781
-0.377876
-0.17828
-0.520617
-2.38989
1.83502
-0.0279326
3.38295
-0.320304
-0.421745
0.116541
-0.621309
-0.204633
-1.23253
0.829094
-1.00355
-0.367025
0.177041
-0.473142
0.483685
-5.55863
1.01829
1.07647
0.43339
-0.355426
1.3499
1.49441
0.56302
0.262961
4.04244
4.39336
1.00485
4.14682
0.730292
0.00819084
1.24567
0.481852
1.02591
0.0264222
-0.0396106
-0.343241
0.359193
-0.746729
-0.544043
-1.31158
0.621898
1.8361
-0.464937
0.136916
1.11208
-0.669128
-0.596495
-1.01018
-0.311794
0.22984
1.98346
0.518827
3.1579
1.00836
-0.0592497
1.17022
2.13686
0.447909
1.24183
-0.0258952
-1.09112
-0.110878
1.06158
0.0659944
0.911143
1.36321
0.786262
1.16126
1.27799
0.0558782
0.712267
0.86466
0.465941
0.117719
0.447994
-1.36051
0.148061
-0.500309
-0.794755
0.478091
0.328678
-1.34444
0.410144
-0.783796
0.516278
0.82809
1.58633
-1.00423
0.567506
4.29336
-22.2906
-10.3088
3.40149
2.66887
-1.59218
16.9107
2.37714
-1.3622
-0.433863
7.41997
-20.4126
-0.0715932
-42.0395
1.01325
6.79783
4.51028
1.01234
3.81859
1.08346
-0.180571
-3.04128
-4.72104
1.23026
-0.511009
2.19564
0.771922
2.1012
1.14898
0.720191
-0.0323692
-1.02857
1.28853
1.09888
0.370233
-0.681205
-1.32468
-0.0436937
-1.70496
-1.5575
0.542646
-0.278981
-1.34625
-0.731004
-1.92799
0.515693
0.547257
0.399209
0.448312
0.20189
-0.625912
0.710057
1.5951
-0.0675554
-0.3449
0.606257
-0.41602
0.277672
0.405953
-0.09752
0.762519
0.0395039
-0.224549
0.996608
0.202544
-0.494162
-0.559739
-0.574328
0.0628877
0.036973
0.250399
-0.834048
0.13626
0.768554
-0.392546
0.298347
-0.20577
1.01498
0.742463
1.31365
0.252814
0.416601
1.61087
0.841425
0.0469975
0.117496
0.920589
-0.0201511
3.52118
-0.725516
0.541354
-0.413723
-1.1933
0.813871
-1.10803
0.637481
0.857252
2.28206
-1.9496
0.412774
1.95221
-4.44952
-5.6204
-0.681031
0.827407
-0.694962
-0.926709
-0.228939
-0.767563
-0.240673
3.42461
-5.24319
0.139401
-4.91955
1.25891
0.435843
2.29722
1.7385
0.683101
1.93294
-0.917573
0.338724
0.700991
-0.119842
-0.824077
-0.477731
-0.628881
-0.434245
-0.262182
-1.2071
-5.52844e-05
-0.0980479
-0.713905
-0.108735
-0.502947
0.0105381
0.880963
-0.0195836
-0.575284
0.938082
-0.233407
-0.227763
0.851413
-0.485124
0.615649
-0.56238
-0.243771
-0.707561
-0.21729
-1.01354
-0.271395
1.17474
-0.52138
0.160406
0.10781
-0.240087
-0.753541
0.804622
-0.0252792
-0.186493
-0.874497
-1.97853
-0.144661
0.307184
-0.663741
0.719416
0.110771
-0.510757
0.159033
-0.43093
0.301649
-0.0638249
0.44601
1.31494
-15.1425
7.54558
-5.20249
-6.17982
2.34127
2.07957
-3.12369
-0.697604
2.53069
0.28885
0.583812
4.9539
-3.13928
-0.149853
-3.80694
-2.05763
2.92272
-0.0217553
-2.18956
0.902562
-2.00618
0.667781
0.866017
0.547032
-1.27568
1.13308
-1.44318
-1.64168
1.90458
-1.1374
-0.742026
-0.10504
0.101294
-1.0084
-0.0225756
-0.434653
-0.433216
0.394512
0.511543
1.96056
-0.0953894
-1.03586
0.0191163
0.358595
-0.696092
0.151326
-0.264338
0.472936
-0.503315
-1.09085
0.222291
0.033032
-0.631968
-0.17974
-1.83551
-0.835577
-0.111693
-0.661572
-2.03584
-0.815383
-0.614893
-0.663404
0.172979
0.221661
-2.32861
0.93182
0.0937869
0.423759
1.45225
-0.206977
1.38059
-0.343835
-1.06389
-2.62116
1.3571
-0.137221
0.353403
0.290552
0.0451031
0.303882
0.431481
-0.152155
0.858356
0.777125
0.38111
0.679689
0.202629
-0.49401
-0.655776
0.689889
-0.256361
0.854151
-0.939901
-1.1435
0.0836291
-0.434113
0.598305
0.432448
0.967395
0.453364
-7.75838
0.468564
0.848588
0.969455
1.72297
0.886473
0.149498
-0.336532
2.30585
0.597423
0.474663
-0.884625
0.225501
-0.228458
0.821619
-0.639794
-0.145169
0.401698
-1.7017
1.14036
-0.923589
0.123998
0.089417
-0.106926
-1.04673
-0.477463
5.07223
-0.447813
-2.49874
-1.20067
-1.1605
-1.28936
0.430005
-1.86544
-0.567537
-0.157969
0.0214975
3.632
0.77823
2.03301
1.69775
-0.508084
0.726726
2.03578
-0.282967
2.06334
-0.213286
-0.519906
0.00195779
-1.31727
0.324954
-0.707512
-1.41168
0.74204
-0.798999
-0.495639
-0.224508
0.323803
-1.41644
-0.889871
-0.53575
0.224568
2.06067
0.484461
0.398412
0.969121
-0.714033
1.0186
1.8514
0.408067
1.67584
-0.531305
-0.732155
-1.63564
-0.687489
0.290523
0.446536
0.519508
-0.266845
0.173815
0.260606
0.0766841
0.278441
0.181702
-0.786267
-0.357011
1.29618
1.38779
1.03835
-0.308903
1.4609
1.08037
1.53787
1.78675
1.02345
1.76585
-0.0877083
-0.538186
-0.609662
-1.31124
0.189735
1.23155
0.878803
0.937937
-1.20373
-0.532873
1.13202
-0.223694
-0.847123
-0.296824
-0.66808
0.829065
0.759112
0.176515
-0.0420047
1.79095
-0.154685
1.88647
2.17107
0.832635
1.4339
-0.611064
-0.758099
-1.50454
0.790852
-0.302188
2.96238
1.5272
-4.58832
1.43615
-5.89801
3.64391
3.26289
3.82784
2.67067
-1.32437
-2.99473
5.06724
-0.968379
2.15243
-6.14651
-3.35025
1.90765
2.42952
-8.48525
3.57406
1.56455
-0.799087
1.36255
