#input normalization
1 0
1 0
1 0
1 0
1 0
#output normalization
43.5728 176.774
#neurons weights
0.0749556
-0.417799
0.496579
-0.108886
0.0105469
1.48867
-1.89019
3.16768
1.2014
-0.0356548
0.98533
0.900125
0.760525
-2.16708
-0.583962
2.79457
-5.21821
-30.801
15.8071
-3.07902
-2.58567
0.911629
12.987
4.18543
9.89466
-11.9433
0.865588
1.09899
0.694724
0.13996
0.509149
0.938616
0.49401
0.449586
-0.823049
-1.08121
1.78722
-1.53654
-0.307282
-2.01661
1.57902
0.506663
0.236412
0.885156
0.994366
-0.339562
-1.61471
-1.42454
-0.235367
0.989806
0.85445
0.708429
0.618862
-0.268471
-0.0244821
-0.31686
#synapses weights
-6.35192
1.70901
3.19284
-8.06734
1.61329
2.17975
-0.0966071
-0.549823
0.26546
-1.19714
0.561781
-0.0101013
1.34568
9.57875
3.88081
-1.07355
1.24254
1.29535
-0.85768
1.06454
2.31586
0.620343
0.429451
2.61495
0.813792
0.00896037
1.16718
2.05714
-8.77393
1.54421
0.774613
1.00561
1.6104
-10.0717
0.905757
-2.25259
0.440291
1.72698
-7.9571
0.804198
-1.43871
0.17108
-1.13266
11.3978
-1.72174
0.963778
-0.263512
0.0580566
3.36812
-0.821133
-12.5841
1.94383
5.78205
1.61775
2.35174
-7.98063
-0.124632
-3.66179
10.6535
-3.06205
-4.28639
0.0245065
-1.58472
-29.8168
-21.4424
3.90794
0.00775481
2.16361
12.6871
12.7202
-0.0293857
-0.000717305
0.017278
-3.25249
-2.14406
1.42938
1.84013
-0.27818
1.93676
-2.08644
1.65471
0.000564091
0.515708
-2.46461
0.362008
0.0623551
-0.00237979
-0.184039
16.8628
10.5924
-0.0779195
-0.00401277
-0.408939
6.33059
4.7921
0.119012
0.00344345
0.0953251
14.4446
6.9868
-3.28727
-0.00650361
-2.02016
-8.72784
-5.70433
1.60274
0.0259247
0.143644
-0.027849
1.66817
-3.14768
0.115949
-0.537198
9.21041
1.02618
-2.14553
0.325877
1.04504
-11.9892
0.7201
-1.45272
0.283503
0.76889
-2.83518
0.317972
0.935396
0.567577
-0.463515
0.390023
0.0791471
1.36785
1.18338
0.89422
0.350107
-0.169523
0.295633
-0.71971
-0.498264
-1.75293
1.13407
0.086294
-0.545234
0.461018
0.202855
0.357018
0.511172
-0.107724
0.979906
0.996672
0.946467
1.43767
-1.77397
1.17262
1.41803
0.695009
-1.1114
1.14904
0.522057
1.31859
0.52014
-0.449509
0.361621
3.03199
1.62815
-0.0678467
-1.04008
0.868157
1.64352
1.74525
-1.70742
0.0170737
-0.679883
0.34637
0.615347
0.767735
1.13966
-0.354924
1.39268
0.483573
0.727188
-0.00604674
0.675462
0.397597
1.14369
0.193034
-0.0465138
1.18714
0.671228
0.415121
-0.189938
0.510661
0.265693
-0.0632807
-0.119133
0.402878
1.09478
-0.203479
1.28183
0.601932
1.76269
-0.831733
2.41964
-1.90956
0.393313
-1.48887
3.00242
-0.0807524
1.39971
-2.3684
-0.24189
2.42947
-1.58971
-1.21512
-3.23592
2.17103
1.7342
0.0204344
-0.941762
-1.34298
2.4801
-0.888737
-0.115914
-0.0367396
2.08613
-0.995576
-0.300717
-1.46324
-3.66449
0.0353525
-0.386145
-0.267133
-0.905393
-0.506674
-0.51674
0.0193241
-0.689146
-0.335377
2.04836
0.229912
-0.781019
-1.0571
0.357925
-5.74763
0.306571
-1.20524
1.03551
-0.258186
0.726265
0.0698395
-0.407534
-0.612142
-0.400946
1.82697
-1.93996
0.872565
-1.72914
-0.896836
-1.59235
1.23013
0.406195
-2.40674
2.61229
12.3462
0.910519
-5.57125
-0.334308
-3.11184
0.172423
-0.779198
4.61156
3.19535
-1.03752
-2.12439
-1.79545
-0.408869
1.08003
1.95192
-0.704602
1.17014
-0.988797
3.84016
2.26647
2.98204
-1.86647
-0.715702
2.86626
-0.413825
-10.4197
-5.88685
3.01129
1.51258
-1.88887
-3.11102
-5.74558
2.25965
-3.87892
-0.804441
4.14892
3.16777
0.640052
-0.344555
-1.2752
0.945705
-1.32389
0.546973
-3.16333
-0.288879
-1.75652
1.41138
-0.976893
-2.43704
0.734297
0.690461
0.193592
-1.46855
-1.18892
-0.313367
-0.216706
0.34198
-1.91908
-0.115269
0.0389539
-0.653446
-1.74941
0.347388
-0.713022
0.143017
-0.818134
-0.171188
-0.616225
0.681766
-0.304076
0.637262
-0.489276
-0.460044
0.543506
-2.29414
-1.74862
2.87368
4.64377
0.0185508
-0.131003
3.18534
-1.46754
0.023158
0.929209
-0.60191
0.906273
0.330777
-0.971231
-1.20282
-0.794785
-1.22174
-1.89592
0.510141
-2.67857
-2.29813
-3.13012
1.56615
0.560231
-2.45937
4.62237
13.0654
-1.26689
3.58377
-0.15234
0.71298
-4.25291
-1.48002
-0.417925
6.26925
2.5123
4.66803
-2.62378
-0.796065
1.75666
1.40997
-1.27254
0.347882
0.120447
1.68905
1.65074
1.8441
-0.131549
-0.581547
0.984504
-1.94282
-8.0299
-1.34131
0.284764
0.187887
1.61524
-8.20824
4.98968
11.6586
-0.266516
0.792458
0.16336
1.6323
1.25602
0.727461
-0.584102
0.236831
1.5908
-0.199929
0.152294
0.481411
1.25289
0.0953665
0.202101
1.17347
-1.25268
1.43324
0.99964
0.961583
-0.00628301
-0.608573
1.40116
1.10026
-0.572471
1.10027
-0.364702
0.90658
0.567802
0.0815836
-0.573835
0.990159
-1.25168
0.477919
-0.690032
0.728844
0.157844
-0.170478
-0.609419
0.393006
0.390968
-1.19343
-0.985802
-0.911456
0.884993
0.099441
-0.323883
-0.523522
-1.14234
-0.0219405
1.21031
1.14831
-0.230624
-0.0579254
-0.782905
1.1821
-2.55631
1.88688
0.706551
1.77508
-2.00429
2.51556
-0.300974
2.16074
0.0225689
-0.84845
0.816116
3.68166
3.06772
-3.28725
-2.98683
-0.440887
2.11958
1.62655
-3.39209
-0.908302
0.348905
-1.82442
-0.239675
1.78862
-0.882471
1.95402
-2.73588
-0.112565
-2.14376
3.90672
2.32258
2.06041
-3.15658
-0.744351
2.87083
-1.76144
-2.3186
-2.08664
2.20652
1.213
0.401588
-0.0567711
-0.592862
0.982619
-1.04946
1.089
-0.957369
1.96587
-0.972771
-0.309011
-0.499002
0.299389
-0.0535042
-0.381583
-1.5447
-0.912483
-0.689623
-0.023124
-0.511642
-0.774742
0.25393
1.09948
0.781286
-0.439853
-0.0133079
-0.393328
-0.5359
-0.00822689
-0.819949
-0.189029
-0.106493
-0.445137
-1.29699
-0.536492
-1.44186
-2.51148
4.84513
-0.584634
1.91124
-5.17894
-4.07272
-3.99576
3.30317
1.47296
-4.59585
1.88994
20.8279
3.27562
-5.09747
-0.207199
-2.88349
6.11428
-1.10628
2.45605
7.7988
-2.39174
-2.12045
-3.70928
-0.498153
-0.181326
-2.77051
2.27016
0.600549
1.55636
-3.76831
-4.06113
-2.40124
3.26172
1.29106
-2.92014
1.6916
3.58846
1.42701
-2.94948
-0.355913
-1.00158
-0.390154
0.743565
-0.471076
1.65678
-1.50865
0.939388
-2.12364
1.46262
-0.431557
-0.480139
0.6521
-1.28748
0.626561
-0.64465
-0.865178
-0.598016
0.642442
0.0348367
-1.56378
-0.1704
-0.117742
0.281694
-0.372829
0.279037
-0.690562
-0.566961
0.0917316
-0.427939
0.787556
-0.228007
0.220438
-0.507496
0.0791036
1.25594
-1.05902
0.704414
1.37011
0.867962
0.124888
0.0516155
1.32912
1.13748
0.47487
0.375443
0.716346
1.77717
0.979877
0.223087
-0.172624
-0.287013
0.678485
1.22676
-0.0744011
0.875186
0.0742902
0.0562151
1.15202
1.04702
0.0678154
2.32568
-1.9505
0.607617
-1.4397
3.22254
1.27207
1.74548
-2.41903
-0.103945
2.74538
-0.615889
-3.06797
-2.65773
2.20038
1.48483
0.416829
-1.26107
-0.596794
1.41999
-0.939443
1.15858
0.874818
2.0524
-0.83024
0.833746
0.681424
-0.0524651
1.00955
0.00472938
0.763825
0.174351
0.45729
0.0962979
0.062885
1.77086
-0.302724
0.941642
0.313141
1.33114
-0.147766
0.574571
-0.104908
-0.290651
0.285203
0.68595
-0.298358
-0.0587275
0.494425
0.420377
0.156461
1.58987
-1.88285
0.199675
-2.14084
3.84747
3.04387
1.82475
-3.11783
-1.35076
2.70743
-1.70239
-2.63114
-2.11286
2.8433
0.451549
0.851074
-0.741039
-1.37944
0.611476
-1.4892
0.718331
-0.721839
2.2282
-0.452369
0.348416
-0.0554429
-0.438068
0.197948
0.0542246
0.18986
0.492029
-0.0926146
-0.241931
-0.085983
-0.101664
-0.0239438
-0.293781
0.801399
-0.519171
0.0295944
0.194614
-0.253477
0.294213
-0.301295
-0.270347
0.28063
0.400019
0.347918
0.360931
0.709186
-0.916712
2.78481
-0.848139
1.43275
-2.92438
-0.414355
-2.13362
1.71327
0.222025
-2.10672
-0.281978
6.49072
4.2323
-8.2081
-0.426644
-0.396349
1.08608
-0.752972
0.499289
2.12742
0.903246
-3.54502
-1.31857
1.38819
-2.19627
7.47617
-4.66371
-1.09189
9.25797
-8.72456
-7.179
-3.67622
-3.57217
-2.87561
-12.126
6.39638
1.47475
11.1941
-1.49126
2.21982
9.69992
5.06495
-1.70479
4.24608
-3.21756
8.66248
-3.80191
1.20736
-8.26477
