#input normalization
1 0
1 0
1 0
1 0
1 0
#output normalization
3.67599 119.091
#neurons weights
-0.00704793
-0.0179198
0.0186099
0.265992
0.376151
-2.78787
0.287487
0.34257
-4.1451
-1.20212
28.9618
1.48303
-0.64496
-0.436467
1.87132
-1.03416
2.37087
2.77334
0.863304
-1.23617
0.127603
0.921252
-3.54596
-3.19353
16.4848
-24.5184
1.0927
-0.208622
-0.00892171
-0.277884
0.445508
0.322185
0.687104
-0.286744
0.130572
0.204191
0.251546
-0.0189521
2.25874
0.378624
-0.198729
-0.990959
0.697566
0.235252
-0.449405
-0.510559
0.0251033
0.0766251
0.510748
-0.402605
-0.543402
0.194764
0.0869447
-0.542749
0.382826
-0.456622
#synapses weights
-0.707261
-1.20554
0.0235195
-0.92835
-1.11367
-4.45626
0.330975
2.18887
1.19026
-0.244178
-1.19685
0.536815
0.885533
1.42535
0.389301
-5.92118
-3.38957
0.402006
-15.0762
-3.27924
-4.14164
-0.355541
1.59833
1.99709
-0.307159
0.0806633
0.384126
-0.00467844
-13.3838
8.2559
2.10584
0.136145
-0.387828
-3.24558
0.807754
1.23597
-0.446048
-0.310927
-0.947313
-0.0947872
4.70795
-0.305648
-1.83723
-2.27454
0.0696837
0.370188
-0.757581
-0.225483
-3.58328
0.726764
2.31743
-0.602481
-1.31945
-1.75389
-0.493473
0.367503
0.0434188
0.178566
-3.12396
0.68514
0.575148
-0.17931
0.121681
-3.27147
0.704708
-1.14043
0.197298
0.457284
1.24549
-0.0854552
-0.701362
0.545801
1.15632
2.81519
-0.365968
0.333944
-0.636851
-0.245546
-2.35862
0.0874786
0.103581
-0.803211
-0.266374
-2.96108
1.02163
0.0928705
-1.15432
0.0105327
-0.066357
-2.80054
-0.398414
0.284697
-0.0178119
3.93726
-1.31084
0.0399407
0.0468399
0.00101306
-6.74461
1.94251
-0.105329
-0.247865
0.000616585
10.6222
-5.35834
0.76913
0.173614
-0.48391
-2.60335
0.198507
-3.98492
-9.01723
0.0714807
-0.50091
-3.1593
0.112488
-0.00400337
-0.00030338
0.322127
-0.343092
-0.977272
0.606411
1.14736
2.25464
-0.0743886
0.251894
0.409377
0.548139
-1.18031
0.392957
0.0841627
0.723785
-0.320107
0.188378
0.611231
0.545797
-0.0829999
0.627448
-0.215466
0.589405
0.185199
-0.00966381
-0.75689
-0.104402
0.483537
-0.0146375
0.32264
-0.0807962
-0.297551
0.301079
1.02368
-0.495
1.08897
-2.88591
-0.385021
-4.86017
-0.984977
0.181178
-0.924714
-2.55137
-0.0705485
-1.94981
-2.20258
0.889694
1.86875
-1.57598
-1.8241
1.52735
1.88115
-4.11039
3.01858
-1.11081
0.737445
-1.89948
0.548111
0.262046
0.369982
-0.386364
0.220054
0.209317
1.32074
0.606185
-0.00493072
-0.0867069
1.04485
-0.239921
0.734846
0.607029
0.264607
-0.705595
0.64383
0.848997
-0.176875
-0.651556
1.57258
0.287239
0.61511
-0.317655
1.25949
0.238887
-0.628489
0.285515
-0.601088
0.537651
0.231263
0.685318
0.295621
-0.582775
0.401108
0.0862955
0.624049
-0.0315466
0.149423
-0.352767
0.00542339
0.400495
0.084634
-0.498881
-1.09326
0.45791
-0.43079
0.0411404
0.105415
-0.424551
-0.720271
0.141242
-0.385349
-0.760627
0.272971
0.0763392
0.560868
1.02307
0.140975
0.676884
1.2497
-0.0406559
0.718839
1.05351
-0.59961
-1.38015
0.291333
1.53688
-1.26803
-1.48494
0.831082
-0.236587
0.476791
-0.396828
0.405029
-1.02326
-0.00866529
-0.011845
-0.259488
0.126698
-0.064206
0.0987596
-0.297174
0.134635
0.324277
0.169934
0.53258
0.697745
-0.341955
-0.0436952
0.0603742
0.630483
0.463396
-0.0162437
-0.438464
0.947117
0.410352
-0.21517
0.0897595
1.15494
-0.611898
-0.198592
-0.114732
-1.17653
5.0104
-0.378654
9.70304
0.577046
0.283142
-0.136261
2.04371
0.0153762
2.31221
1.37386
-0.613242
-1.42994
0.849553
1.59023
-0.81777
-2.02348
6.0332
-5.28002
0.675021
-0.592381
-0.225471
-1.13965
-1.03357
0.0859046
-0.661347
0.884031
0.0462307
3.66767
-0.0197083
0.135518
-0.0107144
0.164747
-0.137233
-0.35757
0.113744
-0.199196
-0.248046
-0.278771
0.0708025
-0.328438
-0.62624
0.510703
-3.2103
-0.202893
-0.396221
-1.28623
-0.553806
4.86712
2.61208
1.98802
-11.9238
2.36623
-22.3452
-0.448546
0.269109
-0.211003
2.44924
-0.0426407
1.5619
0.586417
2.57813
0.978245
0.655731
1.64028
-0.402038
1.55075
-12.5807
23.3464
0.654261
0.510952
-0.408281
1.20763
0.669419
0.36096
-0.195394
2.10852
0.0835543
1.9649
0.287996
-0.0432646
-0.00659069
0.0117016
0.374603
-0.145956
0.0373331
-0.22881
-0.0228422
-0.34357
-0.179048
0.298378
-0.73226
-0.43296
-1.40907
0.554558
-0.366441
-1.13618
0.00938698
-0.292872
0.203188
-0.0104393
-0.355749
0.366995
-0.885933
-0.728618
0.0323248
-0.772225
-1.02089
-0.418151
-0.519428
-0.927089
0.499072
0.713522
-0.392183
-0.712998
0.799072
0.810431
-0.886313
1.26127
-0.793155
0.234626
-0.474715
0.249138
-0.909417
-0.764798
-0.146706
5.00946
-0.608817
8.43971
-0.151724
0.676668
0.340259
-1.09104
-0.339929
-0.479375
0.0247929
-1.27152
0.0333884
0.302007
0.309657
-0.15775
-0.802199
3.70531
-8.50348
-0.556159
-0.521569
0.147458
-0.106588
-1.51895
0.392787
0.255804
0.555632
0.316926
0.544028
0.738693
-0.353159
0.718063
1.6603
-0.185086
1.135
0.935762
-0.384756
-0.638939
0.682508
1.19936
-1.24992
-0.977137
1.32776
0.921365
0.198306
-0.254582
1.44634
-0.298419
0.926163
-0.0189258
-0.0374332
1.55932
-0.297139
-0.0652428
-0.0396177
-0.266774
0.0833432
-0.820563
-0.148479
-0.18154
-0.340825
0.654948
0.094056
0.14204
-0.685097
-0.109025
0.293187
-0.748028
0.0844708
-0.577615
-0.287013
-0.385676
0.0238996
-0.313272
-0.0390422
-0.136579
-1.58845
-0.0914585
-2.61629
-0.829692
-0.146862
-0.802849
-1.89857
-0.454468
-2.05996
-1.38371
0.876496
1.20858
-0.818692
-2.01508
0.383494
0.950744
-2.55066
0.410745
-0.285965
-1.05862
-0.291299
0.404636
0.390112
-0.048665
0.64218
-0.68048
-0.240007
-0.921334
-0.774233
0.229089
-1.09681
-0.897348
0.162198
-0.819979
-1.13532
0.21868
0.878596
-0.656119
-0.928362
0.867874
0.818974
-1.22754
0.995688
-0.736695
0.206856
-0.446993
-0.0837173
-0.603123
0.222696
-0.0228918
0.487375
0.291368
0.147575
0.363252
-0.661778
0.227755
0.70024
0.487432
1.14525
1.41341
-0.855309
-0.441061
0.703327
0.800881
-1.16754
-0.589376
0.795316
-0.339358
0.497028
-0.259771
0.469075
-0.893877
0.015291
-0.192231
-0.581756
0.164557
-0.288913
0.232279
0.636899
-0.751585
0.136363
0.570033
0.583027
0.779073
0.992753
-0.3834
-0.230884
0.378717
1.18296
-0.851696
-1.11369
0.789071
0.0631744
0.513133
-0.793423
0.119511
-0.244125
0.446698
-0.216879
-0.119544
-0.578127
0.552561
2.36345
0.874102
-0.242331
0.0867853
0.562486
-0.0949708
0.494508
0.746374
-0.45682
-0.636421
0.0355164
1.10785
-0.890202
-0.761872
1.07902
-2.28916
0.148208
1.32522
0.376753
-0.124045
-0.418063
-0.403615
-0.204556
0.215063
-0.208409
0.124093
0.409328
0.22517
0.486085
1.11812
0.242766
0.20206
0.660064
0.0500891
-0.663327
0.375733
0.376979
-0.780829
-0.279959
0.282082
-0.122822
-0.0404207
-0.323276
0.198571
-0.242598
-2.54023
-0.864426
-1.41751
8.84512
-1.57609
19.462
1.00543
-0.742626
0.147307
2.96245
0.0416825
3.4738
2.09447
-1.6837
-2.32093
1.35928
2.76398
-2.36842
-4.37976
7.64842
-11.5608
0.658294
-0.511183
1.4247
-2.08658
-0.447109
0.110299
-0.021997
0.319176
0.047484
0.422631
-0.208312
-0.287771
-0.49188
-1.08677
0.281829
-0.603399
-1.0034
-0.391967
0.675703
-0.865389
-0.546694
0.208335
0.425002
-0.731041
-1.51743
-0.63543
-0.505609
-1.84458
0.146635
-0.705634
-0.433416
-0.0156001
0.493859
0.133177
-0.993142
-0.331234
-0.342521
-0.302932
-1.85709
0.251397
-1.00642
-0.884263
0.605152
0.846402
-0.866472
-0.68278
0.326089
1.13039
-1.98959
-0.47082
-0.537952
0.0664062
-3.46787
0.195565
0.49279
-0.720841
0.464484
0.402043
-0.263536
-1.6365
-0.463756
0.0846586
-0.0295774
-1.53159
-0.33412
-0.607466
-0.79959
0.404938
0.403893
-0.875474
-0.832958
1.04684
0.449205
-1.16674
1.26159
-0.226028
0.888236
-0.679941
-0.179814
0.710505
-0.240333
-0.384013
0.401224
-0.104466
0.444534
0.738759
-0.242165
0.296377
1.83768
-0.176597
1.02216
1.03233
-0.159379
-0.679892
0.25546
1.29975
-0.130766
-1.14576
0.994818
0.685972
0.707024
0.366306
1.79106
-1.1117
-2.67545
-5.39891
2.99002
-1.32953
0.772903
2.39114
4.40633
-4.09624
10.6717
-3.71012
1.05671
-10.8583
2.49223
-1.85768
-3.79575
0.756974
0.249142
0.396881
-3.37535
0.837509
16.0196
-3.26632
-5.5709
-1.92028
3.10671
