#input normalization
1 0
1 0
1 0
1 0
1 0
#output normalization
3.67599 119.091
#neurons weights
0.317976
-0.30132
-0.476576
-0.389763
0.0831332
1.30354
-2.99202
3.43734
-1.23465
3.05613
0.430366
-0.28911
3.8909
-1.11001
0.692791
-1.0863
0.516676
0.0138263
2.41678
1.9823
0.839352
-1.24273
-2.13447
2.29086
-0.0534532
10.6399
-0.50222
1.32767
0.480728
0.87196
0.236732
-0.23382
-0.254882
-0.163145
-0.593948
-0.353147
0.348726
-0.291074
-0.644109
0.280609
-0.105676
0.0865857
0.33276
0.0405027
-0.339088
0.0776567
-0.0140691
-0.872189
0.254694
0.0567176
0.350902
0.067919
0.542447
0.253928
0.215026
-0.721182
#synapses weights
-0.876176
-0.167393
0.232014
0.860579
0.390658
0.123888
0.650929
-0.100617
0.342076
-0.837497
0.159692
0.44199
-0.035285
-1.49058
0.790419
0.251193
0.306344
0.00139311
2.66267
-0.373542
0.294498
-1.57347
0.0643763
-4.46124
2.22244
-0.421828
-0.297194
-0.267515
-4.35995
0.965239
1.19296
-0.284111
-0.640907
-1.28893
-0.280157
-0.0757113
-0.213959
0.0338163
-2.26385
0.807478
0.136809
0.0584029
-0.0132537
0.896409
-1.04922
0.240039
1.0371
-0.118583
1.32351
-0.0399189
-3.11038
-0.172886
-0.820181
4.47834
-0.381833
-0.860991
0.741755
0.591247
0.501625
0.490456
-1.11677
-3.40457
0.0471186
0.493828
-1.16615
-0.0604458
0.262167
0.0416584
-3.9158
2.1312
-0.240405
-0.359158
-0.0249671
-3.05148
0.856885
-0.0694202
-0.318713
-0.0250849
-1.6602
-0.413923
0.19658
0.331441
0.0743225
2.71856
-0.123689
-0.296208
-0.307085
0.0177341
-0.274891
-1.41188
0.0386436
0.570939
-0.100392
-1.71723
0.248182
-8.97048
-0.18534
3.54403
1.31947
0.432564
0.0317292
0.130853
0.0143906
-5.76702
4.40536
7.45304
-0.425804
-3.30281
-0.660423
0.124261
-2.31639
0.79689
1.3756
3.0052
1.09619
-1.94106
0.864718
0.954854
1.18147
0.892516
-0.123639
0.27345
0.278082
1.48448
0.459936
0.689789
-1.1346
1.20702
-0.878895
2.03266
1.72785
0.254053
1.52159
0.804527
0.388875
-1.58944
-1.23586
-0.298057
2.13483
2.59538
0.703087
-1.49123
-0.650037
1.22042
-0.0884117
0.922826
-0.110167
-0.427832
-0.881523
0.14085
-0.262664
0.560248
0.655536
-0.304874
-0.304657
-0.189614
0.0395728
-0.812159
-0.982715
0.0787938
0.230876
-0.689842
0.327083
-0.237673
-0.202276
-0.271187
0.342654
-0.00484473
-0.267094
0.3111
1.60838
-0.328201
-0.135951
-0.373358
-0.43286
-0.15898
-0.282069
0.297676
-0.532578
0.517998
0.249989
-0.0377273
0.0199438
-0.388285
-0.281352
-0.448183
-0.221631
0.758708
0.441668
0.0487805
0.536747
-0.545463
-0.605768
0.397216
-0.352267
2.0147
-0.150134
-0.204672
-0.0565974
0.548572
0.079652
-0.682216
-0.139627
-0.500202
-0.37887
-0.0733199
0.136168
-0.0651947
0.231752
-0.153549
-0.574709
-0.424692
0.113962
0.499891
-0.192003
-0.238448
-0.625379
0.048211
0.25438
0.000945951
0.0162701
0.163946
-0.118912
-0.219992
0.199759
-0.327713
-0.478476
-1.96818
0.813832
-1.12491
-1.72532
-0.35133
-1.07456
-0.331092
-0.592777
0.352894
1.05259
0.699869
-0.675331
-1.25086
-0.27978
1.58548
0.958291
-0.730185
0.215469
-6.34083
-0.0684211
0.210143
0.516876
0.0929537
0.468275
-0.221976
-1.16979
0.612672
-0.144747
-1.18598
-0.164083
0.218172
1.32487
-0.259749
0.257581
0.909577
-1.39424
0.24716
-0.378258
0.429025
0.5517
-0.0547882
-0.336343
0.0934726
-3.40041
-0.516053
0.45432
0.473104
0.197431
0.548973
-1.50863
0.97685
-0.997574
1.72052
2.03973
0.836652
3.11179
1.58322
-0.115389
-1.1143
-0.634846
-0.0438561
2.20707
2.68892
1.56235
-1.44836
-0.621452
0.824622
0.506393
0.44516
0.172889
-0.566904
0.488416
0.966176
-0.265372
-0.0204321
0.629501
-0.0387226
-0.272208
0.132079
-0.207285
0.077542
-0.447894
0.237689
-0.276566
-0.364995
0.120344
-0.114214
-0.361193
-0.000988055
-0.176648
-0.729246
-0.297211
-0.345537
0.220545
-0.0152371
0.0124723
-0.0080569
0.246227
-0.912224
0.00330298
-0.92186
0.876706
-1.59163
-1.76748
-0.192026
-1.21158
-0.80258
-1.08388
0.69212
-0.0658337
-0.493655
-1.82579
-1.51175
-1.20154
0.807126
0.495014
-1.29414
-0.13599
-1.04886
-0.313216
0.531699
-0.23496
-0.712299
-0.680472
0.673242
0.00462247
0.502982
-0.795074
-0.688135
0.118876
-0.641605
-0.999969
0.115561
0.189626
0.818167
-0.0331031
-0.9143
-0.95598
-0.672493
1.14019
0.609447
-0.427754
0.190362
-0.161327
-0.0537491
0.248916
0.112663
-0.15202
0.257277
-1.00006
1.10372
-1.49241
1.16626
0.52676
0.0319951
1.40412
0.29932
0.500602
-0.558659
-0.352081
-0.722854
1.35104
0.657698
0.864668
-1.02877
-1.01916
0.693424
-0.344334
0.768079
-0.120502
-0.479655
-0.425899
0.432809
0.343397
-0.666029
1.171
-1.30321
1.93675
1.53663
-0.026231
2.19373
0.567003
0.641782
-1.45704
-0.453974
-0.509858
2.0084
2.34942
0.596598
-1.59912
-1.12083
1.57963
0.419698
0.903465
-0.133691
-0.519565
-0.610223
-0.0830747
0.0334396
0.198074
-0.429077
0.656221
-0.225369
-0.374044
0.408829
-0.403375
0.192832
-0.103316
0.176132
0.300587
0.398967
-0.383893
-0.382959
-0.509386
0.559759
0.254411
-0.267147
-0.29886
-0.198677
-0.171151
0.0178717
0.609762
0.0934771
-0.786951
0.989058
-0.942253
1.40504
-1.259
-1.80874
0.238954
-1.20717
-0.959615
-0.425167
1.29769
1.58213
0.0252587
-1.16193
-1.59133
-1.03569
2.30027
0.958056
-1.15269
0.0855455
-1.55727
0.216774
1.11958
0.445067
-0.716823
-0.975479
1.06171
-1.07383
0.929927
-1.307
-1.19333
-0.20362
-0.742141
-0.127068
-0.00412677
0.590357
0.719881
-0.085803
-1.52066
-1.11995
-0.0319269
0.894188
1.47277
-0.891932
0.447507
-1.83682
-0.0795749
1.09782
-0.105243
-0.648354
0.257717
0.0332444
0.0478923
0.0883411
0.225823
-0.606699
-0.0592736
-0.281315
-0.480266
-0.0429517
0.263761
0.571802
-0.132292
-0.0862362
-0.157958
0.319048
0.220753
-0.120484
0.139046
0.110968
-0.669778
-0.0962727
0.434118
-0.0824565
-0.362586
-0.0242978
-0.280063
0.732676
0.12333
-0.438663
-0.242238
-0.313351
-0.731389
-0.605824
-0.53676
0.0213886
0.0679252
0.536856
0.0159134
-0.395875
-0.0182813
-0.565949
0.029888
-0.454539
-0.459102
1.24447
0.353384
0.142876
-0.385421
0.142951
-0.381283
0.056377
-0.625594
0.00467561
-0.331239
-0.966741
-0.273054
-1.11265
-0.615629
-0.494415
0.111237
-0.538985
-0.418059
-0.960075
-0.966876
-0.83462
0.481993
0.27171
-0.106358
-0.817434
-0.294678
0.359495
-0.869245
-0.203507
-0.589795
0.243422
-0.305764
1.44923
-0.926993
1.20767
1.33446
-0.0758385
1.23962
0.00866881
-0.193235
-0.414839
-0.845655
0.990617
0.53985
2.10173
0.216059
-1.67527
-1.10189
0.837745
-0.149102
3.10107
0.613636
-0.104249
-0.0447975
-0.0477982
-0.764541
0.653514
-0.0965182
1.00477
-0.248856
-1.0357
0.49975
-1.28845
-0.837194
0.0925862
0.253591
0.30277
-0.24943
-0.798163
-1.24983
-0.768328
0.485582
1.03215
0.156997
0.10316
0.401382
-0.275327
-0.0800858
-0.200388
0.148656
1.20039
-1.43348
1.6617
-1.05878
1.19802
1.90427
-0.23527
2.27032
2.20362
0.210122
-0.841878
-0.707451
-0.93205
2.36116
2.19891
0.897049
-1.9634
-0.961495
1.68939
-0.12132
0.451106
-0.143433
-0.421753
-0.628132
-0.0785814
0.845611
-0.58653
0.650433
-0.459045
0.884793
0.811278
0.336263
0.981531
1.09201
0.047026
-0.747329
-0.753547
0.547555
0.913926
0.857198
0.253482
-0.571445
-1.06676
0.642807
-0.0106405
0.410061
-0.451712
0.215603
0.479739
0.518101
0.120084
-0.137715
0.864263
-0.236259
0.262823
0.382098
0.421104
0.0823424
0.148822
0.177762
0.117716
-0.320923
-1.05635
-0.131838
1.00147
-0.194082
0.0323572
0.397866
0.75893
0.561013
1.13089
-0.116501
-0.277664
0.188249
0.043884
0.619847
-2.4905
2.39303
-1.54106
2.63566
2.98441
0.359466
3.17181
1.02847
1.84005
-1.98538
-0.929885
0.891005
2.01604
2.88411
1.204
-1.66492
-1.54795
1.98754
-0.427479
7.58122
0.100373
-0.884622
-0.226954
0.360578
-1.10193
0.770158
-0.758925
1.64209
-2.02846
-2.09926
0.463163
-1.58414
-1.09925
-0.424519
1.27794
0.839119
0.0329865
-1.95628
-2.23672
-0.582005
2.08013
1.21032
-1.02549
0.511673
-2.10287
-0.150633
1.14417
0.42855
-0.290302
2.85645
-5.38556
-3.48474
1.50837
5.69915
5.7551
7.98345
-3.63363
-4.56253
-2.8551
3.07353
2.49084
-1.73732
-1.8072
0.10967
0.228755
-2.94516
-2.77026
-4.21287
-4.78589
8.44803
2.43437
-2.90321
7.7066
-2.07952
