#input normalization
1 0
1 0
1 0
1 0
1 0
#output normalization
35.2234 155.598
#neurons weights
-0.146919
-0.144884
-0.463194
0.210969
-0.287284
-0.623674
-9.13252
1.02286
-2.59579
19.4654
-7.79116
5.67257
0.0616949
-13.5652
-0.216588
0.693505
0.00113939
-0.738667
0.339527
1.06474
0.566601
-8.79965
0.218991
1.4323
1.87706
-0.405819
3.14385
0.51129
-1.41577
0.852825
0.630979
2.01623
-0.541649
1.60203
-0.17053
-0.786112
0.522849
0.811626
-0.815051
0.611908
-0.344174
0.843477
1.74789
-0.505908
0.636046
-0.000376936
0.298147
-0.416339
0.0175666
0.692965
-0.167453
1.09818
-0.266155
-0.218895
0.536102
1.31721
#synapses weights
-1.72968
0.0444233
-0.201598
2.70298
-0.334163
-4.21717
0.115234
-2.30917
0.245532
0.000377129
-5.48325
0.0488989
4.04333
7.74206
0.342619
-0.0584759
0.00262708
0.00382755
2.54776
-1.12305
0.80689
0.103314
0.948785
-17.3593
5.60605
-5.75132
-0.0274385
-2.55035
-4.58363
-2.94861
-0.077835
-0.0180245
-0.242269
-11.6719
10.6902
-1.11356
0.672629
1.15002
2.851
0.50518
0.243279
0.0370476
0.548528
17.032
-9.19086
0.622139
-0.0801478
-0.24389
-0.176651
-0.552451
-0.250229
0.110188
-0.754325
-4.16435
0.219119
0.673044
0.101705
0.382862
-8.91203
-0.00887241
0.850219
1.10889
1.86832
8.86329
-0.158645
0.417674
-0.00458826
0.0413793
2.94741
-2.81088
-1.35414
0.279694
-2.00729
-9.85372
0.460246
-1.98628
0.570066
-0.015827
1.92851
0.718362
-6.51184
-0.0150182
-2.7651
-3.46029
-6.0822
-0.29029
-0.141181
-1.29065
-1.66523
0.657599
-0.386558
-0.128314
0.795908
1.66363
1.49788
-0.622205
-0.0527299
-0.868121
-3.99885
1.74676
-1.34282
-0.0231205
-1.01914
2.06056
-0.629926
0.215368
-0.0373576
-0.145166
-2.73518
0.0858052
-2.58226
0.335879
1.6815
3.0788
0.668043
5.33196
-0.754943
-1.75776
0.094741
-0.55039
-1.66574
-0.143908
0.56089
1.97537
0.364638
-0.79918
0.0500098
1.83756
-0.201661
2.88038
0.771574
0.954282
1.995
2.0146
-0.0643357
-1.60512
-1.43236
-0.404017
-0.130556
2.24383
0.708007
-0.677941
0.517236
1.44354
0.483148
0.345744
-0.197758
-1.98928
0.162493
0.158775
2.60425
-15.5423
1.91282
-0.339651
18.6201
-17.2685
8.43448
1.4706
-22.751
1.1577
1.62837
0.732217
1.76678
1.05526
1.14987
1.57206
-1.83994
-1.1813
2.01373
1.34095
0.290813
2.39668
2.64773
0.237045
2.09312
0.833028
-0.668612
-1.98045
0.056668
-3.46008
-0.609581
-0.831519
-2.2336
-2.34893
-0.0976605
1.20201
1.50105
0.0520293
-0.556214
-2.59939
-0.863372
0.461716
-0.596252
-1.86573
-1.17022
-0.211752
0.159923
1.89185
-0.327929
-0.664558
0.701311
1.4695
1.92822
0.213685
2.00235
1.91628
1.51323
2.43165
2.29863
1.34869
0.0468785
0.0179005
1.6338
0.275647
1.79905
1.42004
0.688721
2.13644
1.33939
2.2502
1.15175
1.59887
-0.154689
0.206712
1.44177
0.171958
-0.583486
-1.19331
1.12972
-1.29027
-0.094628
-0.4208
-0.703933
-0.731451
0.198542
0.445714
1.24674
-0.0940099
-1.17206
-1.78535
-1.074
0.890735
-0.358684
-0.46707
-2.02826
0.286785
0.114166
1.86559
-0.219675
0.330522
0.132391
0.0324396
-1.42358
0.206352
-1.67743
-0.619197
0.119126
-1.44457
-1.68124
-0.460291
1.17768
1.19068
-0.00378522
-0.616515
-1.90321
-0.748391
-0.0340115
-0.317625
-1.07919
-1.29004
-0.673649
-0.401955
0.835296
-0.0579157
-0.81347
-0.0540968
-0.788258
-0.712268
-1.01212
1.75509
0.278582
1.8846
-0.120309
-3.72898
0.219434
0.955241
0.396723
0.299294
2.34144
-0.93738
-0.251761
-0.274077
0.24924
-0.499104
0.466271
0.878089
0.0218299
1.25333
-0.543109
0.368952
1.52972
1.69112
-0.887824
1.32629
-0.491655
0.147884
2.69131
-0.947497
-5.29214
1.02598
2.13821
2.62812
1.56964
-0.304035
-2.17839
-0.477871
0.244466
0.15376
0.0888515
-0.506463
0.711861
1.21436
3.1151
-0.679429
1.37134
-0.725119
0.422413
-0.544297
-0.633986
-0.146895
-0.507231
0.0631162
-0.224288
2.07323
0.245286
-0.479931
0.070303
-0.662254
0.352182
0.208559
-0.44289
-0.855047
-0.0203002
-1.03379
0.165248
-0.255574
-0.0803512
-0.840571
0.512417
-0.861722
0.364804
0.561732
0.406592
-0.131889
0.605581
0.589531
0.635901
0.506954
0.900536
0.513235
-0.157234
-0.0827738
0.00302769
0.416606
1.20443
0.717839
0.18802
0.0902929
0.400283
0.654316
0.384025
0.0388194
-0.41607
0.567906
0.117293
-0.0989669
-0.624578
-1.69131
-0.0923344
-2.55295
-1.12787
-0.882037
-1.69454
-2.64011
-0.377527
0.789768
1.0869
-0.723485
0.266204
-2.23699
-0.956709
0.661916
-0.64718
-0.885523
-1.19947
-0.291734
0.0535916
0.883344
-0.215328
-0.251896
0.10102
0.205796
1.12004
0.0909975
2.37478
1.03735
0.7522
1.8745
1.39817
-0.177896
-0.602183
-0.586498
0.646191
-0.316095
1.64249
1.1008
-0.240123
0.56823
0.942208
1.22823
0.43068
-0.465738
-1.03651
0.15222
-0.0152392
-0.753577
-13.4045
2.85116
-6.00042
16.9595
-6.70942
11.7727
3.27161
-13.1577
-1.16797
-1.78002
-1.68473
0.42735
2.82184
2.28119
1.73558
-8.15202
0.344536
3.12379
3.36289
0.219001
-0.772887
-1.47426
0.293675
0.285969
-0.423887
0.997975
-0.580051
-2.27667
-0.336909
1.24965
-3.05566
-0.33086
3.55129
0.348888
0.509923
0.00385945
0.235368
-2.73608
-0.672356
-0.450789
-0.697052
0.310034
-0.552872
0.440159
0.456388
-0.0709824
1.02471
-0.0227737
0.110451
0.115098
1.0266
0.380575
0.259928
-1.20454
0.828337
0.362363
0.143806
-1.41388
0.916706
0.678656
0.0867773
0.553856
-0.266061
0.0126947
0.146135
-0.192806
0.0550549
-0.604351
-0.731043
1.07788
-0.150031
0.601604
0.253821
0.553691
0.712713
0.436654
0.000565271
0.30839
1.16446
1.06455
0.130237
-0.0931949
-0.753241
-0.412913
0.292932
0.486086
0.162073
-2.7318
0.0432546
-0.00984916
0.036373
0.321594
-0.269001
-0.120922
-0.466826
2.50968
0.523319
-0.22469
0.570045
1.81709
0.287938
-1.12268
0.97619
-3.12224
-1.73085
1.87259
-2.15775
2.50465
2.14448
0.804542
2.09001
0.746191
1.31175
-2.88089
-0.872045
0.841183
0.63275
-1.15211
0.243263
2.21121
0.78461
2.79657
-0.83802
0.853246
0.92436
0.734979
-1.62805
0.196248
-1.79294
0.091519
-0.131123
-1.56577
-3.16634
0.144014
1.08909
1.27747
0.482066
-0.334907
-2.34259
-1.33316
1.0732
-0.700621
-0.921683
-0.903018
0.696692
0.24774
2.02794
-0.420195
0.174854
0.525451
5.45347
-0.935409
1.24531
-7.21577
4.45531
-7.52376
-0.854441
4.90341
0.7451
0.384742
0.544046
-0.079425
-1.40769
-1.90045
-1.08083
2.54194
-0.586083
-0.581256
-0.700118
-1.34413
-0.316296
1.19826
-1.23316
0.42232
-1.27532
-0.657905
1.99937
-2.30797
1.62861
0.179123
3.59323
2.06798
2.29574
0.244266
-0.832401
-0.850424
-0.426922
0.0167134
2.08861
1.01239
-0.211564
1.91089
1.45626
0.0401266
0.503485
-0.292937
-0.552335
0.264394
-0.437507
-0.816584
-1.56397
1.294
-0.00970085
3.45785
0.465755
-1.17066
0.667566
0.476067
-0.763732
-0.381279
-0.489699
0.00528276
-0.53769
1.86289
1.31829
-1.17388
1.19399
0.410241
0.50538
-0.661039
-0.444459
-0.519726
0.342146
-0.573724
-1.38895
-9.48625
2.44519
-0.508286
11.6465
-2.47966
7.65899
2.44149
-10.0954
-0.496613
-2.02234
-1.71238
-0.334772
3.74071
1.81948
2.00991
-7.47863
1.4036
1.91819
0.891399
-0.95014
-2.05869
-1.68403
1.0184
-0.499749
0.652693
4.6161
-1.32156
5.00316
-6.35357
1.69993
-7.72035
-1.59204
2.13386
-0.338777
1.03461
1.38409
-0.102448
-0.389041
-1.47253
-1.02079
3.45026
-0.679864
-0.655409
-1.08063
-0.00561838
-0.366303
1.18106
-0.0425029
-0.243312
1.20348
0.346076
-1.74464
4.34509
-1.31381
0.120047
-4.59985
-1.94204
-1.50349
-0.0927998
1.43516
1.23144
0.409967
0.531469
-1.4835
-0.252957
-0.264115
-0.00709393
-1.28744
-0.125224
0.0483908
0.917612
1.60028
0.0634444
0.763972
-0.250852
0.988351
0.56903
-0.104138
1.79009
-0.0907953
1.19029
0.639631
1.32987
-0.165954
-0.230263
-0.732893
-0.0219167
-0.425114
0.966337
0.628189
0.0555804
1.17316
0.778588
-0.0452812
0.473877
-0.268235
0.201477
0.190836
-0.162066
-1.42148
-10.7987
1.95725
-11.3504
1.7396
5.01345
3.24091
-9.96045
4.00627
-0.854647
3.50376
-3.78096
8.51649
3.38121
3.80233
-3.3869
6.68451
-0.787733
9.18932
9.4296
-1.31601
5.71409
-3.11297
-5.45727
3.86343
