#input normalization
1 0
1 0
1 0
1 0
1 0
#output normalization
35.2234 155.598
#neurons weights
0.419291
0.26475
0.385488
0.139033
-0.170421
1.12222
1.13391
-0.622025
0.488712
-1.08358
-1.05396
1.429
17.7334
-1.10462
-0.209296
-1.1265
1.03543
-0.0654493
0.0830521
-1.25148
1.16014
10.9634
1.5049
-0.437992
8.16975
-2.75476
3.97621
0.449931
-0.777197
19.7283
0.674627
0.829838
0.255118
0.0351738
0.215165
-0.104964
1.13598
-0.273185
-0.593126
0.05277
0.861893
-1.11154
-0.9944
-0.834128
-0.23577
0.535081
0.448669
0.152801
-0.687248
1.40196
0.913925
-0.511067
2.19383
0.382932
-0.94935
0.762428
#synapses weights
-2.49847
0.872298
0.890975
1.07509
0.326269
0.116271
0.517682
0.866766
4.94192
1.22503
3.45837
-1.32732
0.217038
-3.86773
0.0473049
-2.35109
0.248445
0.118568
2.0968
-0.108037
-2.55286
-0.0874393
-2.52031
3.94016
-0.979673
1.98873
-0.63672
-0.912573
-1.26878
-1.29559
-2.84969
1.04759
1.59056
0.687225
1.35868
2.59389
0.0183795
1.71703
-14.5586
8.34441
1.82655
-0.668387
-0.678535
-0.431325
-0.974907
5.15269
0.0102722
-2.83752
-11.1087
-0.394416
-0.532857
-1.559
-2.11272
-7.69201
-0.700995
0.00614892
0.000970346
0.00758149
3.22648
-3.79389
1.14428
-0.661949
-0.825374
-3.54286
-0.494908
1.53351
0.0185186
-0.477083
-2.24954
-0.209823
2.36186
0.101947
1.2997
0.368242
-0.665128
-1.10675
0.840565
0.683667
5.466
1.02714
7.38682
-0.0659122
3.2284
4.35127
5.34155
0.100963
0.000504488
0.00643708
-1.2154
-0.523312
4.91613
-0.565772
-2.72649
-9.72631
-0.345531
2.36
0.0309815
1.53839
-8.5789
6.49458
0.873756
0.275859
-0.337581
10.4107
-0.921858
-0.208118
-0.000203209
0.00227732
-2.76722
0.63383
1.53174
-0.127608
-0.71823
-2.43891
0.540112
1.12528
-0.289496
-0.982881
-0.624033
-0.676457
0.113638
0.031513
-0.435016
-24.2312
12.8701
0.719315
-0.689228
-0.923287
0.921462
0.328116
-0.626499
0.03869
-2.77918
0.406806
-0.677723
1.7064
-1.42685
-0.224649
0.234291
0.449533
-0.482565
-1.64603
2.13888
1.78051
-2.59336
0.147047
-0.321038
1.92551
0.04891
-4.02532
0.24232
-1.71678
1.01764
0.630599
-0.404761
0.130209
0.081405
1.85058
-0.448207
-0.137966
2.32165
0.142767
0.688286
0.724678
0.320019
-0.956222
-3.04769
2.46244
3.20519
6.79108
-1.88033
2.57346
2.13798
1.43827
5.75277
0.992303
0.0222703
-0.51399
1.06584
0.184147
-0.272422
0.613523
1.2928
-0.0309531
-0.0259834
-0.165457
-1.23803
0.187233
-0.46244
-0.221335
0.0221173
-2.24548
-0.990866
-0.158657
0.215494
-0.726246
1.38855
0.0260695
0.243149
1.05143
0.726917
1.52353
0.52213
-0.244578
0.246741
0.021128
0.286705
-0.786267
0.257435
0.667765
-1.03931
0.375535
-0.422208
-0.489812
0.500587
1.88956
1.04041
-0.534948
-2.41553
0.428576
0.357532
0.272548
-1.31725
0.0511128
0.515346
0.0853716
0.446078
0.882501
0.324704
0.0838813
-0.543761
0.105741
-3.06884
0.36505
0.518914
-0.484252
-0.96701
-0.484365
0.11889
-0.00757367
0.742146
-2.60891
-0.0944884
-0.180856
1.2982
0.506053
1.43832
1.27542
0.000166669
3.37851
0.0617244
0.236705
-0.396845
0.328881
0.522878
-0.319048
0.0715578
-0.145114
-0.0179225
0.0846583
-0.221673
2.22961
0.309124
-0.214914
-0.106534
-0.289415
0.143698
-0.237241
0.238833
-1.07441
1.76557
-2.39564
-0.929616
-0.137832
-2.91727
1.49203
0.504191
-0.465225
0.829877
0.44131
0.488431
0.671648
0.456378
-0.282987
-0.342319
0.174933
0.721477
0.456549
0.320328
1.09541
1.13688
0.42171
0.554022
0.40522
-1.28408
0.470895
0.971167
-0.93722
1.17316
2.3667
0.492728
2.9579
1.30842
-0.299604
0.359629
-0.215888
1.08155
-0.492264
0.264579
0.853999
-2.51198
-0.181625
-0.322949
-0.446605
0.111109
2.82235
1.76793
-2.03789
-3.03404
0.738945
1.11703
0.474831
-0.492068
-0.892384
0.876292
-0.773819
-1.72757
-0.775711
-0.701827
-0.830916
-0.271863
-0.531374
0.207092
-0.351276
-0.407905
1.15195
-0.311005
0.374277
0.279533
0.147434
-1.34849
-0.221255
0.814528
1.29201
-1.30085
-1.06918
-0.575416
0.496872
-0.305279
-0.651273
0.523544
0.584555
0.660291
0.536923
-0.0773303
0.00745776
0.0326693
-1.04314
-0.0961016
0.389942
-0.112383
-0.0841264
-0.290608
0.108468
0.720778
-0.0892131
0.586502
0.442417
-0.0509044
0.545128
-1.03109
0.379037
0.335161
0.39457
2.24511
1.22632
1.07415
0.367705
0.79842
-0.0163163
0.375234
0.55705
0.606942
-0.103013
0.477543
-0.0807773
0.911589
0.0816995
0.073854
0.875113
0.916526
0.964206
0.139697
0.0664935
-0.25418
0.273458
0.62216
-0.383772
0.709674
1.18555
-1.0294
0.54281
0.472597
-0.82906
-1.19802
0.0390474
-0.549585
-1.22262
-0.215769
0.952262
-0.997002
-0.563817
-0.322241
0.0279274
-0.190199
-0.0141872
0.537864
-1.24084
-1.85923
-0.251309
0.449465
-0.632187
-0.779484
-0.645323
-1.16762
-0.44876
-1.30117
-0.266062
-0.397905
0.157622
-0.186154
-0.50147
0.462777
-0.437062
-0.416294
1.2587
-1.25419
-0.587393
0.205219
-1.1482
-0.895409
-0.618684
0.64044
1.50364
0.124262
-0.707385
-0.922448
0.525875
-0.230523
-1.47502
-0.819995
-0.518209
0.470849
-1.30087
-0.623672
-0.294118
-0.688904
-1.10426
0.248739
0.547669
-0.751433
-0.165062
-0.298306
0.302216
0.397504
0.1661
-0.889262
-1.66976
-1.57485
-0.387964
0.357807
-1.25005
-0.267509
0.277595
-2.50116
-1.03315
-1.94325
-1.12866
0.158452
0.757387
-0.497958
-0.7502
0.295136
0.202697
-0.513697
1.98247
-0.762701
-0.137263
-0.391825
-1.08926
-1.93463
-0.774016
1.06967
1.91149
0.200924
-0.0342577
-1.16641
1.34651
-0.334756
-2.33461
1.08158
1.15884
-0.324695
0.0848512
0.507562
-0.0527677
0.914919
-0.439879
0.230638
0.16498
-0.354842
0.57325
-0.17081
-0.228266
0.52607
1.19393
1.15616
-0.402259
-0.539151
-0.430673
0.485353
0.841119
-1.05436
0.105681
1.47203
0.629962
2.46611
1.10861
-1.01621
0.0821812
0.788624
0.905275
-0.271346
0.400226
1.3113
-2.89267
1.05779
-0.161757
-0.376317
0.466863
2.58153
2.42659
-1.72964
-3.01247
0.794807
-0.0466181
1.25006
-2.67234
-0.161314
1.71706
-0.221019
-0.367934
-1.93059
1.47533
4.40236
-2.04729
1.8827
-12.4341
-0.525303
-0.66832
0.827334
1.08061
-2.06273
-0.0344619
-1.45278
-0.999794
-12.1545
-2.31578
1.62111
4.20751
10.4965
0.606233
0.781486
1.34782
-23.0406
-0.136806
-1.14487
-0.575894
0.220499
-0.0564696
-0.414513
-0.882331
-0.0806067
0.00947163
-0.0318943
0.548692
-0.346633
0.237566
0.221709
-0.196756
-1.26398
-1.02893
0.965977
1.32846
-0.275746
-0.795721
-0.427459
0.718184
-0.277212
-0.716726
0.57443
0.668247
0.0589223
1.51797
1.23482
-0.107988
1.44236
0.888038
-0.473362
-0.733241
0.976223
-1.39517
-0.126194
0.220203
-0.573942
0.297615
0.492429
0.866429
0.701705
0.752443
0.876796
1.21784
1.29993
-0.113127
-0.962301
0.207884
1.45093
0.0839725
0.273157
0.132353
0.776847
0.629496
-0.0912154
0.267936
0.150185
-0.548807
0.648263
0.855296
0.256599
0.799447
1.34657
0.820767
-0.257517
-1.23523
-0.34048
0.327727
0.63057
-0.396916
-0.167823
1.44387
-0.691778
-0.403739
1.06379
-0.325817
1.69173
-0.539799
-0.709131
13.4336
-0.310362
-0.376096
0.817244
-9.45476
-0.68631
0.782977
-1.57124
-0.624174
14.1849
4.54512
1.25794
-0.64606
-11.7937
1.18257
2.5466
-0.115211
25.9003
1.86233
-1.14725
4.07876
2.30375
0.83344
-0.855606
0.905527
1.61832
0.455235
-0.412874
4.3154
-7.09282
-0.404795
2.37598
-1.43303
-2.30127
-0.22638
2.10856
4.23188
5.62869
-0.487841
1.48291
4.16199
-1.03161
2.45464
0.411018
1.19522
0.457757
0.544733
0.379424
0.348538
0.580006
0.256276
-0.447871
0.697647
-0.587955
0.667048
0.662121
0.333727
0.991935
0.877279
0.468931
-0.537411
-0.874223
-0.265593
0.253944
0.545637
-0.942453
-0.00632861
1.30178
-0.96622
-0.0982563
0.520184
-0.948166
-0.129679
0.325828
-0.368158
-0.26036
-0.330185
0.0460569
0.361763
-0.48795
-0.470344
-0.00167326
-0.4286
-0.297988
-0.899531
-0.675413
0.0213317
0.510445
-0.325101
-0.595408
1.04187
-0.459391
-0.277892
4.64416
-2.07147
-4.88087
-0.488722
1.74596
2.09851
-4.79705
1.77192
-2.41587
2.23663
-2.86455
1.24419
2.72718
1.82759
2.33954
-1.24435
-6.96125
12.237
1.38792
2.50583
-3.6717
8.31568
11.5881
-2.61994
1.05949
