#input normalization
1 0
1 0
1 0
1 0
1 0
#output normalization
40.4969 147.382
#neurons weights
-0.33371
-0.253771
-0.48017
-0.0113306
-0.351018
-0.742081
-0.352886
17.184
-0.152334
-1.21852
-1.04113
-0.123654
1.06531
-3.88558
0.190718
-1.12088
-0.45895
-0.736514
-1.1192
6.61038
5.73589
-0.302199
13.7136
6.48727
-0.580592
0.0214172
-0.0775711
-0.312028
14.43
-0.0403442
-0.596342
-0.0560577
-0.216897
-0.452471
-0.048003
-0.296627
0.925392
0.508294
-0.531116
-0.227305
0.243206
0.358625
-0.280014
-0.584576
-0.544977
-0.206315
-0.797153
-0.295903
-0.381
0.653528
-0.633003
-0.0136748
0.555407
-0.412561
-0.8758
2.4904
#synapses weights
2.7185
-1.48576
-1.62734
5.53335
-0.0652748
1.25987
-0.876168
-0.312307
-0.295055
-0.550989
2.51569
-0.0338398
0.601456
19.0645
15.2744
0.663995
0.0362866
0.379529
-3.75571
-2.32483
1.19813
-0.765736
-0.786098
-0.372494
-0.623167
-0.0147707
0.00297366
0.0556045
-5.07061
-5.7906
0.530074
-0.618585
-0.204826
0.450438
-0.339336
0.0316293
0.000313664
0.00119804
0.0369858
-0.710058
0.646798
0.0159178
0.265384
-6.5929
-3.20761
2.61582
0.0104049
0.624676
-0.620582
0.406998
0.270882
0.0350907
0.752873
-2.47219
-2.43586
-0.661112
0.304741
0.514309
-1.42627
0.0920979
-0.0288659
0.0878679
-0.232263
-10.6273
-0.749958
0.242829
0.0887649
0.455164
-4.18323
-0.880963
3.19989
-0.00554847
1.7255
1.83484
4.50015
0.0250128
-0.0159143
0.0306884
4.80926
5.85688
-0.490944
-0.318816
-0.0579913
5.62208
0.140022
3.04995
-0.0120252
1.09481
9.89931
10.7834
-0.555888
0.0352955
0.559765
10.9219
4.97486
-0.537073
0.433169
-0.122928
-2.61992
-0.309767
-0.564301
-0.0500223
-0.534394
-1.26582
-0.266595
-0.0203307
-0.115199
0.140167
-1.92166
-0.513693
0.0685754
0.0255174
0.474619
-1.43313
-0.109308
4.28402
-0.014828
1.77813
10.5072
12.1074
-0.755072
0.17269
0.00266766
-1.0855
-0.418336
0.879465
-0.282186
-8.06213
-2.29483
0.265003
-3.44854
0.224093
-0.401795
-5.99822
-0.31049
-0.286574
-1.69709
-2.98742
0.479006
2.51735
7.21772
1.4579
9.04556
-1.17377
0.160355
-0.870803
-1.111
-0.339559
-7.10409
-0.0156349
0.408739
0.162924
2.39234
0.100094
-0.425024
0.316838
-0.492059
1.15252
1.39651
0.474362
0.478136
-0.430689
-1.14714
-0.367177
-0.233776
2.32052
-0.580246
-0.34817
0.846514
0.339771
-0.39316
-0.303785
-0.604417
-0.371934
-0.149235
-0.0930718
0.340736
2.86775
-0.579993
-0.348399
-0.398827
-0.1112
0.819452
0.532769
-0.798895
0.396898
0.529536
0.867868
-0.791502
0.723913
-1.22446
-1.12661
0.022151
2.48284
-0.112142
0.0529628
-0.529217
-0.285489
3.83159
-0.0135412
-0.920907
0.232959
1.07155
0.717117
-0.445343
3.86141
0.176896
0.206398
3.51118
-0.274388
0.360485
0.901906
2.44832
-1.38243
2.35301
-2.24795
-2.03017
-1.14704
-0.508342
-0.822169
0.734181
0.0609073
-0.651926
1.6225
-0.421507
-0.829425
0.205827
0.845547
-0.0461419
0.0666429
0.777905
0.110543
-0.324691
1.05801
-0.182318
-0.0872924
1.56497
1.98013
-0.651469
1.14083
-1.48113
-1.26657
-0.765559
0.632244
0.0825793
0.459149
-0.212748
0.0422834
1.3559
-0.491298
0.741579
0.318995
-0.258456
0.07366
-0.00559087
-1.46668
-0.0161616
0.348437
-1.80986
-0.542932
-0.515717
-1.06514
-0.347709
-0.534139
-1.12508
-0.348714
0.387579
0.38063
-0.270176
-0.122217
-0.26233
-0.441588
-0.234305
-1.65166
0.140772
1.31704
0.11723
-9.09236
2.17077
0.251933
-2.43359
0.262833
-0.292863
-1.4993
0.196686
0.306334
-1.55281
-1.81586
0.633699
-0.617907
6.07623
1.3844
2.27089
0.511992
0.385555
-1.16821
-0.0254543
0.630136
-9.93816
-0.296212
-1.26047
0.163613
3.23266
-0.113107
-0.00736018
1.51722
-0.144923
0.56344
1.84676
0.0456616
0.439595
1.66184
2.91734
-0.268376
0.618977
-2.66345
-1.63179
-2.61085
1.32237
-0.247524
0.623475
0.40007
0.262253
2.23165
0.440442
0.514726
0.496557
-1.49178
-0.154307
0.546301
-1.0772
0.296635
0.429577
-1.82286
-0.820217
-0.817038
-1.31141
-2.33101
0.428832
-1.38654
1.25555
0.667284
1.1723
-1.3077
-0.0554322
-0.426137
0.489019
-0.362786
-1.49381
-0.0795265
0.756477
-0.194571
-1.84995
-0.55162
0.104177
-1.26397
-0.2167
-0.341186
-1.72323
0.0178866
-0.17506
-0.800427
-1.5718
0.853497
-1.52782
1.29568
0.81831
0.475018
0.188831
0.537706
-0.76945
0.290203
0.275205
-1.03479
0.335069
0.170576
0.218643
-0.704842
-0.366358
0.077845
-0.295425
-0.530653
0.520326
-1.38374
-0.355123
-0.512758
-0.43547
-1.2536
0.336602
-0.404166
1.12698
0.318018
0.932114
-0.113322
-0.294028
-0.676516
0.40725
-0.224989
-1.33769
0.364053
-0.167949
0.370309
0.867446
0.0720204
-0.616963
0.658415
-0.189846
-0.482563
0.742743
0.168071
-0.113815
1.19561
1.62222
0.194519
1.11749
-0.999823
-0.968169
-0.982511
0.60094
-0.0825593
0.466235
0.313954
-0.348156
0.870307
-0.317384
-0.535811
0.136008
0.952984
-0.10801
-0.236764
0.911779
0.543598
0.258178
0.592088
0.35759
0.626521
0.818943
1.22725
0.118229
0.380389
-1.22964
-1.14284
-0.310036
0.184558
-0.0920317
0.400898
0.102761
-0.394821
1.01349
-0.0736177
-0.131622
0.439984
-0.14663
-0.823
-0.0888706
3.73574
0.63122
0.197277
2.52582
-0.667172
-1.33665
1.48042
1.93513
-0.335009
0.354624
-11.5526
-0.920404
-0.475169
-1.17186
-0.342285
0.0303994
0.217242
-0.623429
-1.13484
0.373425
-0.951826
0.3054
1.02125
-0.396013
0.204719
-0.125077
0.37535
0.0104454
0.854568
0.362347
-0.529356
1.2187
0.75349
0.108917
0.733835
-0.32836
-0.629473
-0.591749
1.32746
0.500686
0.246395
-0.0321242
-0.69407
2.11342
-0.476136
0.902333
0.0347039
-0.201293
-0.147308
-0.000306935
-2.23196
0.263041
0.0348746
-0.877063
-0.0287062
3.13396
-1.2884
-0.320192
-0.0322571
0.425905
3.42809
0.816882
3.40311
-1.4901
-0.200701
-0.323003
-0.153689
0.785869
0.0385853
-1.04297
0.776099
0.0372085
-2.25942
-0.338176
0.266073
-0.24164
-0.0337682
-0.475802
-1.81551
0.408196
-1.18832
-0.851988
-2.07493
-0.21686
0.0155991
1.66644
0.711357
1.87408
-1.28389
0.314674
-1.36105
-1.01871
-0.149894
-1.57892
-0.053644
0.726639
-0.599144
-6.62323
-1.08629
-0.223771
-3.37393
-0.0992439
-0.787283
-2.74299
-1.69619
-0.63384
-1.9598
-3.14612
0.603208
1.58235
5.58446
1.09133
8.88875
-6.36967
0.629035
-0.74411
-0.688029
-1.13882
-2.26847
-1.133
-0.0579869
-0.382789
-0.232192
-0.0720377
-0.291072
-0.439992
-0.160915
0.250355
-0.134229
-0.470905
-0.274638
0.167694
-0.377996
-0.11532
-0.785151
0.158944
-0.355796
-0.341912
0.382032
0.185336
-0.0609557
0.205473
0.280085
-0.546808
-0.00544841
0.87322
0.19691
-1.30318
0.487716
0.460519
-0.26726
0.333904
-0.177347
-1.05242
-0.192811
-0.402939
-0.611804
-0.826252
0.63741
-0.105346
1.34832
1.07373
0.386464
-0.307315
0.290998
0.500601
0.292584
0.871834
-0.934863
0.252371
-0.224735
-0.528635
-1.24245
-0.201936
-0.048375
1.6364
0.580494
0.40124
2.86871
0.256268
-0.104169
0.677565
1.18958
-0.802819
0.197283
-1.92032
-1.62238
-1.40103
0.629897
-0.203318
0.415931
-0.472965
-0.882533
0.280455
-0.866669
0.827632
0.230319
-0.794218
0.017331
0.531252
-0.28419
0.0382856
-0.372644
-2.36866
0.586803
1.43967
-1.09592
-1.36779
0.4797
-1.91224
0.956595
1.80939
1.48798
0.671518
0.186707
-0.426749
0.063364
0.698649
-2.06585
-0.0665442
0.12453
-0.223247
-2.10565
0.90136
-0.525039
0.875467
-0.382
-0.32827
1.80795
-0.298481
0.919743
0.438512
0.198438
0.50755
1.17659
-0.545445
-0.0737801
-0.757493
-0.656424
0.984996
-0.506895
-0.104643
0.653081
2.04267
0.141519
-0.557515
-0.501951
10.9744
-1.76681
-0.439467
2.96974
-0.158323
-1.7801
3.5172
0.194334
-1.74443
0.823547
2.58476
-1.12947
0.13473
-3.87186
-0.805703
-3.95465
2.32462
-0.491047
0.968914
-0.755645
0.228194
8.85575
-0.00201806
0.547148
0.0417926
-0.564782
-0.3698
0.266841
1.13226
-0.453934
0.366689
0.302475
0.683927
0.739343
-1.11227
-1.41952
-0.0723661
-1.66475
0.93329
0.33843
-0.985051
-0.534639
-0.186943
0.0814507
0.59419
-0.107095
0.79415
0.36714
10.652
5.7346
3.90434
-3.45718
0.0238332
-2.01445
-4.2456
-3.06292
-0.802722
3.41851
0.280845
-0.682346
-0.294853
-1.8796
1.85843
-4.05022
4.45242
8.57236
0.882947
1.40544
1.59563
-2.36605
5.34041
-8.29128
1.70728
