#input normalization
1 0
1 0
1 0
1 0
1 0
#output normalization
35.2946 156.535
#neurons weights
0.0989603
-0.433784
0.385473
0.436739
0.0617584
-0.3635
-2.07864
18.9641
-1.53482
-21.011
0.599553
-0.306056
0.0684707
0.407036
0.417723
2.92596
0.977518
-1.08715
-3.54908
15.3329
5.60422
2.33465
-0.385343
-6.77694
-0.658439
0.745765
0.78243
-20.8995
16.1117
-3.86216
0.00323284
0.0406849
-0.642119
-0.158292
0.940062
0.490151
-0.142081
-2.57731
0.470761
-0.708383
-0.767224
1.31659
-2.21741
-0.740548
0.33643
0.503734
-0.583084
-1.07874
0.887629
2.26502
0.860036
0.150097
0.997218
0.523187
-0.400343
1.48913
#synapses weights
0.533388
-0.533145
-0.72166
3.48771
-0.378302
5.75968
-1.30874
-2.65799
-0.334867
-1.60799
12.2744
-0.0530928
5.25518
-6.63794
9.30237
5.70448
-1.47951
-3.69136
11.0954
-1.59833
-3.06608
-0.00216867
-1.18122
-15.1546
-7.361
-2.75719
-0.0497293
-0.879334
0.290809
-0.121759
0.766682
-0.0522668
0.193444
4.22844
-0.821571
3.45955
-0.824552
-0.0231887
2.18274
0.416525
-1.03292
0.418983
0.413248
-5.59964
0.262418
-0.21978
0.916119
0.0790189
-7.50323
0.40952
2.57322
0.0491626
0.357058
-1.15727
1.95407
-6.81728
1.16582
2.55876
0.12944
1.64082
0.699176
-0.41008
-0.67393
4.84791
-0.727678
0.00533565
-0.000226585
0.0412274
-3.93515
-3.58764
0.0830359
0.0187028
-0.200563
19.8816
12.429
-1.94
-0.00157121
-0.580508
7.66031
-1.2275
2.51018
0.042895
1.72206
2.26245
1.5284
-0.117658
-0.41872
-2.57553
14.9904
0.502457
-0.420134
-0.00325228
-0.422089
-6.01509
-2.69839
0.616701
-0.0681261
0.847434
-5.50364
-0.385739
-1.31325
-0.0354643
0.968382
-3.81695
0.669475
-1.58873
0.470369
1.11645
-2.57025
0.55291
-0.101975
-0.0303526
0.305589
-26.904
-15.1075
7.13229
0.0201785
3.6815
2.24453
3.90622
-0.166814
0.00880692
0.0122579
-1.78794
3.31561
-0.814588
1.74746
9.95132
-0.874012
-9.59966
0.580138
-2.66139
-1.07975
-0.374427
-1.85778
-5.80574
0.639444
1.72382
-2.36984
14.9517
7.0392
0.58192
3.02981
-3.04486
-1.47726
-1.96569
0.913915
-5.94134
10.8326
-1.40287
0.354566
-1.20439
0.395277
0.386612
0.276669
0.195
1.27521
-0.0635922
0.149581
0.765471
-0.154029
-0.419121
-1.12597
-0.740205
-1.37413
-0.0724712
0.469969
-1.95616
-2.39307
0.275477
0.32993
-1.19256
-2.31516
-0.444956
-0.00963022
0.0846022
0.286171
12.053
-0.23632
-8.70374
-0.810085
-0.924598
-0.346645
-0.631645
-1.21541
-4.16547
-0.555618
0.458856
4.45394
16.6296
7.67087
-2.31938
0.117814
-8.3184
0.083321
-1.16249
-0.467953
-10.3507
12.1013
0.787382
-0.525277
2.54717
-0.811002
-1.07662
1.89421
-0.303073
-2.52364
-0.77614
-1.23371
-3.05279
-1.79729
-0.660945
2.18013
2.32535
1.41761
0.581652
-1.31142
2.58653
1.15642
-1.24437
-1.9357
0.577776
0.363065
0.888349
-1.40559
0.285142
-1.69025
6.26005
1.60665
-7.56862
1.30468
2.87054
2.20134
2.0224
3.86075
-0.3836
0.69536
-2.00058
0.909566
-3.73731
-2.114
0.923426
-1.86558
0.717563
1.71351
3.56438
0.369667
-12.7805
0.278054
1.19786
-0.0254782
1.3685
-1.03326
-0.64553
1.51495
-0.172461
-1.98252
-0.103633
0.0831963
-0.754221
0.404882
0.405743
1.50951
2.51472
0.721064
0.00266949
-0.481813
2.49763
3.86789
0.290869
-0.468683
1.31332
-0.835682
-0.040728
0.323099
-0.431426
0.116688
1.56974
0.171419
-0.46955
0.322308
0.196309
0.171205
0.0383611
0.430702
-0.214073
0.321853
0.265858
-0.97213
-0.99905
-0.991799
0.941213
0.382962
2.48151
1.5196
0.146264
0.016012
-1.86072
-1.6035
1.5017
-0.0142092
-0.603679
-5.94457
0.297453
10.3459
-1.60675
0.845765
-0.371091
-2.26154
-1.40113
0.584563
-2.09044
-1.54368
-0.473807
6.79237
-0.60481
0.632954
0.0786693
-3.63446
-2.6631
-0.854636
-2.58254
15.6613
-1.13677
-2.97369
-0.234349
2.78189
-0.0997186
-1.08536
0.267057
-0.0977377
-2.59103
-0.153502
-0.194444
-1.44789
-0.420403
0.071351
1.81165
7.60123
7.27743
-0.553931
-0.388406
3.16701
1.70522
1.00558
-1.4133
1.56585
0.321844
-0.0737368
-2.02825
-0.307841
2.27448
-1.71734
-1.24116
0.309905
-0.948815
-2.52968
0.398612
-1.33196
-2.95572
-1.77975
-1.22483
2.29569
1.47137
0.876255
0.394389
-1.78984
2.38935
1.52707
-0.883573
-2.2643
-0.10115
1.50688
0.208325
-1.69897
0.9591
-2.42347
-0.521899
0.786125
-1.69147
-0.661614
1.70952
-0.548203
-0.418452
2.27266
0.568529
-0.922825
-1.3297
-3.00074
-3.42587
-2.19909
0.830329
-3.7431
-2.61606
-0.0535805
0.98088
-2.03168
-2.2532
-1.17598
0.535983
-0.927407
2.96455
0.8761
-1.15834
2.16423
1.27176
-2.2498
0.682229
-0.662002
-2.29488
-0.85794
0.853333
2.08813
2.97981
4.03774
1.66255
-1.16257
4.00369
2.50551
-0.456268
-1.707
2.09179
2.03191
1.79869
-0.320307
-0.333812
1.15654
-2.38483
-1.32819
-0.114436
-1.65166
-3.27562
-1.46172
-0.939761
-2.8385
-1.51067
-2.05505
0.502194
0.199853
0.0369969
-0.13858
-1.19573
1.05542
0.443964
-0.75898
-2.16755
-0.744288
-0.98699
-0.904343
-2.36413
-0.728248
0.60111
-2.6287
-0.0731637
1.28125
-1.51197
-1.16214
0.239771
-1.44638
-2.24982
0.392547
-0.765295
0.231474
0.860109
4.62794
0.0370275
-0.814609
1.47134
-2.77482
0.344091
-1.21768
-0.583217
5.0089
2.27456
0.176464
0.126111
-0.911805
1.36135
1.49684
-0.121278
1.08027
1.93654
1.00921
0.461303
2.24985
1.28177
0.400442
-0.762153
-0.429283
-0.645713
-0.775929
0.401753
-1.0405
-0.768739
0.502064
1.29317
0.326213
0.260993
0.0967653
0.747094
-0.802051
-0.175938
-0.340497
-0.221116
-1.40763
1.60981
0.205318
0.734105
-0.397289
-0.334612
-0.485698
0.935342
0.462068
1.11001
5.31883
-0.506409
-0.165325
2.52596
0.968079
-0.570534
-0.00466128
0.670734
1.93639
0.745342
-0.579275
0.0544541
-0.162347
-0.472843
-0.177406
0.131589
0.155617
-0.032419
-0.267836
-0.457169
-0.219
-0.0352171
-0.087263
0.411514
1.21497
-3.61503
-0.433013
0.48816
0.653818
0.382457
-1.10377
-0.696597
0.326238
-1.409
-0.0564949
2.6822
0.327183
-1.54791
0.0333691
0.756235
-1.5807
-0.667584
0.847763
0.0427058
0.19728
-0.0150998
0.693176
-0.861052
-2.12205
-1.17382
-1.64411
-0.810924
0.654368
-0.605441
-1.10135
-0.560146
0.543782
-1.47846
-1.24702
-0.381431
-0.211864
-0.0463651
-0.552632
0.74892
0.141901
0.0722455
0.783679
0.17302
-0.412128
0.273861
1.28484
0.375878
0.0295566
-0.479468
0.026559
-0.616461
-0.150083
1.0815
-0.886582
0.0849177
1.10539
0.965862
0.148504
-0.690105
0.0896347
0.820595
0.832828
-2.09302
7.76729
0.955675
-1.36827
1.61527
2.80511
0.0174445
2.96068
4.82783
2.75131
2.41932
-1.34388
0.752836
-21.3442
5.31317
2.24271
-3.61202
-3.55534
1.51861
3.55286
1.29239
-11.7336
-4.32653
2.55993
-0.18924
0.0483249
-0.621519
-0.179011
0.601593
0.721072
0.373819
-0.237315
0.297287
0.855011
1.27899
0.38395
-0.616908
0.472208
-0.586411
-0.427632
-0.738984
-0.896271
-0.0798956
0.192205
0.308843
-0.144945
0.923451
-1.6217
0.0578377
-0.664958
0.509474
-0.672309
-0.192958
0.559235
-0.74373
-0.562852
-0.0116684
-0.557278
-1.58415
-0.859157
-0.605174
1.10063
0.0401903
0.410147
-0.264224
-0.743708
1.49733
0.453056
-0.243386
-0.773457
-0.235279
0.170718
-0.00902841
-0.784694
0.0422572
1.11407
0.0930461
-0.334537
0.863312
0.294529
-0.80882
-0.661065
0.217078
0.0238848
-0.362671
0.775442
1.55213
1.24098
0.502303
-0.211994
0.372403
0.261058
1.42231
0.715091
-0.342035
1.12269
-0.245182
0.199202
0.981145
1.40236
-1.08996
3.25768
1.10602
-1.04274
0.834009
1.85558
0.351157
1.95574
3.39743
2.4827
1.09205
-1.29951
-0.497158
-2.11213
-0.931726
1.93804
-3.87271
0.454469
2.24798
1.91647
-0.019669
-1.99446
-0.563749
1.18407
-0.0762171
-1.69094
-0.935777
1.07792
-2.27805
-0.933623
1.06853
0.320183
-0.0845083
0.585879
1.22071
-0.951373
-1.8643
-1.65062
-1.333
-0.178206
1.14299
-1.79532
-0.978533
-0.327335
0.729146
-1.94396
-1.78441
-0.838669
-0.615345
7.44053
-2.09911
-9.38278
-0.421685
5.45379
2.33745
4.52594
6.24765
-5.25555
-3.12649
-6.71599
6.18377
-6.10836
5.68509
3.48553
13.652
-6.43912
8.30035
-1.21975
-13.3239
-0.922556
0.586124
-6.23514
-7.87614
3.43112
