#input normalization
1 0
1 0
1 0
1 0
1 0
#output normalization
35.2946 156.535
#neurons weights
0.121763
-0.316252
0.161585
0.245662
0.311598
1.49672
-1.11182
-6.20012
0.842205
-0.339176
-13.5046
-1.01843
-3.99631
2.54848
4.86961
-5.25379
-0.307598
1.73758
1.1226
-10.1873
0.689071
0.113404
-1.19504
3.07595
-16.4766
0.854353
6.37126
11.1375
-0.508733
13.8099
-0.220417
-1.15632
-0.769404
-0.586083
-0.747261
0.010276
-0.195873
-1.63487
1.21267
-0.99393
0.0323855
-0.574159
2.08498
-0.63077
-0.860532
0.662998
-0.490635
1.06036
0.652306
-0.64121
0.51684
-0.727059
0.196026
0.737391
-0.155713
0.515675
#synapses weights
-4.41363
1.00193
0.581818
-2.47529
1.67557
0.632933
-0.608467
0.174995
1.64189
-1.28984
-6.6956
-0.0110506
-3.33859
5.83337
-1.77674
3.07308
-0.198787
0.44748
1.61276
0.722351
4.67932
-1.0759
-1.71146
-0.102609
-1.03037
-2.22703
0.0494671
-0.562177
-11.2178
-8.75837
2.01487
-0.894114
0.0684905
8.23133
-0.733887
0.309671
-0.0444087
0.318627
-5.24142
-2.78125
7.15688
0.0638259
4.57502
-5.50447
0.20647
-0.601874
0.0459174
0.253015
7.04436
4.02173
0.380385
-0.0292698
-0.170167
-6.10256
-2.9657
0.157162
-0.0634897
-1.20728
1.08894
0.482289
0.200763
0.00253527
-0.0205708
0.895225
-0.501223
-1.26712
0.996052
0.407513
-1.91818
0.718669
-0.21848
0.00518286
-0.257669
-11.8173
-8.63045
-0.690924
0.63256
-0.1878
-2.3845
0.685116
0.0771451
0.277406
1.38047
-2.95232
0.641528
1.71478
0.0267086
-0.0132663
-5.08802
-0.362874
0.635441
1.46175
0.787811
-5.54303
2.66004
-0.114334
-0.0327466
0.299338
-18.6934
-8.81252
-2.57382
1.02861
1.77587
-6.92803
1.09541
0.176426
-0.0157091
-0.046373
4.65091
1.61478
9.84724
-0.0692265
4.27344
-10.1177
4.98143
1.08225
-0.0530983
-0.417385
0.352719
-0.911437
0.23992
-0.00385888
0.546193
13.3198
4.02044
0.0785652
0.387976
-0.308198
-0.134462
-0.137035
-0.828365
-1.11235
0.0551995
0.891433
0.461083
0.0268899
0.0514369
-0.822913
0.0225972
0.619334
0.164754
0.246265
0.735053
0.498626
0.000785483
1.12031
-0.0330594
0.136597
0.50033
1.03898
-1.77538
-0.914701
-0.135523
-0.834391
0.220932
2.23423
1.39101
-0.0828579
-1.17549
-1.43281
-2.11115
-0.808718
-0.147128
0.0570249
-1.20804
0.0339669
-0.819268
-1.22624
-1.88697
0.164811
-1.27733
-0.186143
-2.90164
-0.805207
-1.11978
-0.0907521
-0.238789
1.7774
-0.689769
0.0410781
4.59262
1.18378
-0.984589
-2.24449
-2.40823
-0.482516
0.314772
0.00554292
-0.489188
0.585784
0.322594
-0.0046003
0.826243
-0.954652
6.97138
-1.3924
-0.297049
-3.54993
-0.0928678
-3.25482
-1.94645
-0.0685989
-0.192096
0.132045
0.150627
2.08916
1.02481
0.329424
-1.50008
-1.16631
-1.81415
-0.392018
0.0714909
-0.0768572
-2.0397
0.4191
-0.886441
-0.629107
-2.02661
0.578129
-1.68212
0.54628
-3.07863
-1.15396
-0.893339
0.553329
0.356121
-0.0750712
-0.588619
-0.61033
-0.667575
0.0668731
0.407315
0.135412
0.867762
2.38888
0.384399
-1.83877
-0.815571
2.91702
-1.61795
-1.06528
-0.0362252
-0.145886
-1.59079
-0.287003
-3.62159
-0.0696382
0.589778
-0.211782
0.616599
0.379095
0.0726478
0.951559
-0.535607
-2.4539
-1.53133
-0.348179
1.6745
1.22114
0.964266
0.53691
-0.425688
-0.11913
2.98893
-0.231243
-0.0995234
0.751463
1.42884
-1.02002
1.5533
-0.407183
1.71865
0.615115
0.304787
-0.124451
-0.288046
0.285153
0.157703
0.00419206
0.936644
-0.818169
-1.06463
-0.57288
-0.0408385
-0.203745
0.536365
0.3425
0.552573
-1.08088
0.269033
-0.288109
0.315423
-0.119866
0.939358
0.0692017
1.08697
0.139693
0.537341
1.38105
-1.38864
-0.383659
12.2185
-0.490615
0.0102548
8.90129
1.01823
4.14714
-7.76159
-5.73737
2.30007
0.438606
0.497909
-1.37927
6.32021
-0.996706
-1.36102
1.72118
-2.83339
22.1805
-2.29793
-2.32573
-12.0387
-0.846185
-14.9351
0.368945
0.00276532
0.264667
-0.529971
-0.0816991
-2.12632
0.00754175
-1.00153
-0.458904
-2.96715
-1.01545
0.104989
-0.0539961
0.796631
-0.189049
1.02798
0.472526
0.282214
0.903202
2.87145
0.440734
1.09552
0.0209895
-0.444966
-0.90291
0.779366
-0.47086
0.0477453
-1.07351
0.393042
0.309423
0.986396
-0.683359
-0.52677
-0.963091
0.65756
0.0301064
-0.167236
0.0644637
-0.982979
-0.282331
-0.178104
-1.26123
-0.877766
0.52506
-1.37709
-0.566655
-1.61898
-0.0483555
-0.712419
1.85018
0.601363
-0.642964
0.527479
-0.387192
-1.50903
1.09461
1.57673
1.80743
0.411615
-0.13183
-0.727252
-0.742377
-0.0337154
2.83047
-0.493526
0.473689
-0.238287
0.00574328
-1.30099
0.591864
0.0403254
-0.0411318
0.228174
2.07016
-1.09419
-0.921397
-0.344405
-0.315263
0.450117
1.14788
0.752899
-0.407848
-0.711329
-1.09755
-0.567939
-0.308381
0.573886
0.018852
-1.20716
0.376219
-0.276334
-0.274986
-1.68328
0.258095
-1.52271
-0.0707432
-1.14271
-0.184972
-0.730269
5.61725
0.901142
2.01961
-0.9532
0.156174
-2.28594
0.634864
-1.18315
-1.02554
-0.220349
2.38073
-0.284149
0.309183
1.39427
0.897676
0.957097
1.81183
0.305628
1.78619
-7.12118
1.51979
-0.404813
-3.16369
-0.0532239
1.05263
1.54787
1.08941
0.625076
-1.60299
-1.21503
-2.88574
-2.17028
-1.3989
-0.436254
0.476911
-1.27348
0.339069
-0.978676
-1.37789
5.56898
-1.93308
-1.26296
-1.96745
1.35695
-2.98087
0.727851
-3.43459
0.0113783
1.0656
1.33693
-1.59258
-0.661134
-0.0501713
-0.280562
0.444298
0.957666
0.527033
-0.0859145
-0.967472
-0.322572
-0.345154
-0.24546
0.249325
0.103313
-1.49141
0.0145271
-0.672217
-0.861881
-0.708976
0.440984
-1.06632
0.0543728
-1.4126
-0.41262
-0.33105
-0.968085
-0.535662
0.0674206
0.127682
0.0852977
-2.2633
-0.504817
-1.11596
-0.199067
0.869769
-0.479662
0.301122
-0.473637
0.881898
-0.628711
0.46888
0.680189
0.573994
0.458866
-0.126681
0.226149
2.90525
0.167424
-0.201714
1.13314
-1.50102
-0.00435569
-0.354971
0.459754
0.573346
0.171898
-0.194327
0.0451502
-0.409088
-0.181301
-0.069903
0.264227
0.539246
-0.0582241
-0.93501
0.136085
-0.65214
0.449787
-0.581008
-0.0413238
-0.574413
-0.236333
-0.637738
-0.0331191
-0.694952
0.380009
-0.0578808
-6.73364
0.601512
-0.184499
-7.14499
-1.50542
-4.25551
7.06339
2.50075
-4.44001
1.44462
-0.384404
1.3147
-10.4888
0.513701
0.741471
-2.79422
2.38234
-6.75322
2.52236
4.65314
5.19225
-0.0701578
3.65535
1.60675
0.38164
0.188042
0.507466
-0.272027
-0.172274
-0.262628
-0.20934
0.248163
0.393926
0.244861
0.0500697
-0.388134
0.507578
0.477008
-0.294521
0.0787602
0.433574
0.0737065
-0.118449
0.41812
-0.195974
-0.189709
-0.201212
0.391193
0.0615952
-0.450167
0.123306
-0.225001
0.0593734
0.0711525
1.43823
-0.610324
-0.694629
-0.880003
0.223802
-0.441737
-0.141804
-0.204401
-0.982806
0.231786
-0.620989
-0.529877
-0.932604
-0.525784
-0.773988
-0.107348
-0.287898
0.0166479
-0.768435
0.110742
1.03655
0.170582
0.503084
-0.869773
0.210072
-0.520139
1.30895
1.04036
1.40137
0.356792
-0.0361517
-0.0720088
0.411315
1.53755
-0.185726
0.0115275
1.01099
1.52602
1.07764
1.48135
-0.238155
0.7775
0.107098
0.765778
-1.89225
-0.322487
-0.10977
-0.401916
-0.0661206
0.903391
0.167873
-0.279047
-0.23843
-0.160005
-0.522386
0.216795
-0.387987
0.112393
-1.13913
-0.710827
-0.774298
-0.0209287
-0.771323
0.140602
-0.293799
0.0360116
-0.96244
-0.567577
-0.415199
2.05459
-0.00514998
0.561776
0.627324
0.204139
-0.79897
-0.608836
0.209597
0.39795
0.750115
0.535347
-0.268275
-0.517226
0.137046
0.669827
0.158353
-0.294143
-0.158948
0.868253
-0.28083
0.762098
-0.318939
0.364224
0.325819
0.357333
0.116616
0.15198
-0.982974
0.152568
-0.298424
-4.02904
-1.18031
0.0942012
2.05992
1.30218
-0.19869
0.479065
-1.04601
0.19732
-3.08037
0.383723
0.551329
-0.802434
2.20218
-3.15401
1.16875
0.100761
1.40282
0.605497
1.17061
-2.4548
-0.924015
-3.54319
0.690733
0.165434
4.99849
-0.91073
-0.0302947
-0.00903336
-1.9739
-1.50252
-0.364141
1.80555
0.592923
-15.9982
0.806855
-0.11581
0.906751
-1.94885
1.37302
-0.793876
3.35461
-4.61173
-0.575172
-1.52229
-0.996149
2.76007
3.54513
4.13078
-4.35034
-2.19474
-2.4585
6.79783
2.85628
-2.39131
-3.79627
1.44741
-5.60856
-3.93484
1.58324
1.94399
0.984852
6.32317
-0.862411
-0.774586
2.20459
1.41955
-1.30818
3.03521
9.63081
