#input normalization
1 0
1 0
1 0
1 0
1 0
#output normalization
4.06196 130.865
#neurons weights
-0.454366
0.212677
-0.0158517
0.313026
0.438586
-5.1766
-0.803136
2.03977
0.0627587
-3.5033
0.438179
0.480534
0.654486
-0.896228
6.20624
-1.76599
0.900865
12.1344
0.317248
0.577232
1.26919
2.89647
3.27674
1.72179
1.37234
-3.99588
2.21666
1.92592
-2.27434
-0.743442
-1.33809
0.782891
-0.0418447
-0.425175
0.263384
1.21336
0.0557847
-0.425407
0.220001
1.31776
0.0593904
-0.138184
-1.27916
-0.313766
0.999585
0.159832
1.44129
-0.273691
-0.626712
0.429941
-0.470271
0.434447
0.153427
-0.898345
-0.133786
0.836277
#synapses weights
1.03515
-0.599359
-0.257773
-0.75336
-3.89327
1.79775
-0.540941
-1.06517
1.12895
-0.0812656
-0.452469
0.583336
-0.128819
3.69627
1.62247
-0.681166
0.864591
-0.166166
2.90249
-0.95263
0.642258
-0.25325
-0.0043472
0.523668
-1.75781
-0.506503
0.500676
-0.0332659
0.458879
-0.971809
-2.32177
0.143832
0.896998
-0.291117
0.166519
-2.58742
0.0733619
1.03421
-0.967215
0.353635
-1.42636
0.978664
-0.00606206
-0.166756
-0.145216
0.289676
-0.322416
0.0270066
2.95623
3.71829
-1.4433
-0.202288
0.305557
-3.76778
-0.871305
0.534126
-0.641168
-0.232868
1.74033
0.0692139
0.143858
-0.195716
0.0133974
5.54781
4.73329
-2.58065
0.353118
1.14833
-1.16899
0.581778
4.17335
0.363352
-2.47206
0.1283
0.135262
-0.0778892
-0.686707
-0.142779
4.04653
0.423902
0.494098
0.0976834
-0.336197
4.26803
1.48856
0.32359
-0.0406392
-0.2377
5.20345
2.74119
-2.36666
-0.165055
1.11555
-0.585663
1.12325
-2.91655
0.966967
1.47432
-2.50023
1.26671
0.572044
0.162502
-0.420814
-0.119897
-3.03887
0.61818
-0.645614
0.116103
2.13262
1.6707
0.0144638
-0.143212
0.00683341
0.191754
0.1805
0.401363
-0.398874
0.043475
-2.71486
-3.06465
-1.52241
0.442405
0.748161
-2.05802
-0.734092
0.0877469
-0.607337
-0.890102
-1.04789
-0.319103
-0.953658
-0.644185
-0.842482
-0.189008
-0.13078
1.59509
-0.977818
-0.648105
-0.0569674
-0.728252
-1.04589
-2.25723
-1.6964
-0.311753
-0.501575
0.359426
-1.47836
-1.19083
0.438102
0.843451
1.46668
1.18335
-0.962025
0.539141
0.750367
1.1617
0.430064
0.450935
0.613608
1.09932
1.16888
-0.152013
-0.640072
0.678076
0.206792
-0.982873
-1.02799
-1.08977
-0.348691
0.207495
1.09599
-0.548416
0.657215
1.12445
1.1231
-1.71173
-0.532378
0.649034
-0.194832
-1.30074
-0.0788033
0.357935
-0.191924
-0.213257
-0.736336
-1.22052
0.554816
2.02377
0.0401565
-0.367387
0.902825
1.57155
1.59621
0.762657
0.11897
-1.4705
1.05799
0.087506
-1.14584
-1.29228
0.825324
0.518575
0.16995
0.197756
0.713236
-0.170267
-0.387997
-0.252147
-0.190802
-0.142374
0.696743
0.0498869
-0.0864766
-0.100358
-0.356378
-0.207232
-0.701338
-0.0917655
0.347035
-0.380221
0.106397
-0.353622
0.558759
0.520968
0.42845
-3.05365
-0.390156
1.89416
-0.33767
-1.62613
-0.597743
-0.495908
-0.278958
-0.456265
-2.03558
-1.93737
1.63982
2.35057
-0.252201
-0.143167
2.72171
3.88923
2.77169
1.18819
0.0184947
-1.82152
2.82624
-1.55911
-0.284399
-1.71303
-3.26779
-1.36194
1.88575
-0.78933
-1.47855
-0.378059
-0.565301
0.110353
-0.0257975
-0.284487
-1.11519
1.88736
3.88308
0.121527
-0.372194
2.63624
3.66768
2.73073
2.13009
-0.0349277
-1.86111
2.85196
-1.46101
-0.169126
-0.673732
1.42766
0.359904
-1.16383
0.328214
0.410409
0.469227
0.575056
0.505911
0.656887
0.512349
1.32311
-1.46234
-0.747112
-0.0912422
-0.278865
-1.29134
-2.32656
-1.71848
-0.130394
-0.172843
0.269314
-1.88792
0.635594
-0.119084
0.581859
0.40062
0.0936589
-0.298067
0.175693
0.18948
-0.0288261
-0.865817
-0.726407
0.491687
-1.00177
2.17656
-0.713785
-3.06577
0.273271
-0.551905
-1.1662
-2.14006
-1.86559
-0.260656
-0.115732
1.18329
-1.39011
-0.111032
2.34913
1.9441
0.46833
0.00580434
0.012425
0.301868
0.665925
0.666976
-0.125255
-0.518619
0.161144
1.3508
0.108156
-0.721588
0.00432407
-0.0750783
-0.154969
-0.163431
-0.735384
-0.904703
-0.652286
0.223767
-0.211293
-0.795742
0.144336
-0.607062
-0.180386
-1.03115
0.165737
0.520929
-0.0718388
-0.332874
0.0370917
0.69683
0.363832
0.0280917
0.509177
-0.0626625
0.519569
2.10326
0.640499
-0.273396
1.31659
1.78896
0.880757
0.780683
0.984378
-0.311141
1.85262
-0.218423
-0.00425598
-0.251317
0.185034
-0.0249349
-0.053276
-0.866889
-0.346927
-0.108843
-0.325398
-0.271578
-0.327333
-0.6726
0.505232
-0.0759112
-0.376704
0.448906
0.106031
0.0672308
-0.297449
0.143645
0.436884
0.0204976
0.519459
0.375279
-0.807442
0.523154
0.389708
0.439333
0.60106
-0.236734
0.775642
0.0613548
0.8335
0.256118
-0.067259
-0.900492
3.05491
-1.2277
-0.355084
1.97281
-0.185972
-0.418518
0.509736
-0.10349
0.102179
-0.480698
-0.0381415
-0.331651
-0.0836128
1.38879
-3.08423
-1.13625
2.66811
1.14785
-2.31829
-0.936301
1.11823
1.07648
0.103082
-0.355439
0.307311
4.1695
0.475786
-1.54854
-0.888979
-0.82447
0.133286
-1.80157
-3.18219
-2.00468
-1.58972
-0.613813
1.53414
-2.57384
2.69236
-0.566294
-0.326107
2.03382
0.79522
-1.19539
0.0106384
1.06989
0.567516
-0.0220181
0.250207
-0.128086
1.1806
1.18492
-0.711515
-1.14417
0.690796
-0.10729
-1.1855
-1.54634
-1.24236
-1.05004
0.420422
1.58558
-1.34926
0.180742
0.963416
1.44114
-1.02235
0.196011
0.908313
-0.0762157
0.14676
-0.106334
0.0113105
0.570952
0.167922
0.0683716
-0.0515504
0.196818
1.23127
0.252133
-0.24544
0.56724
1.51691
0.487833
0.653322
0.153268
-0.167249
1.15105
0.296482
0.395007
0.449359
1.37519
1.03776
-0.793873
-0.0363762
1.2692
0.28055
0.330812
0.691822
0.580169
0.579338
0.83875
-1.08104
-0.747944
0.491422
-0.153702
-0.877849
-1.63218
-1.1407
-0.484884
-0.0914223
1.35236
-1.21883
0.785709
0.108868
0.251666
-1.73552
0.157184
1.01061
-0.0454132
-0.328887
0.240771
-0.262426
0.427436
-0.10508
-0.138097
-0.545481
1.36477
2.72805
1.06266
0.448066
1.84436
2.95161
1.25067
0.872176
1.28943
-0.249624
1.78194
-0.432206
0.114643
-0.408054
1.6796
1.25295
-0.630664
0.0541825
1.59545
0.613885
-0.164994
0.74939
0.0605786
0.543475
1.64118
-0.938753
-1.71831
0.192631
0.202981
-1.02883
-2.30974
-1.89287
-0.410598
0.659316
1.70545
-1.15531
0.184801
0.801905
1.23119
-0.719703
-0.708608
0.492437
-0.0844164
-0.568574
-0.94098
-1.06753
-0.262586
-0.0414981
-0.716877
-0.222004
-0.00342106
-0.202357
0.044556
0.0560703
0.309818
0.318085
-0.567909
-0.254655
-0.371354
-0.274149
0.255867
-0.159237
0.24932
0.144076
-1.66359
-0.287391
0.275374
-0.0140759
-0.746628
-0.0872814
0.400895
-0.381658
-0.196715
-0.931771
-2.00898
0.557017
1.3153
-0.670076
-0.430762
1.57117
2.38063
1.52769
0.75322
0.26252
-1.79936
0.99074
-0.210965
-0.967387
-0.684291
-1.09572
-0.163853
0.493796
-0.366846
-0.993397
-0.175691
-0.967839
-0.476705
-0.293647
-0.672529
-1.14904
1.2794
0.908752
-0.820302
0.00774291
1.5065
1.85216
1.30082
0.667837
-0.248443
-0.72255
1.3116
-0.868615
-0.590001
-0.336637
-2.95565
0.0736714
0.620991
-2.88022
-1.09632
1.02635
-1.05812
-0.588176
0.793933
-0.965874
-2.36343
2.24933
9.02521
-0.238549
0.189885
2.74063
4.0892
2.87297
0.168693
-0.159133
-1.04865
2.80632
-1.92853
-0.606942
-1.49727
2.24317
0.8626
-1.2125
0.255471
1.25003
0.240232
0.209867
0.344189
-0.25514
1.7529
1.44399
-0.674212
-1.41678
0.356704
-0.225381
-1.14944
-2.38797
-1.7032
-1.09841
0.204519
1.547
-1.61265
0.359993
0.572867
0.951451
2.07296
0.339804
-1.22009
0.851984
0.23977
0.606099
0.369612
0.199229
0.283506
1.06775
0.650224
-1.48719
-3.46283
-0.747132
-0.0481509
-1.22907
-2.30236
-2.16966
-1.30514
-0.624332
1.27796
-1.56091
1.24418
0.188246
0.698526
-0.387341
0.443883
0.673008
0.0977726
-0.299916
0.484351
0.117173
0.411477
-0.427636
1.52576
-1.69722
0.855977
2.36072
0.144979
0.569701
1.25577
1.06857
1.11292
-0.356029
0.0896911
-1.21449
0.469029
0.387973
-1.76663
-1.19342
3.58557
-0.182768
-0.925201
-0.29727
8.38015
6.55351
-7.4362
3.9964
-3.86793
4.06456
2.69441
-7.87927
-10.2634
-1.4725
4.36839
-3.949
7.59615
-0.809175
4.60097
0.508687
3.71529
8.8514
-4.74616
-7.10211
-4.03679
