#input normalization
1 0
1 0
1 0
1 0
1 0
#output normalization
4.06196 130.865
#neurons weights
0.00417876
0.23612
-0.49993
-0.434356
0.445934
6.54598
0.126806
-19.3873
-8.18476
-1.80252
0.48398
0.859014
1.11014
-1.24659
15.9988
-9.73631
38.0864
-1.23261
-2.58413
0.341252
-3.09453
4.41237
1.2726
-5.58584
1.74538
3.14417
-1.15703
4.60827
-5.79247
-0.251538
0.12001
0.17451
0.395609
-1.22723
0.381883
0.0692227
0.948451
0.805692
0.19389
-1.1103
-0.232464
-0.183918
0.0948847
-1.1201
0.946136
-0.432247
0.425583
0.489099
-0.608248
-0.442
-0.242395
-1.61301
0.285338
-0.262569
-0.159951
2.67625
#synapses weights
0.0700244
0.166846
0.0470291
2.86756
0.711215
-0.332997
-0.0333742
-0.027323
0.416174
-0.794276
-0.848584
0.676896
0.000834253
-6.15702
-6.11289
0.748648
-0.308674
0.000279493
-6.65148
-1.96949
-0.615909
0.317184
0.226988
-2.47631
-0.702098
2.93416
-0.751451
-2.03998
0.488217
-0.132197
1.98491
-1.02158
-0.0239167
-3.92863
1.07223
0.336947
-0.549231
-0.532395
2.8701
0.314408
4.02424
-2.09589
0.0322248
-10.2684
0.31366
0.117165
-0.253606
0.000980132
6.34531
2.56237
-0.200237
0.251428
-0.014546
-4.42611
-3.53079
0.0218493
-0.235958
-0.0169788
16.6959
7.49812
-0.652277
-0.862119
0.129444
-2.3767
-1.16337
1.24432
-0.651116
0.0138065
-4.35382
0.449976
4.60695
-7.49843
-0.337927
-8.62178
3.70542
-4.32986
-0.967876
-0.208698
-4.67538
-2.59565
0.549796
-0.0271853
-0.0188352
-0.707618
-0.120715
-5.10358
1.08605
2.53829
-2.52175
1.41491
0.875043
-0.513953
-0.0123791
-5.51506
-0.646443
-3.91309
1.12038
2.43947
-2.49594
1.55307
0.828887
0.127707
-0.170479
4.21763
2.47515
0.107941
-0.104192
-0.0397387
-0.60701
-0.479137
-0.393424
-0.313444
0.0201172
3.80815
1.70648
-0.101363
0.204244
-0.0188093
-2.99598
-3.60005
4.26956
-0.702572
-1.10194
2.87003
0.0838549
-0.308673
0.784214
0.130047
0.863677
0.098319
0.23912
0.177571
-0.65899
0.745163
-0.438713
-0.285645
-0.170313
0.264896
0.253906
0.262522
0.630664
-0.547841
0.689732
0.334485
0.109074
-0.198277
-0.281331
-0.687039
0.87359
0.439256
0.779282
-0.659031
-0.604966
-1.87941
-2.29085
0.402735
-0.731803
2.16424
-0.750336
1.16352
1.36334
0.815653
-0.619294
-1.11993
-0.857249
-0.353256
0.46826
-0.322755
-0.471357
-0.486533
1.60131
0.510559
0.517462
-0.864158
0.154065
-0.555835
2.26003
-0.160417
1.04676
0.865427
0.180181
-0.117259
-0.501758
0.00367855
-0.920712
1.07583
-4.18383
0.900325
1.16396
-3.14029
0.353982
-0.351851
1.09301
0.719973
0.739724
0.184476
-0.186283
0.17832
1.8934
-0.0847797
-1.47305
-0.186345
-0.286039
0.567068
0.753803
-0.416949
0.0136108
-2.36455
-0.00618582
-2.41067
-1.0239
-1.3824
-1.11977
0.277724
0.319496
-0.474953
-1.31375
-0.707899
-0.622512
-0.320075
-1.73867
-0.429547
-0.836951
-0.121088
-0.139225
1.18697
-0.0148633
-1.76714
-1.52538
-2.28385
-0.0665901
-0.77083
1.87371
0.830988
0.937331
1.23537
1.72543
-0.252995
-1.39436
-1.9764
-1.21796
0.711616
-0.715425
-0.773736
-0.224313
1.34893
0.0460824
0.0989331
-1.31431
-0.306393
1.01873
-0.505826
-0.489864
-0.808422
-1.17625
-0.0870735
-0.242099
1.53942
-0.852705
0.544348
1.34232
0.302901
-0.378263
-0.570843
-0.350608
-0.464248
0.336757
-0.868335
-0.736676
0.131049
0.672098
0.108686
0.16091
-0.768019
0.182179
1.7493
-0.681097
-3.27147
-1.63286
-1.96012
0.190554
-2.3527
2.2014
-1.9934
3.27881
0.331011
5.65472
-0.486519
-0.35252
-1.88659
-1.10342
0.715778
-0.11093
0.897686
-0.406468
1.45679
0.780185
0.700726
-2.06577
-0.366017
0.645531
0.636616
0.466439
0.25701
-0.254271
0.0868229
0.372591
0.675942
0.418751
0.297363
0.571554
0.0515278
0.576105
0.345159
0.346762
-0.144059
0.0994507
0.0702799
0.45438
0.33984
0.554766
0.487966
0.303181
0.351434
0.268773
-0.285467
-0.389841
-0.462626
0.0384654
0.0315687
-0.351431
0.29465
-0.5697
1.07249
-0.132389
0.556697
-1.86637
-0.336456
0.510994
0.805355
-0.137738
0.124579
-0.00224636
0.595461
-0.375952
-0.254834
-0.0865833
-0.446431
0.543587
-0.0864684
2.27309
-0.63809
-4.61521
-0.595098
-0.19783
-0.0810171
0.134702
-0.973507
-6.09124
6.59615
-8.63373
23.105
-1.1116
-0.643317
-2.94307
-0.122549
-1.21178
-0.889954
-0.228293
-0.842085
0.099489
-1.36215
0.643281
-3.19386
-0.14786
-1.16081
0.299764
0.332589
0.830747
1.49181
0.0826689
1.11088
-0.943056
0.725442
-0.517161
-1.04746
-0.551387
0.178173
1.13216
1.14617
0.154608
-0.790334
0.509226
0.549512
-0.0796269
-0.69616
-0.538278
-0.694199
0.701262
-0.0954427
-2.65346
-0.388086
4.53028
2.11815
-0.434491
-1.01873
-0.181055
0.558538
4.59595
-5.94025
3.78965
-14.1914
-0.349114
2.5525
3.86626
-0.251749
0.316065
-0.513411
2.76061
-0.195309
-0.274602
1.43629
-1.90878
0.330079
-0.134098
1.295
-0.219616
-0.671924
-0.96342
-1.79872
0.284994
-0.823081
1.68401
-0.479962
0.983481
0.624565
0.830436
-0.294284
-0.802228
-0.731285
-1.14954
0.946867
-0.679916
-0.591072
-0.699886
0.665305
0.572124
0.935522
-1.16634
-0.466656
-1.83694
1.77916
-0.194586
0.814065
2.47129
-0.119428
0.0592393
-3.0199
0.458793
-3.76127
-4.10453
-0.576729
0.387697
0.389924
0.0550339
0.731576
-0.527391
0.27817
0.417043
0.692347
-1.85223
-2.35428
-0.340025
0.722943
0.410777
5.68205
-0.768761
-19.3159
-9.72439
-3.43591
-1.04966
0.921344
3.75726
-7.00841
12.915
-5.51471
27.31
0.307046
-3.83945
-4.70074
-0.863593
5.3578
0.331476
-5.78245
0.266969
2.74924
1.33522
4.46766
-5.50542
0.671943
-2.14055
0.310204
-1.04247
2.31416
1.05365
-0.398878
-0.2721
-2.09829
4.67031
-5.1939
3.12474
-15.8761
0.211851
1.23701
3.12209
0.711713
-0.0980385
-0.198426
0.0285567
-0.45917
-1.44197
0.647395
-1.86842
4.28276
-0.374706
-0.634613
-0.157805
1.19806
1.00714
-0.0988984
0.208899
1.48775
-0.691287
0.71825
-0.616903
1.81116
-2.36078
0.0364183
-0.20332
0.344485
0.494088
-0.154875
-0.10247
0.353403
-0.0722346
-0.182114
0.502352
-0.566824
0.613063
0.286843
0.841928
-0.169496
-0.772826
-0.904632
-1.40214
-0.41323
-0.288466
1.52421
1.50726
1.20398
1.38039
0.471389
0.0782952
-1.11009
-0.459742
-0.150292
0.41946
-0.62262
-0.632247
-0.593861
0.683752
0.0851705
0.469117
-0.560579
0.388955
-0.211103
0.653743
0.287272
0.518268
0.564381
-0.290822
0.230585
-0.196394
0.295257
-0.810493
-0.332127
-0.533882
0.131026
0.33436
0.684699
0.0131536
-0.854973
0.54721
0.30826
0.599843
-0.626847
-0.0124681
-0.581443
0.0759229
0.428795
-1.77223
0.957067
2.10375
2.09482
1.85639
-0.503717
0.75368
-1.53394
1.78747
-1.56162
-2.12365
-1.32506
0.296431
0.91196
2.36611
0.619667
-1.6091
0.359722
1.43131
0.267088
-1.80815
-0.731271
-0.0617348
0.623719
0.337208
0.871888
-0.970503
-0.220674
-1.05779
-1.03205
0.404734
-0.66363
1.39118
-1.34318
0.464122
1.04895
0.320426
-0.683272
-0.612665
-1.51083
-0.993236
0.323474
-0.370088
-0.706784
-0.881482
0.6747
0.635073
0.498787
-1.52208
-0.0127942
-0.513513
-0.240958
-0.22667
0.316097
0.366025
0.0327576
-0.982053
-1.08351
-0.323138
-1.08551
-1.00007
-0.473159
-0.489422
0.0872361
0.0823379
-0.574014
-0.521881
-0.236184
-0.231406
-0.9712
-0.49075
-0.67365
-0.79152
0.207719
-0.209758
1.71847
-0.326683
-1.32992
-2.20521
-2.92966
-0.225881
-2.69406
2.34733
-1.34026
1.66393
1.13697
2.06321
-0.0786453
-1.20452
-0.91367
-1.00872
0.652846
-0.529645
-1.55613
-0.233242
2.04816
-0.0566252
0.148875
-1.80458
0.320579
-0.624973
0.0536966
0.457343
0.527229
0.34446
0.192999
0.238817
-0.575122
0.509028
-0.135446
-0.19086
-0.39699
0.317347
0.07778
0.718835
0.428443
-0.474271
0.00126658
-0.0399172
-0.252483
0.226568
0.19704
0.0199249
0.244271
-0.0484088
-1.24505
0.457058
-0.0931338
1.07781
0.372584
0.14979
1.12523
-1.34208
0.501992
-2.02459
0.0295939
-2.62099
0.0435663
1.23079
0.441732
0.528722
0.392098
-0.505798
0.862404
0.0400183
-1.15472
-0.373056
-1.62447
0.474528
0.237192
1.01751
4.25035
-4.03274
-4.58493
3.47905
1.57968
4.76625
-0.0986092
2.40594
-13.9435
-0.0374901
6.54692
1.17797
-7.3551
11.621
-6.8902
3.38432
2.90077
0.334331
-3.57988
-2.39348
-1.92572
4.68896
0.346793
2.97717
