#input normalization
1 0
1 0
1 0
1 0
1 0
#output normalization
2.75285 123.311
#neurons weights
-0.340251
-0.151195
-0.00504368
0.101808
-0.282024
0.665179
1.96322
-1.52762
0.00421844
-0.800164
1.04
-0.850031
1.84961
4.34525
-0.541312
0.431016
0.885937
0.279254
-0.165508
0.451151
-1.18853
0.452197
-0.557304
0.104773
0.79055
-1.26964
1.57294
0.0196266
-3.55888
1.00338
-0.800807
0.00823585
-0.696091
-0.922687
-0.907759
-0.841396
-0.964997
-0.401732
-0.43255
0.560764
0.183295
-0.373096
0.0788204
-0.122125
0.392702
-0.594737
0.185991
-0.0307059
-0.0500493
-0.159546
0.165188
-0.785481
-0.308501
0.0568168
-0.280834
0.189657
#synapses weights
-0.853284
0.617198
2.37145
0.0340053
0.802042
-3.47574
1.26711
0.765064
0.320184
1.51123
-0.0310972
0.747486
-0.633853
-0.756946
0.518446
1.73307
-0.831746
-1.28482
-1.01853
-0.326653
1.4237
-0.532111
-0.446665
-0.608608
-0.482909
-0.0816521
0.213115
0.142161
5.4518
-0.252068
1.23204
-0.588714
-2.22348
-0.0467231
-0.662136
0.266678
-0.0923829
-0.181608
0.610334
-0.854244
-0.00213908
-0.180195
0.0631351
-10.5625
-1.35945
-0.0127121
-0.537846
-0.236321
-3.53875
-0.00235687
-1.20959
0.650683
0.894264
0.521669
0.35528
-2.06125
0.824214
3.64609
0.398384
0.274778
0.351657
0.0602122
0.289636
-0.24482
1.26446
-0.0299236
0.0993069
-1.28022
0.0992268
-0.220685
-1.11524
0.679749
0.0377001
-3.86368
0.409159
0.00920642
-0.178156
-0.0423101
-2.21059
-0.703237
-1.69068
0.562576
1.36128
1.03898
0.739767
1.50621
-0.276197
-1.45064
-0.112617
0.210868
-0.82086
0.369786
-0.118514
0.538355
0.630936
-0.0195018
-0.995653
0.580483
-0.174833
-0.46328
0.0220403
0.188954
0.158877
4.70528
0.13402
-0.0955475
-0.164944
-0.296239
-1.34149
-0.0562975
0.136864
0.793854
1.05576
0.628724
-0.00397671
0.00344608
0.187098
-0.00705093
-6.41782
1.47843
-1.69534
0.25517
1.07361
0.420586
0.74677
-0.694833
-1.05629
-0.00699346
0.0856927
-0.620431
0.0909109
-0.313414
-0.207872
-0.596935
-0.128846
-0.296042
-0.0437167
0.00863226
-0.561756
-0.358286
-0.520207
-0.120409
-0.315051
-0.283345
-0.385763
-0.0341564
-0.271504
-0.623137
0.085711
-0.562081
0.364616
1.03678
0.657997
-0.384813
-0.591857
-0.286255
-0.329897
0.90043
0.071623
0.0471367
-0.724103
0.74539
-0.493808
-0.54962
-0.153025
-0.136832
0.131197
0.0387525
-0.305635
0.329128
0.881842
0.396171
0.569391
0.711327
0.049355
-0.311957
-0.982722
-0.3754
0.0237581
0.366601
0.0333492
-0.310402
-0.624942
-0.21674
-0.496129
0.238562
0.0272083
0.610868
0.0862402
0.302772
-0.0223249
-0.352771
-0.11335
-0.410885
-0.301697
-0.91643
-0.0693765
-0.614164
-0.473951
-0.47162
-0.154601
-0.466971
0.427568
-0.0154519
-0.136183
-1.08938
-0.167624
0.453191
-1.68042
0.971204
-0.686087
-1.18527
-0.272091
-0.474666
-0.475897
-0.784392
-0.0478798
-0.141581
-0.187129
-0.443781
0.789707
0.252697
-0.321894
0.918919
-0.248531
-1.10653
-1.63046
-1.22736
-0.542763
0.118427
1.03552
0.670207
-1.50458
1.4162
0.991511
0.653855
-1.06676
0.852693
-0.270857
1.04376
0.387799
-0.121853
0.366098
0.0391192
-0.311881
-1.54009
-1.02962
0.0221164
-1.44016
-0.404441
0.072231
-0.993677
-0.300302
-0.594202
-1.03955
-0.894927
-0.0331129
-0.156519
-1.1018
-0.0724448
-0.766209
-0.54251
-0.425782
-0.0238311
-0.638628
-0.582891
0.136469
-0.413962
0.649959
-0.286281
-0.175338
-0.636643
-0.503393
-0.111731
-0.2632
-0.0967945
-0.0843132
0.394556
0.243115
-0.227787
-0.778237
0.248297
-0.388737
-1.10933
0.614497
-0.931696
-0.725281
-0.655283
-0.246152
-0.0737533
-0.743169
-0.323141
0.573693
-0.175262
0.171154
0.759213
0.440244
-0.784448
1.27899
-0.139037
-0.245994
-0.0524949
-0.453679
-0.350017
-0.346018
-0.423455
0.117026
-0.970514
-0.280836
-0.413175
0.122727
-0.183562
0.567071
-0.0659848
0.0559378
0.292842
0.426637
-0.137899
-0.248028
0.380476
0.370283
-1.13445
0.562805
-0.997378
0.114019
0.0139489
0.112719
0.719616
-0.255622
-0.708326
-0.620616
-0.931943
0.297503
-0.248149
0.0330201
-0.42348
-0.0555275
-0.627894
0.0301038
0.0181615
0.0158944
0.474731
-0.122921
-0.543662
-0.306436
-0.0393893
0.399483
-0.198583
0.197298
0.279669
-0.137518
-0.484983
-1.75742
0.110102
0.797032
0.828302
0.103314
0.568941
7.00998
-2.01342
0.516874
-0.0445507
-0.752584
0.33784
0.122705
1.22677
0.641269
0.393798
0.388545
-1.15676
-0.438947
-1.62488
-0.159005
-5.39045
0.20213
-0.269372
-0.188137
-0.293819
0.0508266
-0.101626
-0.00990797
-0.244541
-0.181386
0.634569
-0.0415964
-0.643634
0.235133
-0.0992563
0.297782
-0.201105
-0.226229
-0.383724
-0.372082
-0.832032
-0.644787
0.0604629
-0.500348
0.207056
-0.395005
-0.352744
-0.449894
-1.21239
0.0748125
0.223756
-0.0755716
0.417492
0.837761
-0.358427
0.265475
0.00773336
0.276588
-0.609441
0.465734
-0.105345
0.429898
0.307782
0.0886562
0.378259
-0.0141738
-0.166676
-0.210567
-0.147382
0.044503
-0.528104
-0.284951
-0.0532005
-0.922933
-0.0375468
-0.25448
0.0212517
-0.716096
0.148455
-0.0182919
1.88766
-0.160799
0.170861
-0.331775
0.447053
-0.0123079
-0.053751
0.333633
-0.167722
-0.420304
-0.0610937
-0.647406
-0.286576
-0.244148
-0.465403
-0.839102
-0.652543
0.179236
0.4547
0.278486
0.115923
-0.558738
0.177237
0.0245749
-0.654548
-0.096354
-0.406144
-0.0882285
-0.0222318
0.248526
0.304195
-0.144994
-0.33177
-0.0851933
0.189513
-0.297654
-0.344432
0.1029
-0.612111
-0.0748717
-0.376133
0.205012
0.688746
1.27606
0.14421
0.0967703
-0.137039
-1.12347
-0.310998
0.876749
-2.03287
-0.541057
-0.868248
0.248934
-0.647975
0.103985
-0.488825
-0.280793
0.222767
0.274223
0.246544
-0.099019
1.3994
1.10457
0.148731
1.36359
0.089096
-0.399074
-0.209277
0.227733
-0.100466
-0.168825
0.211061
-0.228006
-0.337248
-0.173509
0.866158
0.145831
0.0290732
-0.645665
0.0941643
-0.131141
-0.0869715
-0.407917
-0.34501
-0.095337
-0.00647768
-0.925962
0.370841
-0.46573
1.04488
0.30604
-0.450902
-0.342779
-0.424225
0.0932293
-0.294619
0.575753
0.0168448
1.00218
0.427693
0.498114
-0.128424
-0.172642
-0.18183
0.051567
0.0871736
-0.245743
-0.0413864
-0.143581
0.375246
-0.0868975
-0.176443
0.759181
-0.394664
0.691226
0.0241119
-0.429394
-0.323581
0.252222
0.348887
-0.293641
-0.100676
-0.23941
0.161728
-0.499115
0.0869214
-0.138081
0.497273
-0.168493
0.137412
-0.0552983
-0.0333428
0.221893
0.191665
-0.122531
-0.399787
-0.00481633
-0.645044
0.497181
-0.389401
0.22632
-0.643154
-0.124821
0.106675
-0.185328
-0.238228
0.0132417
0.0473247
-0.446041
0.614638
0.0960868
0.563243
-0.181158
0.0294016
0.489424
0.117055
0.505691
-0.158636
0.195168
0.656087
0.0654549
0.010901
0.593142
-0.252764
0.17577
-0.156532
0.212365
0.733242
0.00837856
-0.0501308
-0.687749
-0.502885
-0.318028
0.408323
-0.370807
-0.879818
-0.885232
0.0524537
-0.685053
0.016834
-0.401545
-0.402215
-0.385647
0.256282
-0.410371
0.217356
0.809766
0.598871
-0.0469021
0.198625
-0.311987
0.437806
0.882374
0.159363
0.111878
-0.584126
-0.436892
-1.18269
0.936257
-0.194945
-0.253622
-1.02596
0.693101
-0.955125
-0.349714
-0.349174
-0.294751
0.233013
0.258395
-0.416299
0.242202
0.294764
0.298947
-0.0590316
0.889628
0.737565
-0.79388
-0.481548
0.33335
-0.88191
0.244011
0.348372
-0.299031
0.295258
1.09498
-0.590328
-0.793161
-0.535145
-0.245991
-0.400126
-0.600291
0.0318363
-0.449172
0.0758721
-0.0991229
-0.824231
-1.11541
-0.366038
-0.0140311
-1.29845
-0.501291
-0.718549
-1.1574
-0.685817
0.498545
0.425524
0.671932
0.369167
-1.24336
0.216667
0.313115
0.982632
-0.747429
1.0342
-0.0185263
0.636442
0.113024
-0.289243
-0.374208
-0.196076
-0.183933
-0.99291
-0.577147
-0.30768
-1.14269
-0.649234
0.127131
1.21968
-0.405729
-0.0520473
-0.492991
-0.781192
-0.351225
0.870427
-1.55472
-0.0899417
-0.797779
-0.131326
-0.97267
0.410191
0.489585
-0.0420871
0.18619
0.476306
0.70502
-0.247194
1.03713
0.347921
0.626692
1.27034
0.816922
0.249782
-0.120256
-0.0214728
-0.0668059
-0.14488
0.000884576
-0.0106533
-0.043008
-0.0324909
-0.137312
-0.318357
0.480201
-0.218613
-0.367529
-0.130978
-0.13908
0.488876
-0.366497
-0.121114
0.524965
0.0888874
-1.06585
0.0981956
-0.238909
-0.3626
1.50109
0.145007
-1.85738
3.19584
-2.873
2.74381
2.61677
-1.9424
-0.0626625
-4.92724
-1.13273
-0.0752726
-1.86204
-1.11672
3.20795
1.98256
1.59492
-0.770618
0.42098
0.238824
0.131201
-4.44745
-1.43038
2.64959
-1.11457
