#input normalization
1 0
1 0
1 0
1 0
1 0
#output normalization
2.75285 123.311
#neurons weights
-0.301802
0.0973433
-0.384031
-0.340497
0.0916316
1.3634
-0.223401
-3.96613
-1.81249
-1.804
1.44142
-5.00964
1.0722
1.06706
1.39389
0.41461
-0.176825
0.43797
-0.911048
0.191266
0.230258
-0.962363
0.52354
-0.341055
1.61281
-0.262028
0.886555
-0.607864
-1.511
0.118665
-1.71591
0.867665
-0.777186
0.165717
-0.139625
0.397164
-0.561257
-0.619862
0.346738
0.629692
0.61411
0.227917
1.06716
1.11883
-0.0821089
0.622207
0.127442
-0.268368
-0.0958939
0.544542
0.54284
0.488175
0.165181
-0.273931
-0.603415
-0.468583
#synapses weights
-2.14632
0.884081
0.202509
-7.55778
1.33003
1.69312
-0.540686
-2.46346
-0.46472
0.0497444
0.034919
0.19147
-0.00351203
11.1509
0.229387
0.178778
-0.836083
-0.275677
-6.85975
-1.00606
1.90679
-0.43919
0.494088
0.0392195
-1.38963
-1.86915
0.795362
1.26209
1.2698
1.23071
0.0455203
0.167627
0.176411
-8.5428
1.53431
-1.50854
0.224501
1.88497
-1.9107
0.0418487
-2.19728
0.636345
0.887538
1.12585
0.0241701
-0.020772
-0.0218141
0.0930726
-8.20852
0.166782
0.0863196
0.135436
0.525445
0.756182
-0.849472
0.00247021
0.0137691
-0.204262
-7.90851
-1.13787
-0.111668
1.19343
-0.489271
-0.0250231
-0.92009
0.766584
-0.190439
0.32859
-1.83854
-1.37172
2.38199
-0.748814
-2.02549
2.44501
-0.00952629
-0.340223
-1.44593
-1.67582
1.37119
0.3122
4.22852
-0.420117
1.57177
-4.06947
-0.966495
-0.00437853
2.06381
0.539611
3.3298
1.0416
2.13552
-0.128747
-1.16738
3.19139
-0.257865
-1.60791
0.875108
-0.0634
1.21188
1.11851
2.74925
-1.06986
-2.88819
-0.311493
-0.880883
0.0252797
-0.682687
-0.262692
2.09833
-0.658862
3.08844
-0.368308
-0.700613
-0.717462
-0.183367
0.11676
0.0607311
0.538196
0.376448
-1.16173
-2.45142
0.302829
1.22008
-4.28155
-0.124745
1.25304
-1.33106
-2.25017
-2.39565
0.544267
-1.98652
-1.83055
-2.01558
-0.413347
-0.340425
-0.174061
-2.93572
-1.92478
-0.110894
-1.19215
-2.65246
-0.673962
-1.67067
-3.40134
-1.51369
-1.44389
-2.81499
-0.906755
0.524442
-1.18446
-0.903086
0.992768
1.52844
1.30281
0.448198
1.36062
0.483291
0.74042
0.429042
-0.364802
0.479233
1.41477
0.220333
-0.00153037
0.650638
0.930803
0.072535
0.924137
2.49582
-0.138063
0.486371
1.33428
-0.258292
-0.14162
1.06367
-0.179674
-0.574882
0.0595171
-1.00173
0.468243
-0.14901
-0.264667
-0.737776
-0.0800993
0.585353
0.490602
-1.01883
0.135485
-0.387354
0.00753207
-0.0258304
-0.295413
0.0143606
-0.453037
-0.463484
-0.11417
-0.292652
0.481429
0.846308
-1.12038
0.572701
0.432388
-0.353442
-0.348072
0.516014
-0.699223
-0.130029
-0.270137
0.561525
0.673757
0.471683
-0.873577
-0.153344
0.11721
-0.194617
-0.62154
0.379594
-0.565433
-0.422089
-0.29217
-0.0495265
-0.636638
-0.212044
0.86349
-0.430258
-0.332084
0.280283
-0.404211
-0.480225
0.0751686
-0.937935
-0.479709
-0.190034
0.1389
-0.0416839
-0.00597873
-0.65499
0.15696
-0.121333
0.0543983
0.00206013
-0.263882
-0.140296
-0.362654
-0.667701
0.110569
-0.638097
0.0286394
0.206711
-0.601636
0.220368
0.272216
0.444982
0.267047
0.110431
0.520396
-0.812142
-0.250429
-0.0251241
0.433196
0.627206
-0.26897
-0.22584
-0.191206
-0.0831225
0.0419045
0.38256
0.0771895
0.643206
-0.478198
0.163723
0.508688
0.254111
0.435741
-0.0866361
-0.745438
-0.242801
0.265036
-0.198676
-0.324345
-0.484729
-0.0884734
-0.74517
-0.484093
-0.829937
-0.255351
-0.648167
-0.214678
-0.811347
-0.307662
-0.519013
0.0935553
-0.58395
0.485096
0.130307
-0.115204
0.137912
-0.379862
-0.463483
-0.323902
0.745773
-0.57967
-0.647658
0.506342
-0.188829
-0.337642
-0.105366
-0.218454
-0.378421
0.558574
0.154661
0.0450208
-0.278669
-0.261727
-0.393507
-0.0865789
0.179964
-0.546776
-1.25559
0.383704
-0.518345
-0.442039
0.0733676
-0.140144
-0.493697
-0.106688
0.756417
1.0548
0.838147
-0.580484
0.523651
0.497532
0.950837
0.0242258
0.138873
-0.386364
1.16941
0.410719
0.0542368
0.094506
0.663179
-0.410552
1.06535
1.08627
0.52433
0.4485
0.653024
-0.446933
0.0914807
0.720885
0.583412
0.451519
-3.3346
-0.695308
0.909566
-0.190583
-2.95055
0.213046
0.88856
2.13484
1.20549
-2.32734
0.849853
0.834933
-0.164583
-1.21459
0.00962413
-0.657989
0.0296325
0.127292
0.578772
0.876803
-0.33432
0.781347
-0.107282
-1.2591
-0.354003
1.49293
1.10615
-1.12433
1.13872
0.437751
1.2529
-0.341087
-0.73079
-0.655985
1.50428
1.09735
-0.951801
-0.128207
0.826291
-0.779898
1.33779
2.14104
1.12313
-0.4122
0.844455
0.482619
-0.577286
0.582875
-1.08239
0.0416413
0.886462
1.98414
-1.88501
2.05738
0.413133
1.65068
-0.914642
-0.592498
-0.468407
1.58698
-0.0115365
-0.812318
-0.69763
1.11709
-1.23951
1.39289
2.42229
1.2264
-0.561144
1.60288
-0.088041
-1.36784
1.36194
1.06881
0.901256
0.280012
-0.113839
0.925409
0.649661
-0.237651
0.750948
-0.0188192
1.3107
0.399533
0.114321
0.491368
0.703168
0.792023
-0.122916
0.603854
0.618445
-0.176132
0.0447192
-0.0929068
0.309019
0.573986
0.491308
-0.129863
-1.43011
0.431839
0.907831
1.10028
-1.09586
1.45666
0.508949
1.05092
-0.124782
-0.602509
-0.503729
1.10115
0.806443
-0.502114
-0.170182
1.2285
-0.746742
1.10392
1.8614
1.0923
0.116751
1.52927
0.548658
-0.799582
0.695459
0.0625557
-0.238157
0.366206
0.47882
-0.00617412
0.387839
0.298404
0.578998
-0.42951
-0.376921
-0.135189
0.595703
0.729532
-0.288786
0.30216
0.738653
-0.71999
0.442333
0.881011
-0.0585191
-0.316996
0.415157
-0.161438
-1.0457
0.234642
0.0492563
-0.0278098
-3.93676
0.254686
0.591513
0.11987
-3.57089
0.400446
0.338763
2.59785
2.57252
-1.71309
1.5577
0.408924
0.565433
0.851318
0.0833459
-1.01284
-0.560295
0.461932
0.503159
1.19352
0.147881
1.07279
-0.0957574
-0.445925
0.347697
-0.281094
0.163777
0.267035
0.00463161
-0.642619
-0.124392
0.137294
2.02594
0.909495
-0.00286712
-0.769836
-0.105852
-0.397748
-0.622593
0.0236189
-0.0953457
-0.620411
-0.174204
0.281032
-0.10494
-0.0155337
0.802695
0.130204
-0.7126
-0.455504
0.988317
0.521558
-0.462489
0.483249
0.12328
0.0931021
-0.759408
-0.453254
-0.740386
0.195115
0.241693
-0.089258
-0.102809
0.587295
0.309085
0.437971
0.837758
0.120228
-0.00711561
-0.0143273
-0.291884
-0.0610939
-0.364119
-0.273487
-0.286576
-0.0449552
-0.436892
0.548238
-0.0866244
0.179601
-0.70732
0.269815
1.1609
0.879731
-0.776217
0.0598305
0.134271
-0.296232
-0.443344
-0.125596
-0.0306292
-0.704473
-0.394709
-0.392336
-0.469801
0.114259
0.725952
-0.539762
-1.1842
0.117031
1.06162
1.01963
-0.882505
0.692935
0.0875393
0.536332
-0.370503
-0.24688
-0.306597
0.50934
0.327312
-0.187333
-0.500838
0.407093
-0.861738
0.516442
0.982397
0.356448
-0.0654546
0.439415
0.0680848
-0.799339
-0.102644
-0.0734322
-0.167282
0.0841619
-0.36593
-0.289152
0.00418322
-1.50337
0.0833593
0.945592
0.564045
1.99451
-0.961187
-0.236174
0.0492681
-0.206115
-0.0599317
-0.00822475
0.151847
-0.595058
0.0803715
0.201917
0.527321
0.558949
0.878246
-0.195162
0.174344
-0.25225
-0.685286
-0.200096
0.0436601
0.271214
0.296752
0.351417
0.485938
-1.32196
0.19268
1.0742
-0.397422
0.733928
0.260152
-1.1192
0.254205
-0.651172
0.0692089
0.169328
-0.0801183
-0.533055
0.287753
-0.12227
0.0539686
-0.0428203
0.212397
0.845888
0.309736
-0.253633
0.650068
0.465371
0.75207
0.0827305
-0.181094
0.201235
0.311393
0.898632
-0.135405
0.497199
0.549228
-0.0823706
0.831316
0.546337
0.410628
0.520294
0.848236
0.314542
-0.0982301
-0.265481
-0.0542043
-0.420573
0.131278
0.192653
0.162447
0.202412
0.140521
0.232335
-0.040717
0.0957976
0.413833
0.25626
-0.229017
-0.333576
-0.619325
0.0384439
-0.324871
0.447471
0.747343
-0.0928376
-0.0427386
-0.00995075
-0.173998
-0.283072
0.361011
0.49879
-0.445288
-0.782368
-0.402804
0.169389
-1.22068
-0.209463
-0.290724
0.753822
0.67864
0.186782
-0.502545
-0.297858
0.41756
0.389695
-0.454241
0.348477
-0.601576
-1.616
-0.685484
0.519204
-0.563927
-0.20559
1.15285
-0.214079
-7.45641
4.09963
-3.27532
-0.469046
-1.25321
-1.62526
2.03925
-0.436495
2.31438
-2.22373
2.48354
4.77739
-3.22115
3.30179
0.855304
-4.61912
-1.78039
-0.509066
-1.58277
0.186645
-3.26979
2.02898
-1.64795
-0.418545
-1.62583
