#input normalization
1 0
1 0
1 0
1 0
1 0
#output normalization
3.74251 135.245
#neurons weights
-0.301826
-0.189008
0.342815
0.263158
-0.175191
-6.00599
0.79523
-1.38575
-2.30099
1.17615
0.110911
0.421355
0.547117
0.588651
1.89621
0.302485
46.5577
7.11331
4.18976
-0.965202
0.966716
4.97487
-0.617805
-0.177634
6.54038
-2.57017
2.29237
-4.00652
-0.847284
-1.92397
1.14193
1.62096
-0.6354
1.90458
0.961033
-0.112719
-2.14248
0.782671
-2.32474
-0.454998
-0.53517
0.358524
0.0535306
0.259712
-0.415338
0.16952
0.78516
-0.27523
1.74344
0.207711
-0.646226
1.78298
-0.441295
-0.127812
-0.0275673
1.30285
#synapses weights
0.0251882
-0.148527
0.294996
8.6533
0.536148
-2.52039
0.651853
3.18499
2.31314
1.02258
4.667
-0.358483
-6.40889
5.68978
-1.60056
-1.14561
1.54692
1.01199
13.833
-1.75321
-3.69679
0.720675
11.7034
-4.78246
0.804883
-2.86064
2.87229
0.0907808
7.20209
2.30908
-0.763829
0.990978
0.947865
5.54809
0.4596
-0.137946
0.173171
-1.51549
4.85386
-2.59862
-2.3494
0.393085
5.35224
-0.988574
0.6955
-0.918828
1.40527
3.41147
-1.21261
1.85887
-0.503069
0.994813
0.73535
7.42889
-0.153952
0.0279319
-0.924237
0.180169
-44.1741
-23.8345
4.19704e-05
0.444753
-0.136524
-21.3377
6.1988
-1.68264
2.6092
1.55862
-3.50854
2.51082
4.14708
-1.60944
-6.30848
3.96351
-0.898049
1.68857
-0.500571
-1.36047
-16.0589
0.946647
0.0654248
-0.669409
0.945783
-0.98587
-6.50024
2.0215
0.098774
-1.7215
-1.49805
-0.565083
-3.03521
1.9679
1.81768
11.4138
0.341085
0.0623126
0.018445
0.55462
-12.3433
1.6311
4.16927
-0.587302
-8.14563
7.19199
-2.19826
-1.77916
0.697022
-0.366762
0.212779
1.65453
-0.172741
-0.251741
-1.36549
2.43563
-1.20129
-0.410671
1.62942
1.03026
6.72946
0.0488597
1.53676
-0.713922
-1.6948
-0.609742
-1.54458
4.39678
2.18209
0.665924
4.19353
1.13801
5.7642
0.981803
0.0659617
1.05653
0.175357
2.67214
-2.14045
0.778183
0.613328
0.221471
-2.06122
0.719366
1.73581
4.80178
-0.219212
3.57326
-2.42722
3.96205
1.84112
0.353619
0.952226
1.3619
1.27317
0.0922668
0.727567
0.486105
0.100212
0.581632
-0.114926
1.74642
1.31362
1.393
0.535512
0.496151
1.50196
1.99227
0.805148
0.37628
-0.132588
1.43029
0.276244
1.55744
0.679665
-0.653995
0.651817
-3.00422
-1.17227
-0.132598
-3.07706
-0.506283
-3.64215
-1.15186
0.625259
-0.0333343
0.300077
-1.54088
1.30998
-0.340314
0.0275948
0.0813756
1.78029
-0.698775
-0.759245
-2.62365
0.521883
-1.48029
1.85793
-2.07561
-1.75583
-0.411197
4.52239
2.79418
0.810519
4.04693
1.3691
4.73038
1.50149
-0.641659
0.534329
1.03673
2.83563
-0.858854
1.56564
0.488725
0.32415
-0.852143
0.765109
1.38715
4.8491
0.790069
3.10799
-1.38584
3.11162
2.44657
0.649634
-2.36621
-0.0927484
0.725717
-3.88041
-0.462321
-3.49738
-0.611544
0.413277
-0.662008
1.51651
-1.26887
2.06933
-0.321619
-0.262823
1.40294
3.20259
0.548912
-1.02076
-4.03335
0.529867
-2.54723
2.82451
-1.80897
-2.10048
0.954677
0.777367
0.0607946
-0.346193
1.63121
-0.0144368
1.32483
0.320624
0.0228055
0.114566
-0.322683
0.410507
-0.754513
0.673563
0.582994
-0.703025
-1.6942
0.489028
0.146452
1.99805
0.381208
0.619353
-0.98382
0.503183
1.02295
-0.0313796
-1.54222
-1.75176
-1.62561
-0.230569
-1.10995
-0.55499
-0.115245
-0.587102
0.198929
-1.55838
-1.55399
-0.986984
-0.131988
-0.488075
-0.77022
-1.71804
-0.623455
-0.0629124
-0.0299903
-0.817488
0.0759221
-0.292819
-1.01187
0.646289
-1.1186
-0.967868
0.171543
0.797751
-4.57047
-0.293626
-2.37211
-1.25959
0.696407
-1.16217
1.15913
-1.79218
2.21322
-1.02332
-0.167299
1.01835
3.82891
-0.0608526
-0.666418
-4.03682
1.48764
-2.3285
2.41802
-1.58528
-2.72315
0.814934
-4.14681
-1.16927
-1.4349
2.26665
-0.849201
1.21715
-0.0543142
1.57091
0.0938906
-0.988049
-0.301993
-8.74982
-5.5856
-0.457344
-1.18261
-2.90743
0.834238
0.236723
1.71518
3.1468
0.97358
-2.67433
-1.89715
1.2209
-0.377494
-4.44543
-1.46671
-0.442621
-5.07883
-1.21676
-5.31999
-0.635997
0.129068
0.0844451
0.367817
-2.88068
2.86164
-0.809369
-0.0142833
0.396646
2.51577
-0.951186
-1.02041
-5.19402
0.74942
-3.07745
3.38585
-3.8965
-2.37812
-0.105017
3.16257
0.304688
-0.377299
3.67043
0.728142
4.74735
0.317863
-0.951781
0.745866
-0.443697
1.64971
-2.5049
0.277841
0.0786287
-0.467689
-2.33909
0.692096
0.481442
4.40045
-1.41118
2.24816
-3.15785
2.74721
1.52215
-0.845121
-1.36647
-0.744421
-0.0617455
-2.62315
-0.377895
-2.74387
-0.0688758
0.00486049
0.178254
0.427931
-0.982963
3.32079
-1.40009
-0.225343
0.600942
1.96517
-0.834833
-0.377403
-2.80639
0.327358
-1.45784
1.71003
-2.20132
-1.30285
0.537265
-3.04408
-0.857601
-0.106904
-3.25172
-0.406067
-3.13076
-1.0501
0.484834
-0.166775
0.422941
-1.55866
1.41637
-0.90543
-0.233119
-0.214458
2.06206
-0.51712
-0.271459
-2.94566
0.915162
-2.25773
2.55135
-2.67468
-1.41729
-0.270661
4.57682
0.80482
0.172343
4.18461
0.438638
3.93714
1.97801
-1.03659
-0.289405
-0.18077
2.75479
-14.4715
-5.78674
1.25357
-0.224121
-2.18849
-4.29636
0.476014
3.74571
-2.5113
1.9412
-1.15316
4.09508
3.39206
-0.245555
-0.892896
0.0415766
0.0100233
0.488474
0.0575182
0.884213
0.366474
-0.224171
0.201982
-0.641563
-0.0588092
1.73774
-0.363895
1.00143
0.112194
-0.679311
0.0332684
-1.15347
0.547439
-0.893679
0.643288
-0.813608
-2.5636
0.275305
0.495619
2.52941
0.887324
0.473576
1.78271
0.758502
2.29615
0.276771
0.0415708
-0.157785
0.502677
1.09623
-1.19504
0.707502
0.596503
0.198552
-1.37906
0.157139
0.886708
2.69029
-0.00930282
1.57882
-1.73644
1.80246
1.09152
-0.0473598
-1.0433
0.49372
1.50537
-2.5133
-0.616597
-1.85385
-0.844896
0.327001
-0.564585
0.51838
-0.971948
0.95734
-0.459423
-0.0692266
0.652499
2.67129
0.104383
-0.354536
-2.71047
0.809943
-0.867186
0.84849
-1.22048
-1.71712
1.06034
-3.17768
-1.39297
-0.0574777
-2.92693
-0.920568
-3.64231
-0.99497
0.499122
-0.0717638
0.776914
-1.98268
1.72995
-1.13254
-0.346732
0.796706
2.4093
-0.540501
-0.634632
-3.06066
1.10688
-2.24281
2.79868
-2.4977
-1.34136
0.455584
-2.21216
0.913388
0.0140514
-1.15302
-0.725014
-1.65221
0.638945
0.109968
-0.00424981
1.27417
-0.289895
8.12217
2.84843
0.617666
1.17581
2.86727
0.249307
0.221425
-0.704034
18.857
-0.30664
2.39172
-4.51776
0.168912
-0.363842
-2.99641
-0.463106
0.0700486
-2.6291
-0.160152
-2.67594
-0.772368
1.25736
0.33114
-0.196704
-1.4105
5.55329
2.31112
0.356982
0.344485
1.66932
0.851033
0.12975
-2.76186
2.19228
-1.84693
2.41444
-1.4433
-1.49152
0.254348
4.33057
1.8871
-0.297014
4.99897
1.41617
5.51249
1.54465
-0.663984
-0.0491874
-0.612727
2.50503
-3.27888
1.38014
0.0277142
-0.908877
-3.54052
1.00201
0.996342
5.61741
-1.34984
3.90535
-3.57409
3.98158
2.42543
-0.389028
3.72295
2.00411
1.31375
5.13932
2.13495
0.670148
2.91456
4.68975
2.71087
2.01255
3.52829
-71.5039
4.12564
0.883923
0.129158
-3.30044
-14.6155
1.21886
5.99147
-7.24466
2.42788
0.767886
0.198202
3.55979
-0.317189
2.07948
0.66006
0.273261
2.96669
0.565338
3.4612
0.905926
-0.911968
0.382634
-0.493529
1.04133
-1.68988
0.216515
-0.0410375
-0.397093
-1.71923
0.538247
0.930235
2.78102
-1.0264
1.53297
-2.26269
2.11997
1.81941
-0.169823
4.09937
1.14673
0.422963
4.54952
1.65183
6.16228
0.71549
-0.577503
0.0552866
-0.283928
2.27728
-2.76628
1.45011
0.686327
0.0104284
-2.47403
1.38521
1.61177
5.17882
-1.14265
3.89567
-3.57325
4.15985
2.91106
0.432818
-3.06114
-2.11461
-0.102277
-2.94844
-1.61317
-4.03782
-0.668442
0.868289
0.453711
-0.291149
-1.64632
1.86314
-0.0625076
0.200268
0.301472
1.37382
-0.990962
0.0772756
-3.44014
0.743932
-2.17677
2.77784
-3.03644
-2.01751
-0.710569
-1.63003
-13.75
2.77093
-5.99743
-13.5897
8.09401
16.9618
-14.8457
18.0741
0.625325
1.05223
-5.48105
-1.55446
2.78093
12.3424
0.131464
-11.642
-1.31753
-10.4882
2.40921
2.02307
3.0405
2.22108
2.33468
7.12659
