#input normalization
1 0
1 0
1 0
1 0
1 0
#output normalization
3.74251 135.245
#neurons weights
-0.139227
-0.208751
-0.463045
0.421484
0.298976
0.469033
0.84583
1.49057
9.48012
11.5991
-1.57643
-0.849669
-1.81643
-1.65008
-2.04127
1.96454
-2.09111
-7.12612
3.52088
-21.6151
2.31063
1.31814
-1.22002
19.0877
2.23229
0.40281
-50.429
-3.54617
7.09652
-43.2115
-0.669814
-0.631261
0.0127845
-0.00825326
1.18365
0.0705099
-0.0227213
4.29415
0.873908
1.51187
0.36838
-2.63014
-0.370644
-0.433078
0.861725
-1.82565
-0.22529
-0.484765
0.292485
0.222242
-0.0718517
0.493044
-0.883846
0.523773
0.524321
2.27169
#synapses weights
-2.23618
0.783494
1.58936
4.53145
1.2136
-4.73228
2.83973
2.08935
15.1376
1.13959
-2.23664
1.84445
1.82147
1.09157
1.91045
0.00554414
-0.336989
0.0317961
2.38813
-12.8196
0.0673379
-0.330288
0.834007
-14.2249
-1.93315
-0.168405
0.638153
-2.4313
0.443394
1.00549
0.535742
-1.83759
-2.13535
-4.25283
-2.07192
0.0393632
-2.17236
1.22628
12.6097
-4.04088
6.34803
-2.36215
-0.278943
-11.6848
-1.66025
-2.1376
0.827561
2.21733
12.8106
-1.61827
-0.0283391
1.19165
-1.40954
6.30553
1.73931
1.52032
-0.247745
-0.967891
0.631996
-0.576289
-0.0116454
0.0221698
-0.0811702
5.66938
2.07662
-0.07019
0.276865
-0.741177
-1.85775
1.02196
-0.0155627
0.761439
-0.249322
16.0404
15.2808
-2.23928
2.21912
-0.443636
-0.399452
1.00044
0.0392274
-0.0462224
0.463535
-6.99856
3.24341
0.0407715
0.986028
-0.0786416
1.09971
-1.42267
-0.0331776
-0.00905388
-0.498724
-18.6462
-7.03587
2.05803
-1.29341
-1.39359
-11.0037
-0.391984
-0.183648
-0.936974
-1.08086
8.25036
-0.244584
-0.0649511
1.12787
-0.609767
48.5029
25.6147
2.77204
-0.194767
-1.14506
2.7742
-2.56525
-0.054519
0.157335
-0.784294
-7.04814
-2.71214
-0.0501882
0.550423
-0.489009
26.7675
22.2944
-0.197329
-1.31629
-0.0445159
0.200045
-0.186107
-0.349388
-0.769978
-0.639258
0.3855
-0.617276
-0.336587
-0.0896261
-0.801154
-0.307608
0.0307469
0.107715
-0.673866
-0.411753
-0.0174482
0.923542
-0.451887
-0.980128
0.493788
-0.598759
-0.521632
-1.60296
-1.35401
-0.879249
3.35059
-2.7668
-2.94682
-0.289397
-8.31066
0.194795
-0.108886
-1.14144
-0.45855
-0.0356261
1.04329
16.7492
-0.302115
-4.646
-1.16828
-6.06456
1.28815
-1.36924
16.5411
0.212078
0.92277
0.657505
1.60243
2.19617
-0.480518
-0.889981
1.60811
-1.27758
-0.406359
1.68051
-1.4436
1.17939
1.00103
0.829998
0.53799
0.19882
0.903698
0.137573
-0.153201
0.0755435
-0.238
-2.29465
0.0612845
3.8507
-1.21662
-0.378088
1.8654
-1.59865
-1.16484
0.491794
0.307912
-0.878176
0.803371
-0.0225462
-3.02885
1.61187
-1.50285
-2.20714
-0.622354
-1.83592
0.361214
-0.081534
-0.10507
-0.576802
-0.569238
-0.312386
4.34227
0.168157
-2.04222
1.24766
0.25842
-1.32518
0.0198623
0.388337
2.21384
-0.153884
-2.88336
-0.373139
0.222831
1.38558
0.565244
0.791629
-0.0888274
0.199187
1.91267
0.494843
0.905944
0.758855
0.385161
0.170352
-4.33922
1.44501
0.976445
-7.10917
1.25693
2.0461
-6.92227
-0.95372
-1.77845
0.75257
0.386677
-0.639045
0.868351
-0.276574
-2.51531
0.950727
-0.464948
-1.22011
-0.739266
-0.947182
-0.721306
-1.01435
-0.921661
0.198606
-0.435258
0.742456
2.38375
-0.549342
-3.20413
1.39128
-0.12682
-1.29251
-0.365256
-0.246365
0.81581
0.173917
1.18919
-0.225087
-0.183745
-1.10254
0.284139
0.146988
-0.225607
-0.140696
-4.57385
-0.397167
-2.67174
0.191941
2.22529
-0.346273
-1.21424
0.426066
0.288317
3.47303
-0.0869702
0.588691
4.04976
2.61862
3.06268
3.78133
6.02243
6.57816
7.14734
0.271546
-0.0116916
0.637925
0.0239866
3.27973
0.685838
1.93797
2.46673
-21.7827
4.2083
12.1342
1.57637
12.001
2.29892
8.81954
-74.5317
0.748213
1.21139
-2.3574
0.279174
-0.00346984
1.32431
-0.311503
0.313925
-0.071669
0.244895
-1.09068
-0.00473912
0.492123
0.523105
-0.393946
0.0933621
-1.34447
0.02062
1.17706
0.237871
-0.791392
-2.53931
1.05023
-0.215444
-3.57806
0.939059
0.0743597
-0.408311
1.50851
1.27777
1.52474
4.85576
-1.1393
0.576563
1.98217
0.212474
-0.199977
3.03673
1.6923
0.00501824
-2.29453
2.27448
4.17842
1.11526
-0.352274
1.22389
1.61443
0.203532
-0.673776
-0.13207
-0.909284
3.27969
-30.7654
-0.613065
0.118912
1.03722
9.2577
2.65975
-2.19394
2.67194
0.159982
1.1195
0.211847
1.53476
-0.848946
-3.47573
2.41873
-6.34092
-0.102427
4.10672
-1.34097
10.9032
1.67616
0.81228
-8.44423
-0.018468
4.99109
-12.2248
-1.38996
-0.967559
-2.37346
-4.62561
-10.3702
1.76834
-0.532711
-1.30671
-0.58534
-1.43854
-1.32382
-0.562566
-0.665208
-0.464996
15.4426
-2.60219
5.37851
-2.27995
-11.7838
-1.11572
-3.06573
12.4783
-1.01557
-2.43146
-31.7456
1.27973
1.97806
-0.772848
-0.455755
1.16092
-1.00821
0.196972
1.72108
-1.22233
0.436192
1.38924
1.1105
0.27432
-0.171882
0.46379
0.169988
-0.244536
-0.145175
0.0414486
-2.77085
0.178734
0.956324
-1.49156
0.454834
0.991672
0.0121931
0.0737562
-0.337104
-6.21878
1.09599
0.533957
-0.240212
-0.868503
-0.0306224
0.305158
0.417141
0.539434
-3.91533
-2.18623
-19.71
0.556033
6.28554
0.189648
6.77033
-0.922979
-1.51061
-1.4762
-0.11527
2.61739
3.55143
-1.64368
-1.40025
1.22839
-0.917771
0.111633
0.399902
0.26394
-0.957285
1.37865
-0.387957
-0.16296
-0.775978
-1.42714
1.0006
-2.74929
-0.382693
1.66694
-0.40493
2.02956
3.2498
-0.868113
-6.02117
1.24606
1.23617
-1.00528
-0.686526
-0.263884
-1.19172
-6.93732
-0.526288
1.50694
0.61948
-0.279421
-1.11804
-1.55821
-0.858124
0.526202
4.28524
-0.231103
9.26799
-1.2099
-1.67319
1.79174
-9.24542
-1.28916
0.895865
2.42315
-1.40911
-3.39299
24.9021
-1.28136
-1.48407
0.216833
0.254304
-0.795213
1.2014
-0.465806
-1.3406
0.865049
-0.285942
-1.24207
-0.621673
-0.978451
-0.10796
0.180211
-0.491017
-0.403936
-0.032064
0.0162734
2.14701
0.0665929
-1.74441
1.08404
0.0444007
-1.61587
1.79405
1.82526
-0.941051
5.64241
1.54753
-0.10085
0.373548
1.28679
-1.95328
0.95619
4.67734
1.54362
1.18644
9.41941
20.5474
1.08765
-6.23956
3.04934
-29.7293
-3.58442
2.38466
8.51586
-2.26861
-0.956488
2.39443
1.08728
2.036
-0.613025
0.0717415
1.20192
-1.95104
0.128415
2.79159
-0.992922
0.975456
1.32476
1.56766
0.795468
0.784038
-0.176019
0.850263
0.745004
-0.335381
0.874091
-3.20804
-0.0198823
3.07987
-2.32026
-0.0207584
3.08732
0.536729
-0.586495
0.619088
0.40062
0.654975
-0.333129
-0.94523
-0.614876
0.29486
0.818402
-0.728393
-0.214799
-4.76519
2.59496
-1.67313
-0.114314
0.914615
-0.46844
-3.69485
0.124509
0.654623
-0.0652193
0.00858222
1.49015
-5.27182
-0.848806
-0.695655
0.036618
-0.0927989
-0.154199
0.403966
-0.11121
-1.72992
0.54356
-0.759705
-1.5647
-0.568756
-1.11976
-0.269442
-0.370483
-0.734107
0.180304
-0.971739
-0.0569639
1.55732
-0.300839
-1.15278
0.76499
-0.222221
-0.768987
1.35981
2.22791
-1.41182
-0.737018
1.34956
-1.06856
0.0172637
2.69495
-1.19985
1.00094
1.3987
1.03011
0.949514
0.0723792
0.470764
0.942644
-0.089979
-0.302095
-0.321432
-2.51446
-0.325993
2.40673
-1.70997
-0.0217555
1.6852
-0.603006
-0.70761
-0.110633
0.161572
-0.397152
0.484096
0.292054
-1.0687
0.691248
-0.0828655
-1.22954
-0.162933
-0.934017
-0.337623
0.0224816
-0.842957
-0.326289
-0.104567
0.270661
0.358226
0.133345
-0.667929
0.176755
-0.459174
-1.22267
0.11763
0.183628
0.502933
0.625158
0.0952052
-0.634797
0.174035
0.757177
-0.360519
0.479685
-0.0672204
0.172589
0.131802
0.677898
0.651046
0.581856
0.729463
0.551316
0.262177
-0.0809751
0.157668
0.551928
-0.148863
0.104398
0.402434
0.720959
0.0870879
0.825804
2.76746
3.98609
0.361686
0.476495
0.79485
0.703066
1.05376
0.799154
-0.156884
-3.53993
-0.354002
1.02682
0.933546
4.57728
0.370407
1.44587
0.959214
0.735481
-0.508044
-0.313496
0.558087
-5.80125
0.495215
-0.952533
4.29094
-6.97724
-7.92876
-4.78214
-13.4655
-3.05413
6.04366
-1.89495
-15.2955
-5.29253
0.341987
14.1364
-4.42974
-10.158
-0.669099
10.7986
5.85859
11.5329
-3.45043
3.22643
-0.805951
0.34043
-4.9734
