#input normalization
1 0
1 0
1 0
1 0
1 0
#output normalization
4.53253 148.481
#neurons weights
0.4297
0.233996
-0.159113
-0.308989
-0.36211
-7.78372
0.63953
-1.75997
2.01148
-2.67032
-18.4005
14.0835
-0.451695
2.28507
17.6742
-6.49152
-0.949338
-0.348725
-8.13549
1.18193
-4.94677
-0.996072
29.9026
-1.38373
-1.04414
-3.10358
0.341023
-27.3241
-21.8231
-0.506032
-2.04598
1.96327
1.63926
0.218932
1.8959
0.831384
-0.839628
0.928883
-0.294209
-6.29755e-05
0.121112
-0.198624
-0.841717
-0.714907
-0.916406
-0.299068
-0.811635
1.2106
-0.546398
0.904789
-0.0880466
0.600633
-1.05077
0.256846
-0.467894
-1.46068
#synapses weights
-0.0522571
0.695126
-0.49136
14.7666
-1.15726
-3.12513
0.265756
0.544272
6.01944
1.15366
0.00656478
-0.832532
0.121393
9.14443
-2.36484
-0.0512208
0.281834
-0.800884
-6.55832
0.966138
2.55586
-1.26931
-3.72289
4.4871
-1.89307
-0.03345
0.816046
-0.328036
16.4938
8.77209
0.00306278
0.0861095
0.0278961
-10.8401
-7.68839
1.7178
-0.215908
-0.783747
-0.480982
0.284253
-2.60207
1.72159
-0.789083
0.868593
1.1591
0.0631674
0.000367477
0.612139
-16.3083
-4.54152
-0.0217772
0.448927
-0.293823
10.8782
1.50315
-1.89946
1.11658
2.53463
7.68922
-0.284245
2.34335
-2.87679
-2.64684
0.527677
-0.800747
-0.0160923
0.0389603
-0.169787
10.6093
0.603367
-1.09662
2.63375
2.36685
0.820581
2.30809
-0.051321
0.788678
-0.582278
10.0569
1.34907
2.50239
-1.70565
-2.89907
-1.28026
-1.41699
0.0250002
-0.351453
0.20775
-29.6588
-14.8049
2.9468
-1.68454
1.71143
-2.62026
-1.04619
3.72449
-2.06502
-5.22229
1.22332
-1.12855
-0.0770326
-0.643256
-1.04794
7.35137
-3.74583
-1.58521
1.05085
0.437571
6.39815
0.131724
0.0141761
0.554101
0.118355
14.6582
17.5939
0.0187373
-0.0258303
0.261359
15.0918
15.0866
1.24284
-2.40634
-2.48216
-3.12833
-0.252033
-0.0479179
-0.950491
0.606491
-0.417233
0.906172
-0.548513
-0.609523
-0.332716
-2.28778
-1.79916
2.71724
-1.65021
0.011425
6.27628
-0.201382
-1.20609
-0.165851
-9.66519
0.073496
-0.1157
0.997345
-0.246614
3.65736
-0.53821
-0.704502
-2.42325
0.832856
-4.80692
0.525868
-1.59349
-3.46764
2.31518
0.102051
3.08483
0.478136
-2.85023
1.15965
-0.718013
-4.90729
1.63712
0.425843
1.21214
12.3516
-0.656407
-0.100325
-1.29107
0.186365
-3.43989
0.153609
0.631529
1.74162
0.732327
0.862793
0.766638
2.05665
2.4856
0.884956
0.913687
-0.128823
0.508289
1.44946
2.78259
0.342564
1.33738
1.20227
1.65049
0.326196
0.609558
1.58865
0.531043
1.83543
1.37308
2.05453
1.16307
1.05893
0.282259
0.798116
0.154731
-0.532762
0.959815
0.624317
0.0815516
-0.0921643
-0.0986391
-0.357393
-0.0345086
1.25718
0.505553
0.976186
0.690516
0.52291
-0.53232
-0.251594
0.316833
-0.688949
0.116328
1.26892
1.30219
0.495443
-1.06397
0.348357
1.14349
0.630627
-0.213069
0.271868
1.33753
-0.00501876
0.0671549
2.02158
1.03618
-0.0565399
2.35357
0.329209
0.722715
-0.51727
0.702164
-0.190719
1.52211
0.161172
0.104135
-1.00501
1.73642
1.18566
0.705889
-0.00983689
0.729755
1.05233
0.548574
0.126652
1.98332
1.02305
0.0781498
0.0980011
-1.74645
-0.162135
0.557605
1.16283
0.940626
1.71405
0.0757444
0.0892548
-1.46624
-0.807139
1.03423
-0.53452
0.357577
2.238
2.33649
2.12771
-1.98237
-0.303419
-0.834044
-0.622358
0.0554958
-1.5547
-2.27014
0.577108
-0.763712
0.97352
0.179894
-0.047912
-1.6728
-0.655047
-1.31137
-0.423323
-1.08648
1.05354
0.9524
-0.662946
0.229817
-0.0861541
-1.41578
-2.45792
-1.24756
0.65158
-3.94438
1.2367
4.88011
-2.62809
0.711396
16.6242
2.72092
0.451812
0.136358
-2.91537
-0.951959
0.799395
0.800707
-2.30494
1.11738
-3.38041
-0.218985
-6.97429
-0.0388103
0.517794
2.81893
1.00756
12.966
-3.20861
0.26293
0.273326
1.33701
0.894224
-0.712733
2.42384
1.00872
0.149305
0.383196
-1.15328
-0.03562
0.60702
1.97353
0.804749
1.6617
-0.0279544
0.0730355
-1.62531
-0.747833
0.936885
-0.279448
0.0461879
2.62363
2.46073
1.41023
-1.34388
-0.00907601
-1.25498
-0.723459
1.23489
-1.07917
-2.02703
0.536475
0.266364
1.0258
0.101545
-0.183706
-2.08023
-0.19411
-1.35813
-1.47162
-0.55208
0.585475
0.416293
-0.10992
0.882354
0.887738
-3.03881
-2.25287
-1.79895
2.38493
-8.00187
-0.75492
1.44475
1.25843
-2.46812
-20.3151
10.974
-1.70414
1.92335
8.68296
-10.8759
-2.47468
-0.809986
-10.0342
-0.639886
-11.6059
1.86346
42.2225
-0.774532
0.748098
-0.755694
-2.88919
-21.5731
-22.914
2.36601
-1.43765
1.57004
-0.247274
-1.91529
0.535365
3.24913
-7.22499
-0.568619
-1.64989
-6.30306
-1.36936
1.47166
1.48828
3.17774
-2.15603
-2.94017
-0.872294
15.8158
0.928221
-0.646909
2.1374
0.930034
13.3944
-4.39873
-0.904021
1.5166
-0.133397
4.50478
-0.74527
1.54169
7.63883
-6.45367
-0.0491103
-2.0361
-5.83691
-4.01225
0.717531
1.0164
13.5678
-1.32944
0.353071
-1.3648
8.65694
0.507046
-0.542882
0.310319
0.919644
4.5317
1.27554
-1.83543
0.429699
-1.78143
-0.943657
0.28276
-1.70141
-2.45082
0.00991972
-0.475207
0.669802
0.573194
-0.52937
-1.78548
-0.544484
-1.34642
-0.702015
-1.23098
0.8975
1.79859
-0.915239
0.83558
-0.157275
-1.74646
-2.89387
-1.71543
1.81992
-2.59385
-1.26793
0.242238
0.729814
-2.23793
-2.47544
0.385706
-0.93051
1.22463
0.325177
-3.02199
-1.6652
-1.02298
-1.56463
-0.195468
-1.5067
0.601287
0.86584
-1.92057
0.0137491
-0.80635
-1.45526
-2.8469
-3.28675
0.857375
3.34374
1.30705
0.686538
0.850911
2.08784
3.21398
-2.5305
1.37146
-2.21287
-1.17569
7.85079
0.986024
0.976667
2.91328
-0.309356
4.74467
-1.50021
-6.88711
0.882278
-1.17266
1.82232
1.69975
3.59237
10.8877
-1.29159
-0.811995
-0.576494
0.116054
-0.241759
-0.859777
-1.39039
-0.477672
-0.337585
0.28877
0.0144321
-0.0598137
-1.47119
-0.457232
-1.30721
-0.38373
-1.42766
0.537901
0.304661
-0.865841
-0.241957
-0.750133
-1.27935
-1.70263
-1.3085
-0.114757
7.83719
-0.414515
3.38874
0.73512
-0.630107
-5.39077
3.13239
0.20326
1.45106
7.12
-3.659
0.218941
-1.05504
-4.89541
0.511369
1.01707
0.806331
-0.971706
0.059542
-0.151502
0.640582
-0.278288
-5.11811
-7.81513
0.919519
-0.239693
-0.914348
-0.927952
0.442213
-0.114846
-1.47928
-0.392161
-0.143481
-0.21828
0.680788
-0.131819
-0.692733
-0.00733754
-0.437539
-0.760281
-0.558709
0.27225
-0.013163
-0.0215991
-0.129873
-0.677263
-0.853506
-1.46667
-0.797174
0.466397
-0.592658
0.798439
0.763465
-0.984727
1.88783
1.99217
-0.712433
-0.222698
-1.04088
-0.851164
0.315604
2.23599
1.20279
2.48577
0.926109
0.910953
-1.58764
-0.448498
-0.125639
-0.678715
0.208581
3.52123
2.81675
1.50463
-1.77359
-1.71226
-1.39567
-0.491278
0.286384
-2.37994
-2.08073
-0.361451
-0.467333
2.1258
0.782927
-2.34428
-1.75183
-0.783196
-1.84364
-0.485913
-1.7444
1.22958
0.758668
-0.870077
0.952307
-1.29552
-1.47307
-2.3672
-2.49722
1.43503
5.29315
0.371748
1.53073
1.26665
-1.64564
0.977389
8.18327
1.01899
2.48946
12.2234
2.90528
-0.769387
-0.432311
0.554686
3.07045
0.438557
0.866535
0.89518
-0.683763
0.57119
-2.40128
-0.683457
-21.9164
-10.2538
0.970089
-1.49571
-1.14943
-0.498113
0.0935163
-1.81741
-2.04477
0.395675
-1.39739
0.878113
-0.301002
-0.874024
-1.69927
-1.06575
-0.944029
-0.586877
-1.4403
0.432522
0.620046
-1.28035
-0.0988206
-1.22907
-0.876757
-2.25153
-1.46499
0.465244
-6.49186
1.80589
-3.99263
-0.914009
2.01819
-0.587152
-1.07414
-0.277205
-1.12119
-18.5382
-2.03079
2.71286
1.19651
7.45421
-1.66247
1.69078
-1.30874
-0.983394
0.351858
-0.338172
-3.13469
3.13651
11.6045
12.7907
-2.82188
-0.308556
-1.05073
-1.19023
-0.0600222
-0.652882
-1.73497
0.27617
-0.31509
0.483815
1.13647
0.174386
-0.816742
-0.513746
-1.14927
-0.812754
-0.417359
0.548165
-0.215615
0.178995
-0.299089
-0.472894
-0.963996
-1.5299
-1.07754
1.146
9.89517
9.34729
-10.3596
1.15331
-3.32509
-0.639819
-1.23304
-3.23839
1.85727
-7.60602
-2.84917
-12.3182
10.9493
-2.23932
4.19523
-6.98002
1.78547
14.5858
-2.31689
6.15224
2.50934
-8.25418
5.42273
10.6262
-4.08746
