#input normalization
1 0
1 0
1 0
1 0
1 0
#output normalization
4.53253 148.481
#neurons weights
0.0175547
0.0638132
-0.432934
0.0183508
-0.0930302
-0.215744
12.8645
5.09023
1.84878
-15.3701
0.324534
0.902661
0.8952
-21.9813
0.478877
0.804508
1.25303
-0.761287
-1.34235
-0.7606
-1.33792
-1.55218
-2.69419
-1.39761
1.05652
-2.38173
1.78711
6.7953
5.54251
0.425104
0.756675
1.45527
0.515394
0.465478
-0.467921
0.268743
-0.282478
-0.181592
-1.64521
0.118513
0.134968
-0.252549
-0.196404
-1.07647
0.330897
0.0414278
-0.0504583
1.02126
-0.0884571
0.842303
0.176143
0.455494
0.730236
1.01828
0.209118
-0.165826
#synapses weights
4.35786
-0.814888
-7.16218
0.965195
-0.537335
-0.00101752
0.0811852
-0.0766635
-13.4818
-6.42455
0.0286814
-0.222994
0.34213
-5.5102
-1.99211
0.107408
0.631347
0.429873
-6.92101
0.520564
0.0060403
0.290743
0.0773441
8.83096
9.90876
-1.65308
0.534777
-0.244557
4.40874
0.937683
-0.141698
1.67735
-0.455667
-11.8656
1.01451
-3.22755
-0.62162
0.667602
5.07522
0.230992
-0.0162388
0.588803
-0.204818
20.9259
11.0607
-1.27055
1.18572
2.62683
0.369522
-0.379344
-2.36018
1.9103
5.49355
-1.38152
0.817425
-1.10014
0.198068
0.465327
2.86686
0.925553
5.15894
-0.594849
-8.02014
1.05434
-1.04084
3.41168
-0.857698
-4.61258
1.20245
-1.11428
0.958417
-0.620966
-0.0112536
-4.11843
-1.08661
-1.15886
0.972166
0.758403
10.6836
-0.732744
2.13617
-1.19273
-0.817764
-0.389516
-1.10393
-0.0103233
0.413258
-0.295252
5.56167
0.910118
5.25761
1.31203
-0.453444
-11.2927
-1.20405
-2.13991
0.699327
0.384938
1.51937
0.654962
0.638766
0.446953
-0.684004
-0.839074
-1.51638
-1.54042
1.75312
1.92315
-1.99881
1.36797
0.00389257
-0.317106
0.109377
-7.57377
-1.4267
0.0125432
0.321945
0.0102851
-6.18456
-0.900291
-1.72723
0.613802
1.78099
0.663544
0.404664
-0.34912
-0.209102
-0.253487
-1.00338
0.552401
0.418833
-0.481262
0.412975
1.34718
0.498519
0.163085
0.395175
-0.0540448
0.322638
0.188045
2.13335
-0.00480083
0.187132
-1.08679
-0.43297
0.0516045
0.240809
-0.164966
0.116637
0.703106
0.0168442
0.931704
2.34999
1.26913
0.30012
0.177905
0.600839
1.00848
0.919567
0.710765
0.312375
0.663578
-0.186694
0.396171
-1.15831
-1.09552
0.192755
-1.10378
1.77921
0.768424
-0.0558581
-0.41513
1.7096
-0.390737
0.20394
-0.526786
9.01431
4.54365
1.62758
-9.57348
-0.555126
0.610408
0.578265
-6.55896
0.671847
1.28945
0.32609
0.630474
0.37589
2.17423
-0.128703
-0.327072
-1.65987
0.536921
0.36126
-0.804757
0.619215
5.55477
5.11736
-0.0460542
1.35478
15.2816
4.37306
3.35398
-16.4335
-0.711518
1.60209
0.56313
-26.6053
-0.402759
1.36103
0.182537
0.40002
-0.63805
1.21185
-4.07412
-0.822939
-5.16586
3.21005
1.0817
1.20551
0.0840891
5.67864
5.24844
-0.266298
-0.396566
-0.055223
-0.702207
-0.189155
-0.212641
-1.03486
0.701846
-1.38331
-0.60109
-0.258872
-0.20445
-1.15321
-0.135763
-0.0616329
-0.366922
-0.880042
-0.666822
0.129215
-0.136184
0.680163
0.15908
0.244327
-0.193722
-0.587402
-0.491764
-0.453951
-0.565766
-0.52414
-2.29095
1.31528
1.14599
-1.36478
-0.264185
1.25879
0.0570943
0.484208
-0.52582
-0.133601
0.210651
-0.924054
3.12889
-0.0907818
1.39618
-2.73568
0.625157
-0.840443
1.06384
0.105187
0.0230423
1.18936
-0.279359
-5.54459
-3.47437
-2.21514
0.632553
0.821749
-2.41453
-0.358351
2.37443
0.644174
-1.80256
-0.844284
-1.20795
0.700411
0.894916
2.5208
0.762078
-0.831396
-3.31688
-2.10677
0.00253182
0.167749
-6.53079
-3.54354
0.652383
-0.475482
-0.057029
0.315719
0.645257
-0.437185
-1.19159
0.631379
-1.16094
-1.67286
-0.513417
-0.0342444
-0.77023
-0.025897
-0.213453
-0.326441
-1.80603
-0.109267
-0.532011
0.34229
0.463182
-0.529781
0.0224706
0.182666
0.555815
-0.547924
-0.153134
0.5497
-0.720767
-0.964094
-0.676991
-1.62744
0.703732
-1.67109
-0.812596
-1.61743
-0.0652521
-1.37287
0.746827
-1.36384
-1.12496
-1.06511
-1.61303
0.455746
-0.109283
0.942831
-0.370542
0.706873
0.641241
-0.345155
-0.790943
-0.164931
1.47748
0.515045
1.43726
1.85567
-0.579972
1.51291
-0.61851
-0.434128
-0.0305433
0.454242
-0.740337
0.454547
-0.868111
0.0821833
-1.81417
-0.453071
0.351735
1.03758
0.648278
0.24901
0.474119
0.0702788
-0.385677
0.377852
-0.205241
-1.19476
-0.0199104
1.11318
-5.3579
-0.39561
1.23802
0.716403
2.8836
-0.320766
-0.951391
0.0355174
-0.560156
0.428634
-0.794864
-1.29152
0.239869
-4.60799
0.71207
0.630027
-0.252041
-0.752352
5.59146
5.09354
0.21128
0.4523
0.0774728
0.302259
1.04717
-0.896724
-1.174
1.14968
0.136472
-1.05088
-0.787268
0.321189
-0.469732
0.370038
0.0115793
-0.267054
-2.11147
-0.238761
-0.735516
1.63395
0.075164
0.409779
-0.223306
0.0631573
0.270356
-0.805845
-0.0494192
-1.22711
-0.498762
-0.800556
0.290811
0.0178752
-0.533309
-0.289068
0.501875
-0.259843
-0.404749
-0.509792
-0.438724
0.195901
-0.275315
-0.458916
0.0867572
-0.450291
-0.949217
-0.239711
-0.490983
-0.39201
-0.985924
-0.79338
0.288221
-0.509494
-0.0217371
-0.40709
-0.373662
-0.120622
-0.772453
0.319699
-0.547588
-0.552896
-0.747741
0.377275
-0.844292
-0.268679
-0.929641
-0.592457
-0.356948
-0.285088
0.0157819
-0.472777
0.616899
-0.722847
0.637376
-0.266901
-0.753583
-0.546227
0.197201
-0.850216
-0.00543237
0.116397
-2.5391
-1.00253
0.937666
-0.838022
4.6894
-0.547701
0.88779
-0.35463
0.636377
-0.753641
-3.50081
-1.07984
-0.978361
0.724224
1.17926
1.63689
-0.0254302
0.877238
0.908075
-0.749881
-0.265658
-0.537345
-3.8636
-0.272771
-1.64988
2.52028
0.560223
-1.75416
-0.068719
2.4266
0.636507
-0.760236
0.121981
-0.784947
0.220078
-0.488614
1.08804
0.268067
-1.57474
-1.99983
-1.26909
-0.500435
-0.592315
-2.25713
-1.84501
0.588066
-0.0222376
0.629387
-0.700323
-0.00116842
-0.76807
-1.11158
0.889567
-0.671956
-1.07526
-0.729903
0.184719
-0.532149
0.193213
-0.709438
-0.106086
-1.76248
-0.962722
0.465723
0.213878
0.421973
0.131766
-0.105364
0.439322
-0.512928
-0.719477
-0.321213
-0.942974
-0.369369
-1.19012
1.21467
1.38012
-1.23875
0.616249
1.43174
0.825274
-0.347996
0.528824
-0.656164
0.886808
0.345544
2.33045
1.26675
0.474261
-1.79142
-0.20544
-0.207434
0.0615928
-0.601867
-0.119637
0.862944
-0.00806435
-8.92844
-3.08709
-2.19058
8.85409
1.48551
-1.78159
0.475538
14.7514
0.508441
-0.476515
0.655625
-0.433108
-0.0725854
-0.425863
1.17168
1.02927
1.27612
-0.326471
-0.762624
0.747865
-0.978855
-4.75402
-0.938544
0.773667
0.520396
0.994432
0.447584
0.610723
0.706625
-0.0590093
0.454507
0.0206243
-0.837671
0.670614
1.13903
-0.475867
-0.23772
-0.340031
0.496731
0.104847
-0.733086
0.473663
0.355034
0.657258
-0.44684
0.789002
0.783358
0.417914
1.02656
-0.0905107
-0.468498
0.29314
-0.96069
0.368659
0.72327
-0.943027
1.15268
1.57594
0.84785
-0.707783
0.419733
-0.504207
0.437443
0.275073
2.49916
0.457201
0.371516
-2.01349
-0.817496
-0.456801
0.105628
-0.600327
-0.0653062
0.803107
-0.166047
0.569485
0.338817
-1.06919
0.64907
0.385905
-1.04233
0.109112
1.2003
0.462303
-0.171924
0.230242
-0.593559
0.00510339
-0.0508832
1.85666
-0.190199
0.178823
-1.30606
0.0876303
-0.000290689
0.720249
-0.591738
0.333862
0.693964
-0.459139
-0.0996791
0.170568
-0.827819
0.741129
0.564929
-0.819828
0.1981
0.982412
0.876629
0.136844
0.634565
0.0136697
0.682898
0.242562
1.27462
0.717509
-0.0965489
-0.369893
-0.613135
0.0316396
-0.37695
0.324392
0.501996
0.347078
0.412871
2.95591
0.697655
1.16001
-0.020601
0.223384
1.18262
0.819202
-1.40609
0.310344
1.22525
0.536414
-0.0881392
-0.541817
0.824237
-0.380852
-0.272539
-0.237738
1.74345
1.145
0.0927281
1.12902
1.56664
0.673907
0.389365
-0.571932
-1.51763
0.296485
-0.926885
1.11426
1.65757
-1.36902
1.24119
1.5016
0.922159
-0.8312
1.11293
-0.474079
1.23423
1.13511
2.72532
1.04181
0.227846
-1.87746
-0.837349
0.150455
-0.0992425
-1.2047
-0.398745
0.654915
1.73851
-2.76996
5.09006
-8.70794
1.64949
5.56605
5.21523
-2.0628
4.93597
-2.1278
-8.02537
-1.77313
-0.609581
1.48274
4.11739
-2.19164
0.56302
3.01323
-9.78905
-1.13753
1.13103
2.57206
0.035239
-2.27334
1.27089
