#input normalization
1 0
1 0
1 0
1 0
1 0
#output normalization
8.36458 120.208
#neurons weights
-0.0867545
0.288127
-0.178735
0.060506
0.133927
0.757553
-6.07966
-0.869491
-0.611037
0.642384
5.13716
-0.0512613
0.1267
0.0721617
3.54961
1.19819
0.135678
-0.0873635
-0.116841
-0.170874
-3.28058
0.528416
-0.209586
-0.969497
1.2198
0.521582
2.21739
0.755288
-1.3153
0.732202
-0.73323
-0.0371835
-0.391412
0.491395
-0.400752
-0.138162
-0.706822
0.594138
0.252964
0.0915204
0.0951263
0.24755
-0.125213
0.181989
-0.266304
-0.0522444
0.0575802
0.50984
0.464967
-0.0610869
-0.837793
-0.200762
-0.264157
0.203048
0.690139
-0.243271
#synapses weights
-1.41011
0.824379
0.489884
-0.41233
0.577703
-0.00605587
-0.31747
-0.103311
-6.27709
1.74665
0.154639
-0.150025
0.0928163
1.0993
0.499743
1.0235
-0.285434
-0.837565
-0.824954
-0.697301
-0.774398
0.684365
0.293438
1.45333
0.857989
-0.0361923
0.308919
0.0510231
-5.45173
-1.55819
1.64691
-0.984469
-0.589334
-0.569831
-0.243176
-1.39528
0.57936
0.525751
0.913242
-0.277793
-0.734546
0.477684
0.497836
0.688983
0.0234451
0.0121528
0.0786988
0.0387834
4.11438
-1.6144
-0.724104
0.36709
0.431772
0.430728
0.177013
-1.85406
0.947021
0.602306
0.906127
0.782816
1.36266
-0.207848
-0.578423
0.579352
0.399547
-1.41586
0.566845
1.64374
0.0947353
-0.355417
0.000957714
-0.920547
0.0497077
0.354199
0.222916
0.019438
-0.091468
-0.0222245
4.0775
1.55661
-0.902827
0.395311
0.37596
0.431967
0.53863
0.212925
-0.0274024
0.10685
-0.212315
1.72994
0.129791
0.0836268
0.138535
-0.20677
0.3544
0.501739
-0.00703809
-0.0603038
-0.217153
0.856294
-2.63816
1.01665
2.53031
6.34631
0.736017
-0.000924111
-0.482964
0.0336746
-0.0179449
-0.546164
-2.25941
0.955421
1.16492
3.44147
0.215613
1.94567
-2.23444
-0.547468
0.330165
-0.840266
-0.776634
0.246696
0.00346169
-1.85782
0.0963955
-0.544813
0.361734
-0.020887
-0.583021
-0.545375
-0.698581
-0.281908
-0.286516
0.48078
-0.565134
-0.677684
-0.488245
-0.79432
-0.178258
-0.536229
0.0954209
-0.330847
-0.397501
-0.74886
-0.361746
-0.0996723
0.0617267
0.0367193
0.118496
0.204897
0.0542211
1.76689
-0.230551
-0.585293
-0.214221
-0.336577
-0.038839
0.0805771
0.549548
-0.238404
-0.55398
-0.25287
0.250292
-0.211813
-0.118809
-0.419722
-0.098374
1.23234
0.0765237
-0.163412
0.311943
0.178753
-0.243215
-0.687873
0.361869
0.293488
0.475174
0.129663
0.164635
0.110014
0.491275
0.285173
-0.430858
0.000784581
0.949202
0.150599
-0.342998
0.527498
-0.521407
-0.0504024
-0.610146
0.0289627
-0.0229642
0.365792
0.292012
0.0739014
0.339019
-0.101627
-0.161257
0.626504
0.495034
0.551711
-0.376415
0.544214
0.700241
0.290096
0.21147
-0.159045
-0.532844
-1.22923
0.470902
0.33739
0.687964
0.271067
0.0670578
1.25137
0.286983
-1.24247
-0.583806
0.991239
-0.0997381
0.52948
-0.591289
-0.435617
0.0499303
-0.529799
-0.609193
0.329263
-0.428169
-0.320347
0.674285
-0.624498
-0.369823
0.491994
0.92274
-0.147504
-0.357281
-0.474547
0.343718
-0.107278
-0.606706
-0.305479
0.545194
0.272121
-1.03958
-0.0512523
-0.172212
-0.677113
0.100766
-0.226721
-0.170874
-0.467238
0.106473
0.405658
-0.207629
0.569667
0.196176
-0.598095
0.186459
0.647333
0.544798
-0.0587403
0.277537
0.314938
0.463779
-0.349325
0.325259
0.429026
-0.127171
0.250851
-0.348113
0.0275426
-0.216164
0.17029
0.103884
-0.139819
-0.942324
0.77449
-0.397873
-0.277615
-0.0506232
-0.457512
0.246666
-0.370269
1.0814
0.109489
0.136317
-0.0768973
-0.0646055
-0.0476516
-1.12423
-0.081968
1.04761
0.482727
-0.145384
-0.520211
-0.467187
-0.102014
0.328208
-0.606071
0.281301
2.795
-0.442547
-0.265118
-0.356675
-3.25125
0.761122
0.999343
0.607711
-2.34642
-0.156357
-0.418589
0.0356482
-0.248271
0.242005
2.41371
0.025793
-0.114645
1.36088
-0.482813
-0.347797
-2.0411
1.19873
-0.153142
-0.233181
0.248886
0.164353
-0.622867
-0.0330591
-0.00348711
-0.645994
0.495553
-0.512966
-0.111237
-1.11046
0.296099
0.560605
-0.0656414
-0.114363
-0.969328
1.75474
-0.0272689
-0.506186
0.846486
-0.220623
-0.24475
-0.889605
-0.0199267
0.343297
-0.191242
0.146617
1.16856
-0.388445
-0.709729
0.27091
-0.281041
-0.486069
-0.0351592
-0.148413
-0.211252
0.0159336
-0.536142
-0.298648
-0.168438
0.0317008
-0.0553745
-0.4158
-0.221738
-0.361927
-0.407179
0.55008
-0.610836
-0.284502
-0.373743
0.0143761
-0.0355405
-1.28912
0.110896
0.442092
0.489525
0.33331
-0.542398
-0.232491
0.0639854
0.867662
0.328841
0.851858
0.312844
-0.0438449
0.468053
-0.917886
0.0959037
-0.295414
-0.447919
0.28496
-0.0253295
0.0178632
0.182271
-0.114877
-0.0504502
-0.181982
0.160664
0.000733651
-0.268977
0.491511
-0.173931
0.304418
-0.0862704
0.408678
-0.182906
0.212224
0.483509
-0.37343
0.358973
-0.387252
-0.048128
-0.0876061
0.208494
0.0551755
0.671249
-0.371685
0.498429
-0.0324924
0.0259624
0.335612
0.186892
0.0482619
0.148479
0.516714
-0.376569
-0.403317
0.223754
0.0659275
0.0296709
-0.980366
0.0753812
-0.202396
-0.232002
0.282052
-0.348686
0.473832
0.126577
-0.353456
0.257612
0.055768
-0.727577
0.259794
0.138063
-0.121846
-0.387624
0.128124
-0.393262
-0.116458
0.0802006
0.481455
0.0595428
0.114529
0.3812
0.0805489
1.01444
0.308825
0.686845
0.274059
-0.423127
0.0269549
-0.189126
0.219256
0.285821
-0.599666
-0.407323
0.464329
-0.0665241
-0.323529
0.323422
-0.50072
-0.466835
0.427945
-0.371023
-0.254199
-0.597773
-0.500615
-0.198656
-0.624822
-0.51959
-0.0995224
-0.0809483
-0.555367
-0.654329
0.178055
0.323495
0.257875
-0.762145
0.0897716
-1.00001
-0.102925
-0.052447
0.181349
-0.00268431
0.262979
-0.259544
-0.135073
0.767977
-0.803197
-0.360004
-0.144817
-1.236
-0.0731408
0.511355
0.109712
-1.01727
-0.104038
-0.600993
-0.635339
0.102537
0.00312578
0.501812
-0.598264
0.0121529
-0.5701
-0.308572
-0.00403588
-0.797911
-0.136342
-0.440064
0.854027
0.69402
-0.0678853
0.455166
0.671864
0.650331
0.477403
-0.201265
0.091922
0.47373
0.48795
0.348037
0.855447
0.562678
-0.268745
0.442358
-0.186051
0.240362
-0.135574
0.596233
0.386072
-0.0199399
0.673439
0.411228
0.0310489
0.193731
-0.0640525
1.2365
-0.0736383
-0.227238
-0.320316
-0.382865
0.563153
0.539386
-0.0683167
-0.496537
0.282147
-0.662036
0.148874
-0.170532
0.42147
1.18049
-0.202086
-0.834581
-0.177042
0.194269
0.877525
-0.0964806
0.582725
0.0407116
0.667184
0.13288
-0.216699
-0.458611
0.467259
-0.434399
-0.24251
0.0529036
0.101489
-0.442092
-0.399758
0.411668
0.378118
0.230672
0.232996
0.363008
0.12144
0.464983
0.275238
0.273778
-0.0425448
0.194174
0.418405
-0.345777
0.450988
0.193383
-0.233751
-0.417966
-0.15404
-0.263487
-0.461775
0.0323918
-0.557665
-0.240644
0.0129493
0.66839
-0.271311
-0.236726
0.336644
0.393479
-0.0802153
-0.841591
-0.00953179
-0.206214
-0.273653
-0.295717
-0.306337
-0.515801
-0.398365
0.208602
-0.340175
-0.41478
-1.54728
0.463954
0.00276491
0.544454
1.43531
-0.981239
0.132575
0.276744
1.97838
-0.0533358
0.0446581
-0.212346
0.471743
0.311977
-1.71329
0.18174
0.108308
-0.778119
-0.215895
0.153316
0.885885
-0.492112
-0.205907
-0.679781
0.134987
-0.956246
0.3023
0.702102
0.304494
1.41983
0.0911272
-0.436594
-0.446813
1.46598
0.17623
0.480978
-0.186985
0.278105
0.547394
-0.54376
0.127072
0.16213
-0.053916
-0.30039
-0.29605
0.576787
-0.443914
0.414421
-0.397024
-0.0578206
0.351157
-0.569872
0.131542
-0.144207
-0.839601
-0.109433
0.331383
-0.0289666
-1.576
-0.050966
-0.268352
0.345848
0.346723
-0.291772
1.34453
-0.0788654
0.157396
0.174099
0.164349
-0.0345729
-0.37352
0.394109
-0.522818
-0.00307814
0.0300123
0.499023
0.179153
0.143621
-0.572202
0.29384
-0.0739412
-0.151428
-0.427786
0.55666
-0.108575
0.349897
0.390135
-0.144702
0.0387108
-0.0437324
0.225539
0.664736
0.0596047
-0.166509
-0.184039
-0.158949
0.0193696
-0.462661
0.332682
0.539444
0.79734
-0.26884
0.24676
0.0714825
-0.3826
0.18392
-0.207281
-0.302931
-0.318105
0.755244
0.186293
0.414544
0.752374
0.509773
0.384307
0.321092
-0.182034
0.666831
0.344972
0.309628
0.100856
0.30608
-0.215599
0.393001
-2.1124
-1.64758
-1.00269
3.21934
-1.26001
-0.435595
-2.15012
4.68576
3.26899
-0.307133
-0.967877
0.684348
1.54682
-0.79018
-0.978466
0.178971
1.01054
1.06174
0.179221
-0.4646
-2.39851
-0.694418
1.93364
-0.845661
2.17806
