#input normalization
1 0
1 0
1 0
1 0
1 0
#output normalization
8.36458 120.208
#neurons weights
-0.289047
0.438225
0.348042
0.451938
-0.0902048
-0.241643
-0.402892
-0.233071
-0.0880611
0.165847
-0.74935
-4.5082
0.637834
0.688116
-3.70076
-0.10673
4.3601
-0.145661
-0.203215
-0.683764
0.0389555
-0.34407
-0.32982
0.206278
0.306866
1.00686
-1.46723
-0.109752
-0.277452
0.142071
0.107335
0.149499
0.265583
-0.0901674
0.310049
0.246854
0.549959
0.24688
-0.367819
-0.348174
0.0308892
0.193781
-0.123515
0.0386333
-0.119559
-0.169206
-0.300323
-0.118855
-0.398172
-0.103643
0.206409
-0.54093
0.170839
-0.00585689
0.128104
-0.209902
#synapses weights
0.250655
-0.0512155
-0.253651
-1.46638
0.118917
0.626101
-0.272062
0.0463059
-0.543154
0.386482
-0.00624175
0.725341
-0.0759807
-0.0621707
-0.0995296
0.0905942
0.0460967
0.0341656
-2.04202
0.497107
0.0134084
-0.0536267
0.0127623
-3.42403
-1.06041
0.718873
-0.672235
-0.621041
-0.0357111
-0.64521
0.00523555
-0.0723475
-0.0240617
3.39372
1.15455
0.481908
0.0428284
-0.00341106
-0.48479
1.03275
-1.00161
1.24543
1.16509
0.00407644
0.412285
-0.0490675
-0.0209957
-0.0095025
-2.87699
1.35068
2.21577
-1.17473
-1.42725
-0.45553
-0.78685
-0.0739203
0.165152
0.0216587
4.28131
-0.588183
0.288256
-0.597871
-0.291173
-1.2013
0.00552213
-0.207745
0.0748721
-0.14182
0.0813728
-0.583647
0.142008
0.0412324
0.0608833
-0.898078
-0.588802
0.333508
-0.235977
0.047423
0.140216
-0.404646
1.54287
-0.799955
-0.54091
-0.748059
0.420799
0.1753
0.348371
-0.117442
0.265374
0.347942
-0.518836
0.0305072
0.104422
-0.873663
-0.172358
-0.99999
0.374765
0.9865
0.722524
0.156384
-0.0821918
-0.480653
0.0578294
-0.217092
-0.764715
0.78596
-1.28445
-0.671541
0.148858
-0.957859
0.192679
-0.285135
-0.174552
-0.0197398
-0.470698
-1.11787
-0.02315
0.0566513
0.379315
-0.101953
0.0516903
-0.283542
-0.0224583
-0.244554
0.199758
-0.0874975
-0.114032
0.191988
-0.0629262
0.164151
0.303454
0.319099
-0.0450989
-0.00993474
0.156939
-0.32425
-0.0188104
-0.278092
0.20628
-0.0884904
0.19422
-0.00365091
-0.0655978
0.303504
0.202525
-0.481287
-0.224563
-0.307995
-0.25748
0.347251
0.463542
-0.159873
-0.307033
-0.70409
0.00018604
-0.0394529
1.23037
0.707872
0.19176
0.663892
0.320456
0.0315251
0.238042
0.153154
-0.183438
0.246498
0.0261484
0.143192
0.0213785
-0.098164
-0.017595
0.100371
0.196361
0.346533
0.0898088
0.201533
0.283386
-0.407577
0.563084
-0.052648
0.204009
-1.09848
-0.28744
0.0675933
-0.0375473
0.492711
0.671331
0.325717
-0.271013
0.376195
0.25187
0.275025
-0.407048
-0.585081
-0.397034
-0.0810635
-0.0373948
-0.353672
0.339855
-0.0116594
0.0465234
-0.184993
0.312536
0.00472712
-0.249565
0.319379
1.52299
-0.0128415
-0.326991
0.604574
-0.466148
-1.04499
-0.337675
0.152669
-0.287807
-0.204937
-0.0594635
0.224433
-0.344695
-0.0837216
0.554425
-0.326857
0.345231
-0.0739039
0.102231
-0.353065
0.561959
-0.045834
-0.271066
-0.573314
-0.0563213
-0.52208
-0.27582
0.523944
-1.31077
-0.45111
0.892697
0.0610685
-0.255114
0.533948
0.494077
0.316234
0.0701222
-0.285239
0.441
-0.101186
0.714931
0.216504
0.073422
0.313726
-0.67754
-0.244321
0.642107
-0.787178
1.02437
0.085664
3.69331
-0.0254247
0.0368251
1.85859
0.156395
-2.84223
-0.834856
0.0761442
-0.786335
-0.669496
-0.748568
0.628059
-0.440316
-0.396778
-2.00296
-1.1792
-0.396608
0.0420686
-1.29623
0.154858
0.252023
-0.0631054
-0.672923
0.610478
0.167982
1.94805
0.705757
-0.151312
0.762674
-0.412813
-0.472893
-0.183474
0.54506
-0.649334
0.432216
-0.035657
0.493987
0.345698
0.0406796
0.169744
-0.432064
0.414144
-0.610725
-0.588598
0.0485673
-0.0726242
0.168244
-0.0243327
0.61453
-0.252025
0.452191
0.147318
0.211504
0.48917
-0.354947
-0.0681657
-0.159828
0.253612
-0.237666
0.532198
-0.417632
-0.0569649
-0.0481283
0.0369689
0.176711
-0.144272
-0.022999
-0.0980858
-0.113523
-0.187827
0.261485
0.277071
-0.735993
0.64432
0.254703
1.60069
-0.365178
-0.040166
1.27438
0.257103
-1.19964
-0.0830115
0.115684
-0.325978
0.106364
0.0655956
0.135462
-0.304711
-0.0866577
-0.275975
-0.870132
0.391126
-0.142044
-0.841048
0.29977
-0.459007
-0.443777
-0.15729
0.0433114
-0.231153
-0.0863258
0.0757335
-0.253066
0.0781598
0.0191835
-0.0582522
-0.0903434
-0.0445385
-0.313065
0.475547
-0.453226
0.474249
0.302125
-0.0590381
-0.545689
0.153815
-0.447168
0.277632
-0.380544
-0.0580021
0.320042
-0.530664
-0.473369
-0.386043
0.287725
-0.0477628
-0.282363
-0.263043
0.198083
0.0828512
-0.0420688
-0.21506
-0.4092
-0.449069
0.311544
-0.411457
0.0144233
0.138619
0.0589135
0.130544
0.0350595
-0.475051
0.176552
-0.00405434
-0.469708
-0.198454
-0.290672
-0.317474
0.291513
-0.292436
0.191455
0.388399
-0.296497
-0.329068
-0.486673
0.089136
0.376494
0.0780318
-0.235587
-0.16172
-0.332548
-0.121239
0.15497
-0.0406925
-0.366217
0.100717
-0.0357929
-0.0785287
-0.0399335
0.0275173
0.395837
0.164977
0.641487
-0.374387
-0.434091
-1.47575
-0.40576
-0.109717
-0.522592
-0.286008
1.02931
-0.269238
-0.099636
0.331432
-0.290857
-0.0747686
-0.316095
-0.365077
-0.229567
0.162322
0.703529
-0.434198
-0.113431
0.325051
0.172965
0.138617
0.0295644
0.54054
-0.639619
0.14504
-1.52668
-0.829491
0.176573
-1.0266
-0.224839
0.274618
0.0620633
-0.305725
0.368341
-0.29534
-0.393042
0.0131584
-0.325878
0.232275
-0.595665
-0.172653
-0.424339
0.361623
-0.640416
-0.616434
-0.291652
0.307457
-0.534924
0.53191
-0.465685
2.35072
-0.239147
-0.137301
1.20309
-0.0385101
-1.83086
-0.70343
0.434345
-0.479929
-0.477198
-0.470306
-0.641931
0.144117
-0.396173
-0.467418
-0.181635
-0.262575
0.0872703
-0.271493
-0.262879
0.0468004
0.152675
-0.878178
0.398596
0.199602
1.70352
-0.32358
-0.59027
1.05458
0.369968
-0.771839
-0.275319
-0.133563
-0.123145
-0.328835
0.0807761
0.187295
-0.0379577
-0.231537
-0.481162
-0.658259
0.189168
0.168988
-0.737603
0.0319375
0.375129
-0.188801
-0.100142
0.973237
0.188186
0.957865
0.245082
-0.0999562
1.36603
0.498137
-1.78732
0.260228
0.172521
-0.218344
0.44619
-0.842099
0.103594
0.572276
-0.318763
-0.146888
-0.968651
-0.159225
-0.758997
-0.240996
-0.238306
0.408768
-0.214609
0.779019
-0.522626
0.264652
-1.66607
-0.155603
0.149814
-0.777296
-0.24749
0.264434
-0.222424
-0.247656
0.612893
0.348501
0.0809801
0.163564
-0.128966
0.362525
-0.3677
0.198312
-0.0176796
-0.209118
0.485939
0.229073
-0.380334
0.187144
-0.400898
-0.0630662
0.202696
0.987053
-0.000544115
-0.149772
-0.185981
0.139113
-0.07107
-0.295274
-0.133125
-0.0133859
-0.0391363
0.341449
0.124778
-0.12748
0.213641
0.241471
0.216598
0.488984
0.167624
-0.344472
-0.105036
0.261932
0.539017
-0.368821
-0.152151
0.154173
0.740027
0.468147
0.0416365
-0.395437
-0.163389
0.198738
0.0252331
-0.159291
-0.34282
-0.0327158
0.315783
-0.283669
0.0587329
0.384977
0.207018
-0.0132776
-0.253099
-0.478958
0.181747
0.155758
-0.365098
-0.352894
-0.109637
0.22164
0.373381
-0.430979
0.0959631
-0.24568
-0.401681
0.0554426
-0.111135
-0.171195
0.395665
0.246816
-0.155861
-0.425185
-0.156002
-0.290244
-0.305059
-0.376785
-0.426006
-0.412247
-0.366772
0.0877565
-0.497895
0.30283
0.129028
0.504833
0.00921222
-0.03961
-0.836226
-0.118802
-0.0325158
-0.731646
-0.140151
0.421928
-0.0403945
-0.197314
-0.37004
-0.106761
-0.501142
0.101838
0.0423805
-0.0414481
-0.13545
-0.0936921
-0.299348
-0.0504929
-0.220993
-0.00870624
-0.214376
0.32164
-0.712269
-0.0761123
0.210737
1.97045
0.184142
-0.252877
0.363194
-0.253227
-1.16874
-0.271317
0.290264
-0.32398
0.425018
0.00171625
-0.309678
-0.09977
0.100701
-0.104595
0.323953
0.0445919
0.437345
-0.407932
-0.269099
-0.159418
-0.202591
0.103724
-0.28995
-0.305671
0.508523
-0.0677895
-0.179672
0.493275
-0.358003
-0.730018
-0.256583
0.347855
-0.524499
0.40219
-0.0167213
-0.170964
0.255584
0.0091018
0.0950339
0.120645
-0.0968326
0.428084
-0.296288
0.345406
0.113087
0.0493926
0.42827
-0.186044
0.348481
-0.819668
0.0835213
-0.638902
-0.122744
-0.0429316
0.468258
-0.0504947
-0.393605
0.197863
-0.437629
0.18555
0.367299
-0.39312
-0.329242
-0.087335
-0.311913
-0.25148
0.472432
0.254736
0.0532105
1.61944
-1.8041
1.85535
-1.73937
4.46808
2.85817
1.14394
2.43053
0.376697
-0.0471715
0.37862
-1.8876
-3.13063
2.8518
2.11729
2.14089
-2.09656
1.37196
1.18199
-0.0443061
-1.89589
2.31302
0.958728
-1.84468
