#input normalization
1 0
1 0
1 0
1 0
1 0
#output normalization
40.6119 147.237
#neurons weights
0.129641
-0.351729
0.461027
-0.389198
-0.34991
-11.2359
2.92523
0.565341
-4.90196
0.0327287
4.24268
-9.64023
4.98487
0.467799
-1.19482
-18.7001
-1.21968
17.17
1.91128
-2.11622
1.14531
1.25763
1.49243
-0.352368
15.3809
2.12868
-0.198798
-10.542
-0.719068
0.796651
-0.114089
-0.205
0.211348
0.828763
-0.580946
0.0466395
-0.577869
-0.0944535
0.829192
0.222714
-0.43269
-0.559085
-0.410403
-0.104332
-0.290772
0.815474
-0.184054
-0.47452
0.768186
0.595618
-0.270966
0.257069
0.328623
-0.1486
0.340666
1.41893
#synapses weights
-5.2307
-0.0873172
-2.36768
3.2252
-8.39662
0.0170668
-0.0185861
0.0180166
-2.49101
1.37496
-0.131666
0.0945291
-0.0124613
-0.618978
0.697359
0.102611
0.0608881
-0.163618
5.41555
-0.163787
0.115045
0.183449
-0.0030545
-0.0115221
0.598035
-1.10689
-0.231174
-0.117728
-6.9183
2.92563
-0.160448
-0.168983
0.00271252
8.54114
-10.4159
-0.211457
0.0130796
0.552624
-11.8641
5.75166
-3.05469
1.64018
1.49274
0.0793585
0.972951
2.29304
-1.24799
-0.879468
-0.430113
-0.408777
-0.283255
-0.264831
0.000361507
15.0549
-15.7999
4.22525
-2.28456
-1.64009
2.41323
-1.05489
3.00227
0.0225537
1.64642
-15.1842
10.5342
-6.51152
3.08567
2.39257
-4.53046
1.88324
7.10212
-4.17052
-3.12138
2.72167
-1.38262
-3.12943
1.47488
1.51692
0.569945
0.252428
-3.05934
1.90226
1.12308
-0.835296
0.386461
0.791136
0.00819831
0.113105
-1.50291
1.5787
1.5053
-0.420528
-1.522
-5.6116
-0.0722243
1.77224
-0.0311156
0.272397
-17.8625
14.261
-0.122653
-0.0284909
0.290208
-9.06311
6.66993
1.24691
-0.551944
-0.928514
-5.13533
-0.531433
-0.24924
0.0391562
0.263593
13.907
-10.1493
0.0224748
0.00225151
0.0881311
1.47222
-0.497519
-2.01541
0.957422
0.920171
0.829696
0.441516
-5.46722
-0.957944
-0.125373
0.860061
-0.670025
1.54645
8.5667
-4.6833
0.133044
-0.662041
11.3608
-1.34776
9.2643
-1.57615
-0.425244
0.928145
-0.0954874
1.60431
0.37867
6.06905
0.244
-1.10222
-1.55702
-0.512743
0.722153
1.93334
-0.131042
0.50242
-1.24937
-0.0742801
0.429723
-1.37647
1.35198
-0.131847
0.865552
-5.23633
0.544721
-2.72506
1.47732
0.38179
-0.908115
1.2367
-1.58591
0.19049
-2.73647
0.340399
0.35909
-1.91986
0.295426
-0.134826
-0.3289
-0.506237
-0.663834
0.478915
-0.0375625
-0.300439
-0.712669
0.970113
-0.865139
0.420772
-1.97988
0.622707
-1.29717
-0.316758
0.760262
-0.245349
0.0966567
-0.994293
0.274051
-0.783366
-0.285325
0.201029
-0.922236
-0.58551
-0.719692
-4.00277
0.610645
-0.347923
6.09632
-0.160398
-0.157225
1.03935
-1.65929
0.370905
-0.444206
2.55727
-0.000344542
4.38478
-1.01454
-0.000672626
0.145452
0.367189
-0.446261
-0.321408
0.793623
-2.99128
0.00527932
10.8521
-0.522928
0.195812
-0.357553
-0.380555
-0.609151
-0.84049
-1.00709
-0.58976
0.333209
-0.670574
-0.201565
-0.535606
0.842715
-1.16127
0.281199
-0.989237
-0.245943
-0.405305
-0.403236
-0.163294
-0.0894104
-0.821033
-0.58894
-0.317833
0.691556
-0.393658
-0.107739
0.0373447
-3.05398
0.529934
-0.214373
-0.300735
0.143391
-0.0702133
2.06936
-0.101028
0.132246
-1.94928
0.764799
-2.60537
0.525222
0.52941
-0.317093
0.958754
-0.0933934
0.086251
-1.72175
-2.15633
0.938978
0.812833
1.011
-0.407912
5.05243
0.99797
0.332866
2.10677
-0.211294
-2.45198
-0.244845
4.66627
-0.337725
0.230401
2.65815
0.359616
-7.44767
0.139788
0.21616
0.171112
0.126198
0.553207
0.0301235
-3.1864
0.0497
-0.00185288
2.51076
-1.38964
-0.389661
-0.642912
-0.412309
-1.12887
-0.673535
0.235599
-0.0981443
4.00224
-1.64035
0.580232
-0.365313
3.9616
-0.510203
-1.30423
-0.145625
0.125421
1.02039
-0.907251
0.459053
-0.00733342
-1.81805
0.266868
-0.90077
1.60032
-0.175424
0.480091
-0.00353961
0.0590387
1.33369
1.34328
0.468335
1.51286
0.630789
1.14995
0.527031
0.72938
-1.89679
2.97373
-0.6497
1.48895
1.70695
-0.0498512
0.501186
-0.310221
0.185449
0.954328
-0.0352818
1.22381
-0.0487268
0.470757
0.265727
1.0114
-0.135201
0.332339
-1.52568
-0.646076
-0.397757
3.57506
0.135698
-0.0382592
0.122355
1.7962
-0.681736
-0.561226
-0.466116
-0.147646
0.246312
-0.147678
1.14664
0.287778
-0.317099
1.15314
0.240746
0.0993159
0.487065
-0.191536
0.18
0.0919621
-0.797579
-0.806994
-0.38088
-1.2199
-0.252405
-0.735892
-0.580066
-0.54507
0.845194
-0.975386
0.777084
-0.900309
-0.37238
0.397008
-0.682886
0.498911
0.16361
-0.818449
0.180964
-0.602487
0.488934
-0.805451
-0.160148
-1.69769
-1.11418
-0.174707
-1.54853
1.65624
-1.6364
3.89612
-0.264476
0.163722
-0.590063
4.6699
-1.23742
-1.20202
-1.32197
-0.468177
0.272013
-1.0927
0.267339
0.606812
-0.796298
0.556668
-0.392562
0.110176
-0.302341
-0.463231
4.26232
-0.280393
-0.4317
0.637251
0.752044
0.0287011
-7.50614
2.75078
-0.638271
0.656086
-13.7323
1.88488
-4.04958
1.46758
1.06639
-1.37545
0.781206
-0.976466
0.12043
-2.25082
0.466034
1.09925
2.7272
-0.211694
-0.891081
0.643901
0.148035
0.636877
-0.262305
0.673556
0.376696
0.909996
-0.199511
0.399351
-0.0989497
1.36804
-0.466098
0.256976
-0.0970264
-0.500447
0.50907
0.397182
-0.038459
0.0299852
0.477819
0.364084
-0.56585
0.900236
0.774997
0.955324
-0.0546925
-0.373108
-0.204178
0.138852
0.341526
-0.667512
-0.246322
-0.242569
0.207532
0.508294
-0.862299
0.426878
-0.183491
-0.165837
0.717012
-0.567883
-0.0458278
-0.205633
-0.0325219
-0.223085
-0.55079
-0.281515
-0.23225
-0.439005
-0.493487
-0.167102
0.376124
0.397993
-0.0463304
0.273205
1.43217
-0.383548
0.189361
0.155998
0.685381
-3.0346
1.28272
-0.331831
0.506281
0.786737
0.128766
0.444705
-0.872943
0.311015
0.48506
-0.0821805
0.155866
-0.266128
-0.399425
-0.428385
-0.747615
-0.974429
0.282371
-1.39019
0.600847
-1.58606
0.394871
-0.0515933
0.724659
-0.969248
0.510706
-1.40422
0.866724
-0.75532
-0.457028
0.911629
-0.889253
0.479313
0.466036
-2.22474
0.371953
-0.384133
1.92139
0.262626
0.591785
0.595397
-1.48521
-0.78949
-0.98137
-0.383276
-0.458474
1.67453
-0.754966
0.0244969
0.0198945
1.86367
-1.27341
-0.14319
-0.770398
0.00859524
-0.102264
-0.0247303
-0.0301205
-0.142657
-0.216052
-0.525153
-0.713708
0.339173
-0.0440233
-0.119325
5.03902
3.11005
0.249463
1.64426
1.29656
-1.47608
-6.13366
10.5792
0.619437
0.32674
-14.9558
0.905965
-12.0205
1.0798
0.815288
0.569117
1.40616
-0.123433
-0.345165
-19.5947
4.44995
0.949778
-7.23364
0.148456
0.659399
-5.3479
3.04389
0.092327
-1.144
0.186646
-1.39734
7.7706
0.213881
0.750949
0.106011
12.2926
-0.321514
3.83661
-0.685267
-0.759212
0.429331
0.684102
1.5672
-0.0956863
1.90333
-2.13177
-0.488212
-4.62526
0.540864
0.354117
1.26211
-1.57712
0.447587
1.33202
-1.19759
0.601897
-0.927173
-0.867636
-0.170192
0.82177
-3.96302
0.321885
-0.536147
0.476207
0.138481
-0.6947
0.285196
-0.187267
-0.295052
-1.83225
-3.42581
0.596038
0.243605
0.845129
-0.680627
-9.19976
0.875372
0.924229
1.41467
-0.353752
-0.196256
-3.24753
-0.834861
-0.153201
0.66085
-4.21932
0.537396
6.29239
0.761708
0.721633
-0.0984768
0.75167
-0.803036
0.150163
5.18005
0.229984
0.657968
-5.50049
-0.36477
0.0736442
0.858724
0.243651
0.331024
0.0585735
0.325173
0.212568
0.544223
-0.402338
0.939691
-0.317963
1.46352
-0.145139
1.07155
0.315306
-0.185632
0.428081
-0.103518
0.634245
0.366239
1.26262
0.0123896
-0.307169
1.28483
0.56217
0.611448
0.483773
1.41131
0.126448
0.315416
-0.716983
0.0843727
0.44498
0.181855
0.0715488
-0.0816375
1.14117
0.312149
-0.786248
0.297698
0.190457
-0.557067
0.148378
0.126205
0.046944
-0.285712
-0.825926
-0.270246
-0.399274
-0.821042
-0.685912
-2.99533
0.260776
0.293749
-0.912294
1.10244
0.273485
2.08431
-2.50136
0.840623
-0.166677
3.0075
-1.0999
3.45193
-1.10592
-1.276
1.28971
-0.244455
1.43544
0.653816
1.59352
-5.45376
-0.858172
9.45097
0.975626
0.668211
8.70765
5.14778
3.954
8.67383
-4.27612
-3.51219
5.80381
5.30449
-1.41314
-3.52109
2.27661
-2.11632
-5.61696
-2.06608
1.52532
-1.98134
-0.455238
-1.49159
5.85257
-9.21768
-4.9122
5.62274
-3.63951
1.64361
-5.77041
