#input normalization
1 0
1 0
1 0
1 0
1 0
#output normalization
40.6119 147.237
#neurons weights
-0.0934648
-0.096626
0.00842459
-0.348802
-0.30475
3.43341
0.430439
0.443944
0.275671
0.773622
0.4072
0.31257
-0.565544
0.0358094
0.0297142
-5.95907
2.12539
-18.0635
-0.443865
0.698035
8.70112
0.453223
0.687819
-1.75102
5.57958
11.6204
0.266231
1.17988
-1.63907
-0.679561
-0.334175
-0.306552
-0.355628
0.803187
0.281643
-0.0142662
0.56328
-1.1317
-0.357319
-0.441728
-0.738616
0.0855992
-0.386164
0.313484
-0.479735
0.502674
-0.273109
-0.312948
0.758737
1.18344
-0.312831
-2.08237
-0.374257
-0.0274948
-0.397226
0.816524
#synapses weights
0.803557
-0.0139613
0.234767
-3.95391
3.78302
0.289566
0.0291731
-0.646235
-0.23683
0.331589
0.649408
0.0324395
-0.0588699
-3.62778
-0.0137383
-0.445701
0.469812
0.472348
4.52354
0.154188
-2.36929
0.978386
0.950892
0.792821
0.539029
2.4992
-0.986145
0.537592
-1.90653
0.762457
-1.15841
0.503084
0.646186
1.91207
0.0963546
2.10761
-0.750156
-1.69544
-4.80458
-0.629031
-1.9289
1.25437
-0.720879
2.25748
0.339899
-1.63122
0.607242
0.799051
2.88916
0.0299674
0.44735
0.0223238
-0.584596
14.2383
-5.76962
0.0650904
-0.00111805
-0.0205325
-1.05519
-0.990697
-2.09021
0.021738
-0.764825
18.337
-12.0681
-0.142463
-0.295891
0.128742
3.78476
-0.289192
-0.820444
-0.183602
0.129111
2.22737
0.449209
0.0509893
-0.0168821
0.0766955
-7.15996
8.39464
-2.52114
1.4171
2.11669
4.62301
0.14292
-1.49809
0.65193
0.293541
0.855982
0.327563
-0.0348537
-0.00641895
-0.0692526
5.22243
-5.42382
0.0876055
-0.00412461
-0.286182
-6.6297
5.10755
6.99199
0.0323103
2.80222
2.1404
8.48592
0.392953
-0.296793
-0.319028
-4.88706
0.138353
-1.0721
-0.0034899
-1.15606
-3.09343
1.87834
0.0535155
-0.0144984
0.525702
4.30028
-4.36496
0.0433659
-0.256137
-0.823369
-5.27804
0.0434725
0.502494
-0.651167
0.458879
-0.575088
-0.785393
-0.304778
-0.0345081
-0.737907
0.0166554
-0.199459
1.24078
0.426263
0.909336
-1.13856
-1.45809
0.3893
-0.500166
0.271029
1.11906
0.99045
-0.890082
0.792623
0.462713
-0.687484
1.13482
0.103377
0.0528134
0.314069
-0.502842
-0.592309
0.341236
-0.0716369
0.0681401
0.133945
0.223711
-0.264231
-0.467323
0.0140041
-0.657938
-0.381303
-0.0196877
-0.0439652
0.0262798
-0.480264
-0.272327
0.158771
-0.0953143
-0.297352
0.20828
0.113503
-1.0874
0.404211
-0.232301
-0.45197
-0.334178
-0.611642
-0.304746
-0.192397
-1.20481
-0.941151
-0.768069
-0.0471251
-0.914185
-0.256396
-0.026208
0.46546
-0.340966
-0.341024
0.40495
-0.92483
-0.261186
-0.462442
0.23773
0.220634
-0.0156215
-0.655156
0.299003
-0.181944
1.11333
0.744951
0.559456
-0.275325
0.523921
0.515179
0.0274323
1.0186
-0.172413
-1.05835
1.14633
1.37
-0.353479
1.27591
0.499532
-0.0399445
-1.71241
0.736948
-1.02344
0.65985
0.441565
-0.513725
-1.21298
-0.0233346
-0.54477
0.599216
0.184734
-0.756748
0.723839
0.688956
0.550632
0.771891
-0.296812
1.68462
-3.23306
0.803029
0.926202
-1.26401
0.386271
0.0777201
-2.3885
1.00422
0.631493
-0.234526
-0.256219
1.05213
0.0500738
0.266105
0.942759
0.511702
0.0598027
1.0291
0.211727
0.458454
0.216277
0.780682
0.320096
0.516628
0.379879
0.559417
0.882103
0.484697
0.218788
0.719251
-0.511687
0.63741
-0.416004
1.17928
0.079825
0.375896
0.0440695
-0.566896
0.395495
-0.244612
0.744912
0.233114
0.368294
0.739198
0.202565
-0.570344
0.236126
0.598726
-0.0679779
0.102847
1.40443
0.651949
-0.147479
-0.389734
0.116589
0.804678
-1.11236
-0.039317
-0.62071
0.14432
-1.19929
-0.013412
0.957365
0.806485
-0.0538056
0.512695
-1.8297
-0.460985
-0.212714
-0.207612
-0.304784
0.247009
-0.0053128
-1.24283
-0.306099
2.14221
-1.35894
-2.43815
-0.0454695
-1.64368
-0.67298
-0.375676
2.09328
-1.14334
0.991402
-0.00879711
-0.565787
0.947815
-0.676607
0.836746
-0.796598
0.727481
0.0639541
0.813982
-1.23591
0.633155
-0.66631
-0.465067
1.93281
0.750676
-3.68159
1.17482
2.22569
-0.182451
0.743155
-0.234075
6.3956
-5.4528
3.96518
-1.56527
0.371443
0.639715
-1.12762
0.157966
-0.207707
0.655828
-0.980663
-0.762891
-0.497571
-0.733238
-0.0686169
-0.854653
-0.422027
-1.08903
0.26017
1.42356
-0.831649
-1.59941
0.347904
-1.38031
-0.746476
-0.116848
1.82972
-0.758045
0.890247
-0.464418
-0.0975428
0.80333
-0.0511307
0.282122
0.170102
-1.18535
-0.242603
-0.526309
0.0320764
0.181853
-0.0816466
0.101061
-0.235517
0.191215
0.533556
-0.591067
-0.675782
0.301607
-0.508308
-0.627997
-0.555336
0.53616
-1.03074
-0.0236178
-0.541612
-0.612391
0.286148
-0.528084
0.371193
-0.210384
1.03266
0.522956
0.620673
0.190035
0.00858687
1.05981
0.632227
0.490109
0.14101
-1.09238
0.732749
0.838343
-0.0815916
1.25613
0.59998
0.172622
-1.43136
0.590367
-0.475823
0.259792
0.527806
-0.699876
0.325152
-0.0187799
-0.144754
0.129587
0.200133
0.166656
-0.728582
-0.0894045
0.439752
-0.39818
-1.79536
-0.0792497
-0.819265
0.0158339
0.249231
-0.683474
0.264222
0.682501
-1.59899
1.09617
-0.951784
-0.225844
0.861561
-1.42381
-0.262563
-0.496875
0.223269
-0.55682
0.6019
0.191026
0.233078
-0.0289412
0.0107749
-0.0657121
0.111731
-0.105178
-0.03807
-0.267104
0.410658
1.11789
-0.997096
0.236376
-0.104874
-0.300332
-0.403471
0.920771
-0.935082
0.54239
0.322848
-0.356732
-0.524676
-0.177787
0.537035
-0.319987
-1.1247
0.181239
-0.868836
0.0943182
0.289896
-1.11492
-0.450236
-0.397811
-1.85906
-0.511248
-0.681354
-0.879874
-0.481731
-0.280846
-1.08615
-0.0180522
-1.23199
-0.20757
-0.232029
-1.30155
0.142783
0.242514
0.107296
0.127042
0.0709298
0.289138
0.559595
0.450104
-0.555474
-0.153884
0.579847
-0.656493
1.82388
0.805388
0.090049
-1.1631
3.75471
-0.496387
0.672766
0.653844
2.29332
-0.696985
0.766197
-0.255598
-0.0136435
1.34392
-1.48682
0.043986
0.445382
0.389082
-0.597675
0.364656
0.0251313
0.152627
0.505878
0.0676213
0.520259
-0.296614
0.280395
-0.0300826
0.0655671
-6.90507
-0.335409
-0.129427
0.489981
-0.33881
2.71172
0.125183
-1.27338
0.496384
0.211073
0.0334652
-1.09849
0.136467
-0.5198
-0.912474
-0.108778
-0.249029
-0.429415
-0.699398
-0.481956
-0.259881
-0.126604
-0.301615
-1.10159
-1.17528
-0.0636638
-0.75148
-0.0744332
-0.125761
0.71312
-0.816549
-0.198605
-0.76326
-0.192867
0.0907343
0.273314
0.30929
-1.08197
1.58555
0.438894
0.721201
-0.00120925
0.180256
0.0551947
0.213256
0.972563
-0.41132
-1.97089
1.59859
2.11765
-0.228587
1.76871
0.464658
0.165057
-1.55914
1.57728
-0.855427
-0.0358497
0.686819
-1.39215
0.599137
0.293023
1.2943
0.237796
0.838381
0.470724
1.15096
-0.73817
1.39687
1.3791
-4.15403
0.506277
-4.55955
0.567685
-0.495263
7.36917
0.388658
0.620637
-0.237004
4.82198
-5.10834
0.698529
0.882449
-2.00841
0.78182
0.0147571
-0.213975
0.279159
0.563959
0.558799
0.295909
0.0791877
0.492461
-0.346547
0.386828
-0.443572
1.72018
-1.19155
0.416203
0.464297
0.880998
0.682994
0.0079495
-0.700471
1.39656
-1.36798
-0.192531
0.410673
-0.6192
-0.0185313
-1.4505
0.882119
0.319944
-2.62709
-1.51786
-2.29241
-1.37372
-0.105828
-0.503955
-1.67482
-10.3599
-0.210421
20.3895
-2.81357
-3.16257
8.03486
-2.77501
-1.2661
1.42996
9.46663
-5.07658
0.670401
0.909623
4.29212
0.856089
0.453465
0.451458
-1.03992
0.862915
0.150208
-0.367226
-0.721848
1.00046
-0.135883
-0.50456
0.0102322
0.551996
-1.88553
0.0559963
1.39834
-1.64901
0.97187
0.10276
-0.722906
-0.274683
3.10836
-1.07221
-1.18184
-0.121003
-1.16051
0.265326
-2.33421
0.308958
-0.0432083
-0.291466
0.390495
-0.042251
-0.426848
0.217283
0.484391
-1.32494
0.708621
-2.91428
-0.458966
-1.44105
1.99975
-0.683879
0.563535
-0.311785
3.21392
2.39259
0.458841
-0.230193
-0.266015
0.580865
6.44938
-1.14278
1.1133
-0.76661
0.244414
-0.0935252
0.0955449
-0.962591
-1.35834
0.765655
3.95673
-0.67945
-9.33102
-1.27652
-1.23164
0.864883
-0.323046
1.09481
0.711442
5.64557
3.57491
1.02474
-3.78821
-0.0450662
0.781337
1.25238
0.00813457
1.93259
-1.46062
4.674
1.40568
-1.59609
2.95331
-2.04792
2.37922
1.29454
-1.71215
-2.807
-0.431972
-3.01901
3.50733
-1.14938
-2.41691
-2.33764
-8.1694
2.27683
8.38753
0.887526
-3.00223
7.53551
