#input normalization
1 0
1 0
1 0
1 0
1 0
#output normalization
4.09296 130.901
#neurons weights
0.136204
0.138812
-0.230177
-0.43698
0.385636
0.29585
2.31524
2.34321
-7.66183
0.811921
2.47724
0.0132726
1.7767
0.653678
-2.81642
1.29036
0.738947
0.602871
0.422901
-0.943695
0.00556707
-0.745306
-4.92234
-0.181024
2.88019
-0.963788
-1.14758
0.627299
1.19893
0.144074
0.133579
0.561397
-0.133638
0.114371
0.0772372
0.234269
-0.181208
0.00272448
0.330739
-0.178759
-0.350556
-0.00880712
-0.392806
0.121121
0.43861
0.617362
-0.310245
-0.659822
0.249501
0.48668
0.398432
0.781726
-0.412686
-0.0873424
-0.303194
0.254804
#synapses weights
-0.71617
-2.57584
0.00171182
-0.876983
-1.04251
0.0881798
0.498972
0.0117725
-0.184292
-1.68965
-0.107414
0.141324
-0.0207358
-1.95611
1.14521
-0.0621556
0.283032
-0.0203983
3.68531
-1.92459
-5.22402
0.688036
2.6199
1.56163
0.59304
-0.380405
-0.0790425
-0.0165964
-3.04045
1.49432
0.00142464
-0.732661
-0.380258
-2.65215
-0.584621
0.334147
-0.274942
-0.00282436
0.00790323
-1.22571
-0.207814
0.46791
-0.0750917
1.12361
0.648081
-0.429346
0.21126
-0.0193728
-0.822947
0.565774
-0.995455
-0.865345
0.0103691
-4.05354
1.05599
-2.36924
1.18671
1.18499
2.73428
1.25686
-0.270067
-0.857894
-0.140924
-3.34871
0.140777
-6.19185
0.462775
2.72027
0.979323
0.935371
0.241005
-0.713376
-0.312044
-1.91141
-0.0466594
6.17894
-0.1146
-2.3811
-1.48032
-0.622488
1.38378
-0.939826
-0.834723
-2.32084
-0.616829
-0.994848
-1.61372
0.0165872
-0.452605
-2.81699
3.37659
-0.243924
-2.06322
-1.4071
0.205988
-0.582584
0.272766
-0.0767206
-1.6863
0.538378
-0.142055
-0.395523
-0.0651396
0.864567
-0.028542
-0.617784
0.577436
0.605892
3.47378
-1.08337
-1.51792
0.805747
1.09368
1.82815
0.840545
-1.12032
0.265723
-0.140742
0.545716
1.09555
0.396912
-0.831446
-0.150169
-3.99647
-0.165557
-0.466567
1.58909
1.12692
-1.01733
1.47939
2.0942
0.868612
0.378851
-0.428962
-1.98492
1.50316
-0.171576
1.16368
1.03017
1.03379
-0.195946
0.721527
-2.92734
-0.65183
1.54081
-0.731736
-0.70897
-0.277638
1.27808
1.79249
-0.0735898
0.714824
1.01414
-0.508835
0.952892
1.01802
0.728641
0.464319
0.1089
0.10331
0.89929
0.401133
0.744493
0.712183
0.377062
-0.0465203
0.168719
-0.0307409
-0.528226
0.574094
0.283177
-0.316466
0.618956
0.954746
0.403078
1.02322
-0.992605
-0.795922
2.12182
-1.5557
-1.42606
-0.42743
-0.323975
-0.0946903
-0.141214
-0.729794
0.619659
-1.24332
-1.6271
-1.23695
-0.319895
-0.774159
2.30197
1.30082
-2.0368
0.614018
1.33748
0.472686
-1.24783
-0.682485
-0.244593
1.14781
1.36713
-1.72695
1.24609
1.59553
0.995667
1.16645
-0.103583
-1.18472
1.75652
-0.107572
0.710444
0.94286
0.687111
-0.207507
0.282985
-2.37981
-0.595152
1.92431
-0.965436
-1.33697
-0.54711
1.78391
1.07393
0.36157
-1.34201
-0.992241
1.41719
-1.00787
-0.759734
-0.462629
-0.552927
0.340234
1.15993
-0.72848
0.46354
-0.435644
-1.01959
-0.47247
-0.270411
-0.353196
1.99889
0.641893
-0.995774
0.883546
1.19418
0.326506
-0.703655
-1.42606
0.69247
0.108903
1.22121
-0.257131
0.721837
1.35988
0.851884
0.82285
-0.317162
-0.579949
0.439193
0.304445
0.15281
0.417227
0.841407
-0.106536
0.797327
-1.47733
-0.84367
0.211944
-0.260507
-0.953836
-0.13452
0.646777
0.332251
0.0192276
-0.0226736
-0.828886
0.469605
-0.432308
-0.324931
-0.230763
-0.213507
0.317132
0.181687
-0.212222
-0.025258
-0.198495
-0.315297
-0.589112
-0.17799
-0.291744
0.36375
0.319358
-0.732597
0.380399
0.728163
0.132283
-0.11847
-0.865929
0.221174
0.832768
0.661297
-2.23607
1.0809
1.01357
0.34839
0.496698
-0.309375
-1.24107
1.08626
-0.620679
0.725181
0.804324
0.39236
-0.11716
0.399463
-2.06495
-0.524665
1.48093
-1.25829
-0.785845
-0.603426
0.565154
0.625906
0.529075
0.338852
-1.14077
0.0309243
0.310523
-1.41661
-0.508145
-0.0893334
0.215434
0.877041
-0.0703433
0.192151
-1.1204
-0.148902
-0.663834
-0.119853
-0.700864
1.831
0.175087
-0.47017
0.647528
0.772436
0.258313
-0.995253
-0.717032
-0.169001
-0.705719
-0.272619
1.66292
-0.155561
0.109274
-0.220017
-0.162171
-0.140459
0.361044
-0.630229
-0.0744645
-0.318471
-0.235115
-0.206588
0.315165
-0.0142648
1.31752
-0.0153979
-1.11089
0.747501
0.881754
0.196953
-0.0178164
0.0486046
-0.994616
1.19338
1.13858
-2.43115
0.53114
1.01694
0.561445
1.13222
-0.424129
-1.57754
1.27775
-0.582958
1.24314
1.01441
1.45174
-0.646818
0.367539
-2.3263
-0.794855
1.07492
-1.80635
-1.4369
-1.47984
1.04066
1.06414
-0.895258
-0.605105
0.0116943
1.72123
-0.0152644
-0.812611
-0.219459
-0.662759
-0.0436961
-0.295264
-2.1699
0.634347
0.275144
-0.713204
0.30687
-0.765992
-0.614732
1.52917
0.018856
-0.723909
1.41658
0.625343
0.56359
0.249527
-0.158986
-0.361584
-0.304014
0.226954
0.239221
0.193218
0.31948
0.177128
0.118144
-0.513309
0.0675497
0.527134
-0.442218
-0.00352861
-0.026135
0.435286
-0.348697
0.336433
0.0283022
-0.0394218
0.725813
-0.422793
-0.275089
-0.111416
-0.297544
-0.217647
0.185055
-0.416019
-0.665521
-0.257753
0.126369
-0.505501
-0.469702
-0.243082
-0.515811
0.375868
0.606934
0.320945
0.0839631
0.354597
-0.527435
0.0947891
-0.476844
-0.179632
0.0170192
0.172089
-0.696884
-0.388435
-0.175428
-0.0302392
-0.128118
2.05988
-1.42082
-2.75147
4.13636
-1.92036
-2.77363
-1.65081
-1.41151
1.20715
1.86859
-1.9905
0.780687
-2.34025
-1.75776
-1.63983
0.171869
-1.1072
3.47484
0.861037
-1.75022
1.49607
2.19492
1.8177
-1.27701
-2.16764
1.01406
-0.379147
-1.11856
1.76093
-0.799886
-0.813551
-0.667103
-0.829139
1.00071
0.90791
-0.757889
0.850433
-1.27563
-0.632845
-0.750794
0.0278663
-0.181767
1.89729
0.21805
-0.861647
1.03214
1.10539
0.648072
-0.691245
-1.17542
0.63553
-1.49332
-1.96666
3.19211
-1.43193
-1.6088
-0.680579
-0.550006
0.255242
1.02119
-1.62186
0.574211
-0.731034
-1.34157
-1.4848
0.212381
-1.10305
2.73704
1.56222
-2.10008
1.99493
1.73576
1.11833
-0.949562
-1.12404
-1.04977
1.05326
1.5046
-2.75679
0.753854
1.78877
1.33305
1.13639
-1.29237
-1.90784
1.58868
-0.71831
1.47572
1.19791
1.09168
-0.0969428
0.541275
-2.61638
-0.791011
1.40389
-1.11846
-2.26033
-1.22112
1.20642
1.96978
-0.153917
-0.0390972
0.689309
0.311747
0.504591
0.747666
0.30598
-0.0685371
-0.241208
-0.373665
0.602429
0.0814438
0.193175
0.0626723
0.570059
-0.603817
0.192806
-0.480952
0.0415091
-0.0184636
-0.369521
-0.154
-0.291042
0.636176
0.110113
-1.21377
-0.408023
0.154442
1.08918
-0.666976
0.332102
0.374894
-0.0232637
0.361728
0.703958
0.405684
0.383363
0.254477
-0.343202
0.333051
-0.0396311
-0.264546
0.960733
-0.0355612
-0.267476
0.715594
-0.00251234
0.661601
-0.449621
-0.0322092
0.833579
-0.437647
-1.17631
1.41144
-0.819639
-1.67264
-0.443823
-0.785009
0.386144
1.41282
-0.657019
0.555905
-1.34634
-0.357683
-0.739675
0.384385
-0.756246
1.42401
0.705216
-0.709386
1.08292
1.75449
1.60385
-1.05328
-0.87368
-0.169492
1.25227
1.02261
-1.67603
2.22298
1.18067
0.744461
0.547078
0.286897
-0.0546506
1.1018
-0.203474
0.643167
1.86718
0.824367
0.282085
0.594641
-1.52078
-1.0207
2.4583
-0.343387
-1.17493
-1.03768
1.7022
0.926424
-0.6138
-0.555233
-0.457367
0.706391
-0.635715
-0.835162
-0.599054
-0.612976
-0.742963
-0.6735
-0.471151
-0.319633
-0.23134
-1.01165
-0.212205
-0.826802
-0.663466
0.544766
0.356768
-1.49565
-0.158067
1.13519
-0.0970315
-0.549314
-0.255964
-1.05564
1.1144
0.605735
-1.57841
0.186394
0.597981
0.318144
0.260179
0.0321657
-0.283557
1.28655
-0.508539
0.208696
0.505046
0.0854256
0.115139
0.637969
-0.829556
-0.419045
1.60047
-1.00835
-0.795563
-0.544332
0.372938
0.670335
0.747153
2.96555
3.01519
-5.98877
1.35422
3.30628
1.38313
2.21218
-0.555873
-2.77608
2.17148
-0.376304
2.12987
1.6375
1.43275
-1.24124
0.616132
-2.23273
-0.906444
2.17608
-1.70996
-1.18757
-0.828181
1.61889
1.97659
2.76325
2.78491
3.3944
0.864648
0.442464
1.65482
-0.599929
-2.54747
-5.94108
2.29132
1.59051
6.19883
-0.357972
-3.82398
-7.05068
-2.9047
2.83556
3.75507
2.22354
2.82119
-2.36654
-5.10034
3.5529
-2.56361
7.49184
