#input normalization
1 0
1 0
1 0
1 0
1 0
#output normalization
4.09296 130.901
#neurons weights
-0.204474
0.229285
0.0684709
0.338131
-0.329422
-0.242055
0.705835
-0.7108
-1.22172
2.61434
-5.86414
-5.32885
13.1328
3.46463
3.75325
-0.438447
-3.34967
2.18098
5.77648
-3.80203
0.292671
-0.58443
-0.0431307
-16.3386
-2.43131
-0.904018
-0.774053
-0.403514
0.793992
10.3617
0.52915
0.302379
0.79896
0.312732
-0.567428
-0.115325
0.0540347
0.569244
0.211481
-0.128448
-0.780054
-0.575258
0.15271
0.0958914
-0.00916015
0.515445
-0.32071
0.158626
0.101931
-0.944949
0.0831128
0.519908
0.219526
0.297702
0.238647
0.30799
#synapses weights
-2.46964
-0.192819
-0.225332
3.68791
0.0994142
-5.56733
-0.27536
2.95381
1.70507
-0.116866
1.55367
-0.691988
-0.527005
-1.7243
-0.753851
0.770042
1.10291
-0.0721502
0.172505
-1.12019
1.03588
2.78344
-0.083549
-2.73306
5.22415
0.0228911
-0.023536
0.00122599
3.72248
-5.49358
-0.0385781
-0.279781
-0.00656309
2.59669
-2.46126
-0.258503
-0.421503
-0.00687797
-9.19103
10.0862
0.409067
0.529117
0.0197388
-1.37786
-0.0532904
0.0900851
0.451527
-0.0211483
-2.00488
-0.447246
-1.16559
-3.70651
0.189087
-3.21006
4.63023
-0.954679
0.647309
0.732416
5.50297
-3.0037
1.17626
3.8568
-0.154998
-0.517777
3.67364
0.3079
0.41625
0.0315011
0.162706
-5.01632
1.25988
1.75211
-0.0431384
4.29267
1.81895
-6.65217
0.420615
2.53757
1.57154
0.702038
1.76647
-0.886102
-0.754458
-1.91196
-0.114809
9.14218
-0.188671
-3.56001
-2.12122
0.202953
0.040648
0.260512
-0.0115133
6.30474
-0.0262055
-0.477977
-0.202508
0.0549716
4.39989
-2.12744
1.66681
-0.673277
-0.776953
-3.11793
-0.910243
0.682089
-1.41475
-0.680592
-3.17214
-0.628336
1.15169
2.91752
-0.192372
1.80683
7.04333
2.62845
-0.10824
0.331862
-3.51764
0.213408
-0.0660507
-0.380863
0.0242907
-4.15891
-0.244804
0.831284
0.232588
0.365535
-0.444606
-0.368155
-2.38201
2.62069
0.46713
1.57266
0.615451
-0.0268827
-0.31897
-1.03342
0.797538
0.115858
0.512944
0.485829
-0.701512
-0.77873
0.148365
0.528632
-0.162222
-1.88928
0.0747953
-2.72129
-0.113192
-0.203337
0.223043
-0.772202
-0.44858
-0.831054
-0.374082
1.33313
1.0272
0.430746
0.285686
-1.70076
0.486536
0.67077
-0.836943
-0.074167
0.59877
0.958657
-1.22958
-0.528586
0.297246
0.59929
-0.8171
1.43207
0.974031
-0.191554
1.1754
0.623241
-0.021565
0.838381
-2.04548
2.00115
1.48417
0.596806
1.15166
1.17853
-1.0325
1.43533
-0.146672
-0.197884
0.903377
0.673506
0.311597
-3.24322
-0.877432
0.57524
0.452625
1.89343
0.571806
-0.541192
-0.0899069
-0.0979298
-0.243173
-0.268429
0.127747
0.203266
-0.44914
0.26643
0.560343
0.556991
0.472818
-0.477878
0.226475
0.197371
-0.130729
0.165956
0.144312
0.322135
0.211335
0.392843
-0.0180654
-0.183072
-0.30939
0.456743
0.383422
-1.28308
-0.432518
-0.0832816
0.168053
2.52816
-2.07394
-1.93918
5.97644
0.895131
0.132919
2.52261
-1.31281
-0.977898
-0.435239
-3.35288
-0.348435
0.44386
1.41423
-3.98807
-0.587344
0.352
0.312604
0.406851
0.467582
3.20577
0.135448
-0.748221
-0.155371
0.57358
0.0488996
0.713653
0.136672
-0.998642
-0.9692
-1.07543
-0.537776
2.43645
-1.4396
-1.55942
1.893
-0.6668
-1.1033
-2.02122
1.23576
0.951821
-0.693951
-0.863245
1.16287
-1.85565
-1.31457
1.42629
-0.106391
-0.46583
0.705891
-0.0041409
1.31333
0.326396
-1.90709
-0.984719
-1.61641
-0.888394
2.35844
-0.783335
-1.42462
1.65109
-0.939587
-0.234196
-1.32198
1.48914
1.78111
-1.40422
-1.44063
2.36293
-1.4369
-1.29206
0.127414
0.395335
0.319713
0.95278
0.325151
0.619118
1.0818
0.177233
0.0307821
-0.0624405
0.230809
1.27018
0.437753
0.226124
1.30299
0.480263
-0.142923
-0.22078
0.989828
0.337727
-0.667775
0.0724305
1.11825
0.184752
0.215347
-1.01161
0.349014
0.833237
-0.793229
-1.06318
-1.91412
-0.299319
2.19062
1.56915
1.07013
1.22603
-2.37949
1.18163
0.902931
-1.5957
0.295281
0.427426
1.56221
-1.87874
-1.57057
1.31026
1.32574
-2.718
1.33298
1.56755
0.328111
-0.26911
-0.172607
0.414031
0.0823673
0.613624
-0.154996
-0.703586
-1.39307
-1.1491
-1.15093
2.24653
-0.680454
-0.972831
1.60587
-0.691332
-0.226418
-1.32403
1.32211
1.06204
-1.17548
-0.551302
1.00611
-1.23715
-1.45517
0.234251
-0.580191
-0.00683127
0.234785
1.80028
-1.24758
-3.63232
-1.05967
-0.792129
-1.26042
-3.19339
0.571216
-1.99587
2.40527
-4.33141
-0.981148
-0.419518
-0.419548
-6.39645
-0.0382831
0.0188374
-0.255753
6.5102
-0.467172
4.83265
0.947934
-0.466299
-0.269177
-0.139007
0.0670581
1.7334
-0.0915412
-1.6583
-1.31895
-1.21988
-1.64456
3.72944
-1.29265
-1.59757
1.64591
-0.764187
-0.591551
-1.75025
2.00551
1.65323
-1.02926
-1.22597
2.23097
-2.15054
-1.42405
-0.938847
0.673518
0.136934
-1.23584
-0.931201
-2.09016
-0.374759
2.60527
2.5724
1.88801
0.625979
-2.40256
1.82795
1.81616
-0.7739
0.778257
0.766025
0.0430086
-3.58823
-1.4459
0.309448
0.760448
-1.69759
1.49798
1.12218
-0.256038
-0.320075
0.569701
-0.532908
1.54729
-0.109811
-0.485528
1.12545
-0.0375859
-0.342812
2.60019
-0.951317
-2.22503
-1.02123
-1.12475
0.0262895
0.0796093
0.554061
-2.762
-0.237746
0.271843
0.250463
-0.386838
0.347614
2.41848
1.24597
-0.284092
0.0986673
0.2236
-1.05671
1.19905
0.758322
-2.73376
-0.691277
-0.23616
-0.766299
1.54791
0.765347
-0.511344
2.09253
0.176806
-0.11827
-1.17466
1.86178
1.24235
-0.241693
-0.267955
-0.0599177
-0.956184
-2.43098
0.445817
-0.630753
-0.576586
0.957924
0.68213
1.19202
0.451329
-1.16768
-1.1162
-1.16792
-1.00532
2.39118
-0.747838
-1.36473
1.57156
-0.380745
-0.42433
-1.38764
1.12934
1.57891
-0.443288
-1.0335
1.86626
-1.33564
-0.792539
0.0922839
-1.17727
-0.434134
-0.394885
0.162477
1.30634
-1.39155
-0.120225
-0.212413
-0.772819
-0.120522
0.0309624
0.517801
-0.720728
-0.477179
-0.857803
0.222137
-0.0637508
2.90071
0.233728
-0.590101
-0.430046
-0.398821
-0.212478
-0.140575
-0.171127
-0.306113
-0.305775
0.114382
-5.42957
3.87124
4.99359
-4.65873
-0.975635
0.199163
1.74422
-0.0738402
5.57694
-1.84442
2.81063
-0.255672
0.15228
-0.110188
10.5192
-0.366816
-0.272963
0.32774
-4.98522
-0.208252
-7.90363
-0.615764
0.492053
0.814704
-0.204399
0.377355
-1.27212
-1.17818
1.24315
1.07467
0.546658
0.832126
-1.66494
0.313532
0.250345
-2.06361
0.718774
0.0989741
1.34685
-1.39455
-0.980627
0.432572
0.512093
-1.15477
1.5324
1.33127
1.32028
-0.475882
-0.635918
0.473968
0.00045017
1.98319
-0.103082
-2.26028
-1.40934
-1.13579
-0.864603
3.19353
-0.369635
-1.28222
1.25712
-0.645748
-1.0716
-0.934185
1.91953
1.9051
-1.46305
-1.14115
1.8201
-1.89821
-0.273097
-1.35041
-0.623878
0.386328
-1.3309
2.20072
1.93489
1.9631
10.4998
1.69155
3.03017
1.39459
-2.29664
-0.82284
5.89129
-2.72751
-0.0210896
0.275461
-0.531611
-9.21676
-2.2749
0.862021
0.518842
3.92908
0.481017
-1.47567
0.24267
0.516677
-0.388656
0.50222
0.0160368
-0.30429
-0.949357
0.80629
0.455645
0.141188
1.20696
-0.266966
-0.639198
-0.426078
0.086099
-0.204096
-0.288623
-0.0183834
0.438864
0.138772
0.409566
-0.224328
0.0577014
0.0309596
0.806788
0.194176
0.659554
-0.012138
0.315138
-0.181841
-1.06716
1.97743
0.977631
1.0153
1.1107
-0.631651
-0.807467
-0.236241
1.90043
-0.371433
0.518221
0.290404
0.0229714
-0.338258
-0.619101
0.337283
0.783655
-0.0759619
0.577438
-1.57385
-1.01414
0.228695
-0.0457829
0.0322142
-0.618082
-1.72156
0.120272
2.06564
1.82361
1.75924
1.2575
-2.24857
0.332164
1.0077
-1.24242
0.0748978
0.20303
0.459764
-2.67725
-1.64895
0.589886
0.85421
-2.84322
0.965555
0.634858
-0.705655
0.272612
-0.18843
-0.0917239
-0.719295
-1.08702
-0.513693
0.184172
-0.0301059
-0.111731
0.89196
-1.14274
0.60405
0.0111715
-1.01991
0.650347
0.289804
0.79083
-0.385104
-0.830798
0.31404
0.472083
-1.39068
1.22596
0.137197
6.32258
0.869704
4.65859
-0.855973
-6.47204
-1.06256
-3.68572
1.1263
1.96498
-2.01281
-9.3258
-3.25433
8.02563
-4.09482
2.50915
-2.85559
-4.46333
10.2268
-1.65105
-5.3802
14.1736
-3.59098
4.27709
7.12101
-1.59388
