#input normalization
1 0
1 0
1 0
1 0
1 0
#output normalization
4.7098 148.177
#neurons weights
-0.0402705
0.465125
-0.368443
-0.218759
-0.125261
-1.75701
-6.24854
-21.5958
-5.23207
2.14611
16.0068
-1.15959
-3.12926
23.8802
1.53059
-2.05027
-0.0383279
23.8642
0.0724919
1.88972
0.542618
-31.627
-6.71097
-0.906585
-3.39006
18.4656
1.51419
8.22816
14.4127
1.27938
0.750777
0.136702
0.507631
-0.518767
-0.254547
-0.814121
-1.64579
-0.396743
0.765214
-0.690889
-0.507712
0.164276
-0.993791
-0.0735612
1.00399
-2.40024
0.364448
1.30515
0.482071
-0.0437946
-0.448128
-0.660833
0.662947
-1.47507
-1.74733
-3.51451
#synapses weights
-0.0716498
0.400678
-1.53517
-4.63973
-2.7424
-0.00782035
-0.266771
0.10878
-6.97197
0.699167
-0.0018131
-0.468419
-0.118809
-24.5333
8.53996
-0.0106346
-0.87773
-0.138605
-5.01067
2.99469
-0.959114
1.4617
1.50804
0.177788
0.993943
0.0108108
-0.0384377
0.0401451
10.1546
-8.04241
1.25879
-1.65654
-2.09556
-0.726967
-1.54583
-0.0878188
-1.63878
-1.24876
-1.97331
-1.01226
-0.0190317
0.343756
-0.632707
16.3952
-14.5151
0.0539405
-1.55597
0.139054
3.71175
0.0754905
0.0341774
0.0165054
0.969788
7.5552
2.0715
-0.0102713
-2.10756
-0.964149
-0.968309
-0.321146
0.0677026
0.804822
0.664679
18.9272
-17.1534
0.104297
-0.297518
1.4919
7.35721
0.830114
-1.15742
0.554869
0.295942
-1.86344
1.46201
-1.55164
0.66802
0.115671
-6.17452
1.29352
-0.016944
-0.482123
-0.150417
-31.1069
15.8632
-0.0341957
-0.0275904
-0.696517
-12.1157
3.01771
1.74154
-0.691693
-0.191396
0.173711
-1.26476
0.0568466
0.444785
0.7587
-12.6072
-4.62339
-0.00278775
0.107736
-0.0656496
9.28304
-13.434
-1.28409
1.59095
2.05841
0.121858
1.23781
0.0739638
-0.599118
0.987539
13.6956
-0.288163
0.0287263
0.245926
0.550895
10.9648
-7.03734
-0.0556378
-1.14933
-0.418181
-5.16887
0.192518
-0.138862
0.911376
3.71645
0.990312
0.72281
-1.75302
0.0575294
0.46154
-1.18018
-0.4466
-0.76133
0.712681
-3.97151
0.104219
1.25398
2.05579
6.02069
1.33675
-0.314494
2.93475
-1.88277
0.609406
-0.972921
-1.60534
0.919274
0.578844
-0.352983
2.4562
0.723112
-0.421686
-0.502469
-0.669721
-0.611987
-1.42838
-0.989828
0.449881
0.963765
-1.46334
0.474715
-0.163629
-0.958601
0.688134
-0.10489
0.165788
3.44586
-0.929703
-0.115452
-1.10568
-3.49042
0.0194806
0.177426
0.515162
0.115467
0.480318
0.178555
-0.78533
0.0408693
0.27248
-1.53304
-0.522982
-0.121029
0.416555
-0.424504
-0.245593
0.921371
2.01272
2.13646
0.382699
-0.220404
1.94173
-0.229884
0.296342
0.415014
-0.181203
0.650407
-2.07031
-2.1518
-8.54427
-1.24545
-0.0958954
5.52091
-0.0815169
0.664102
5.46317
-1.63768
0.986988
-0.200842
3.76762
-0.0449654
0.136495
0.639244
-5.40841
-0.362534
-0.632694
2.3437
5.44562
0.285845
3.58749
-1.9762
-2.10495
-0.436811
-0.452324
-8.43796
0.114512
-0.108843
0.963202
-0.0120579
0.620207
4.31084
1.09874
1.59925
0.968968
5.8809
0.520254
0.323433
0.60133
-9.39221
-1.27668
0.414828
-2.8753
3.1151
-0.272702
1.25239
-0.0321775
-2.77779
7.50079
2.39923
7.84381
1.63409
-1.2709
-6.55026
0.175573
0.359502
-15.9976
-0.973413
1.49817
0.900273
-10.9023
-2.83923
0.174926
0.203272
6.68687
3.55896
-1.22657
2.71858
-7.42482
-0.228256
6.12948
-10.2857
-0.00129809
0.489545
-0.39569
-15.1373
-0.351239
-1.5555
2.6479
-0.600539
0.0116912
4.23515
0.337713
0.549026
-0.284929
10.5015
-0.584061
-1.97479
-0.424345
-9.23234
-5.0379
0.155084
-5.70234
3.40251
-1.05797
0.677343
0.871635
-1.44083
-0.0316891
1.36832
3.0887
0.224678
-0.510702
0.175501
-0.55988
-0.361931
-1.16875
-1.11856
-0.511849
0.089736
-3.23283
0.288371
-0.273237
0.298171
2.94079
-0.0509039
0.0917784
2.08042
1.6952
-0.369895
-0.551253
-0.841848
-0.50398
0.706062
0.345324
0.826646
0.465492
-0.459584
-0.276362
-0.0715275
0.576898
-0.638045
0.60502
-0.536245
0.562162
-0.277319
0.189241
-0.151181
0.308594
0.51387
0.550995
-0.210298
0.450509
-0.235326
0.622661
0.110762
-0.190719
0.990666
-0.124757
0.232464
-0.361714
0.207858
-1.0112
-0.499702
-0.123406
0.47112
-0.590049
-0.708964
0.165314
0.296318
-1.38839
0.0122419
-0.456617
-0.220511
0.0260803
-0.398104
-0.521336
-0.934697
-0.312077
-0.135828
-0.906461
-1.3463
-0.776429
-3.19047
-4.87197
-1.47817
-2.89014
-0.434582
7.31234
-0.331784
-0.552601
16.8447
0.788395
-0.702341
-0.455495
1.31904
-1.0629
-0.592073
-1.3905
-1.74467
-0.347843
0.566683
-3.03966
9.27539
-0.788944
2.35875
10.4108
-2.01804
-0.102023
0.133556
0.247314
-0.451942
-0.072559
0.019849
-0.0402477
-0.475831
0.382754
0.325246
-0.04188
-0.566875
0.0727075
1.18572
-0.337127
-1.34481
-1.50733
-0.217575
0.0875335
-1.1821
-0.0481912
-0.217479
-0.750855
-0.0332048
0.293951
-1.23657
-8.10681
-1.98888
-2.12129
-0.892407
12.4746
-0.17148
-0.894757
5.81222
0.510278
0.180729
-0.366542
2.86296
0.50148
-0.746849
-0.900961
-0.0719497
-1.3475
-0.0525071
-0.325794
15.723
-0.468306
-1.02881
9.77797
-0.646986
0.52631
0.334928
1.91835
1.93085
0.374373
-7.15898
0.279811
-0.0139454
-1.12013
0.541799
0.904848
0.28166
-0.787341
-0.197744
0.0932496
-1.4149
-0.582758
2.11452
-0.268791
0.69248
-3.65078
-0.329145
-0.32419
-1.50257
0.52164
-0.928111
-0.285996
0.626602
-0.454444
-0.049336
0.186796
-0.362822
-0.196104
0.958009
-0.652121
0.837221
0.259027
-0.0424979
-0.197707
0.479588
0.141306
-1.16633
-0.163761
0.0745865
0.415345
-0.359289
0.428221
0.567171
0.210693
-1.43004
1.35659
-4.32275
-17.0746
-0.459057
-2.17026
2.40759
-0.223765
-0.767726
17.0859
0.20919
9.13065
-0.386311
10.3841
-0.680642
-2.15072
-3.69588
-21.3861
-8.90031
-0.175421
-5.45064
3.63822
-2.76086
1.27123
2.7669
-4.69496
2.15175
4.28094
2.51864
4.18911
0.181906
-5.5421
-0.0649925
0.675832
-5.18445
-0.987
0.511152
1.26471
-2.28745
1.00027
0.223214
0.974087
4.37829
2.88404
0.238184
7.44503
-4.21535
0.150839
-4.1715
-7.24016
-0.907357
1.3904
-1.17372
-0.819853
-0.272996
1.75192
2.79246
-0.29973
-1.79296
0.270205
1.3897
-0.354716
-0.440369
3.61129
0.0741765
1.52221
0.964807
0.867554
-0.165729
-0.099069
1.63397
3.07058
1.13244
1.87241
3.19791
-0.243469
0.0948367
0.145852
-1.21487
-1.35455
0.560851
-0.632551
0.494766
-0.123567
0.703697
0.142126
-0.224955
0.686312
-0.346943
-0.693505
0.510333
0.196173
1.26035
-0.778322
0.0646496
-0.306745
1.98367
0.237235
-0.404553
-0.0944798
0.065028
0.615527
6.02671
0.35809
1.5999
-0.829002
-9.90829
0.500428
0.787954
-0.564954
-0.568231
-0.586131
-0.0661542
-4.4204
0.563742
-0.223
0.609712
0.276973
-0.626984
-0.821503
-0.159363
-7.54314
-0.0882564
-0.866335
-5.55707
2.02017
0.618402
-2.28342
-10.3162
-1.76249
-0.146438
4.11164
0.342697
0.295708
10.8596
0.592427
1.7046
0.576167
10.4047
2.40934
-0.391301
-2.06993
-15.2032
-4.99467
0.282288
-1.74754
4.43869
-0.600058
3.5841
1.64715
-0.547803
0.309268
0.0761418
-0.529711
-0.202535
-0.480142
-0.0741595
-0.517661
0.396242
-0.594249
-0.224082
-0.126792
0.344646
-0.540395
-0.468657
-0.248857
0.116036
0.325523
-0.770074
-0.291669
-0.516622
0.255506
0.154429
0.033021
-1.21924
-0.865865
-8.49399
0.155204
-4.51053
-2.68025
0.343854
-0.0693497
0.420441
-0.300644
15.8247
-0.960177
3.24759
-0.442195
10.8388
-0.219548
0.408876
-0.0218703
-6.24455
2.28892
-0.126385
-0.846363
6.87776
0.336787
-0.0268828
1.06917
1.17518
2.23485
-3.38974
-25.6947
-5.67843
-1.10664
8.39719
-0.336984
-0.817032
22.3931
2.11711
1.96627
-0.955407
28.5684
3.75232
-1.84862
-3.36318
-42.5801
-12.9101
0.00178006
-5.76931
13.726
-1.55709
7.78391
9.45431
0.776138
-0.619108
-0.186114
-6.28975
-1.44658
-1.48143
0.158876
-0.348687
-1.05803
-2.91993
-0.340224
-0.283571
-0.147848
2.04835
-2.68727
-1.75641
-0.0886089
3.35313
1.03333
-1.00428
-0.481808
1.61593
-0.554539
0.738121
-0.972289
-1.30013
5.5322
-5.04765
0.133588
6.5481
3.28544
8.26255
14.0869
4.50849
-4.00463
1.39899
-3.28515
-0.429046
-5.92
-13.0414
-3.15463
-10.3627
8.26998
-6.82202
3.19541
6.22922
3.05092
0.49683
6.9368
-3.70472
6.22378
