#input normalization
1 0
1 0
1 0
1 0
1 0
#output normalization
4.7098 148.177
#neurons weights
0.460884
-0.0787043
-0.181678
0.370292
-0.388907
-9.02727
-16.7755
2.73348
5.8401
-2.03195
-0.106419
1.38698
5.67785
6.23648
-24.0612
-0.277834
0.175067
10.5728
-2.50801
-0.771178
-1.32812
1.74078
-0.928885
-0.395125
0.912133
-0.674913
1.30067
-1.18992
1.68363
-0.519007
-0.248039
0.623816
0.738538
0.862912
-0.129371
0.708969
-0.906729
0.634109
-0.0280571
-0.55248
0.487127
-0.119543
-0.89228
-1.16659
0.155187
1.01382
0.0844626
0.465861
0.386574
-0.0168568
-0.242064
-0.357884
-0.601836
-0.273408
2.38079
2.73305
#synapses weights
-0.00510089
-0.140541
-0.0526492
-9.12847
4.67904
-0.0477707
-0.764643
-0.259168
-18.0124
8.5589
-0.737423
0.478563
0.297037
0.735917
1.37292
0.0596649
0.313833
0.455158
8.77605
-3.59834
0.119779
-0.59934
0.858213
-0.132601
-1.0655
2.70406
-1.65727
-0.828105
2.16467
-0.367388
-1.30655
-0.0629464
0.0545029
-0.137584
0.963083
-0.0354555
-0.474892
-0.18434
7.52408
-0.620352
0.0431907
-0.209152
0.532755
5.97896
-2.35441
0.00293073
-0.680069
0.0716458
-22.7128
13.1251
1.30516
-0.777085
0.420272
2.95669
-1.46589
0.902524
-0.684726
0.389092
1.77166
-0.77032
-0.0166424
-0.635715
0.191121
9.80251
-5.68344
0.00388286
-0.480878
0.176419
-6.61113
-0.941406
1.59807
0.349146
-1.24669
1.5575
-1.02426
1.78617
-0.859542
-0.0356908
0.671756
-0.710591
-1.96129
0.825168
2.02413
1.5609
1.8012
2.0162
-0.356363
-2.21868
0.826873
-0.318416
1.10106
-1.27685
-1.64345
0.622747
-0.394835
-2.02004
0.686265
2.8826
-0.283846
0.753537
-0.155015
-0.438858
-1.13669
-1.14729
-0.242961
-0.0171038
0.204817
-0.312567
3.02864
3.38425
0.747371
-0.4096
0.222104
1.31772
-1.21657
-1.90545
0.669825
-0.187807
-1.30296
0.668608
1.64013
-0.251701
-1.98334
1.10865
-0.442874
1.60222
1.26463
0.326234
-2.41167
-0.561728
0.149965
-0.456231
0.127011
-0.0681508
3.50345
0.46054
-0.182843
-0.201756
-0.567889
-0.208685
-0.755051
-0.0858261
0.473547
-0.17517
-0.465226
-0.729214
-0.822768
0.175728
-0.145594
0.312872
-0.160797
0.935437
-0.100649
-0.0630286
-0.061238
-0.0693931
0.312446
-0.686216
0.355602
0.805013
0.147001
-0.252606
0.115407
0.423202
-0.26228
-0.23276
0.183151
-0.477116
0.413902
0.369169
0.495501
0.369302
0.065149
0.039968
-0.370344
0.923619
0.217998
0.603621
-0.111886
0.38621
0.269945
0.384481
0.600692
0.531626
0.548211
-0.0312876
0.395135
-0.0658615
0.912088
-0.100686
0.538819
0.53137
-0.176737
0.202598
0.479648
0.283998
0.0646564
0.0429939
0.613827
-0.408578
1.58704
1.30666
0.254442
-0.975186
-0.122323
0.407135
-0.352866
-0.596371
0.0461782
2.5661
-0.336766
0.535716
-1.94123
1.8009
0.272563
0.487546
0.109835
-0.201441
-0.513238
0.854479
0.32379
0.188231
0.316627
0.150338
-0.0303734
-0.139241
0.227439
-0.521106
-0.877266
0.662851
-0.266764
-1.33343
-0.946478
-0.842955
-0.184337
-0.391939
-0.861235
-0.509622
0.277221
0.652453
-0.0486384
-0.666077
-0.484042
0.17935
0.185011
0.204044
-0.791286
-0.430985
-0.660749
0.0147469
0.221406
-0.686923
0.462106
1.07931
0.0610978
-0.528531
0.0941764
0.529126
0.541022
-1.73902
-0.209186
0.204916
-1.13086
1.40201
0.613428
0.853373
0.789732
-0.358119
0.265034
0.706743
-0.423673
0.15145
0.388838
0.34657
-0.768565
-0.9758
2.18731
-0.469364
-0.74701
-0.857898
0.223888
-0.826297
-0.958937
-0.716762
-1.53339
-0.69088
0.225649
0.175453
-0.712116
-0.658928
-0.812949
0.394355
-0.00370755
0.291303
-0.547386
-1.19739
-0.340046
-0.170071
-0.359244
-1.06204
-1.91007
-1.1039
1.05262
1.01805
-0.454597
0.334332
1.23589
1.62434
0.0927165
-5.27767
-0.127587
-0.12359
0.8734
0.307837
-0.142967
-0.434499
1.2045
0.379035
0.819214
0.453419
-1.18038
0.108741
-0.257638
0.746323
0.0493372
1.75499
5.01347
-0.136576
-0.774649
-0.659173
-0.0451204
-0.849132
-4.85307
-2.35911
5.60934
-0.19326
0.378013
-1.27258
0.817636
0.353743
0.638306
-1.03913
-0.49679
-0.441271
-0.704005
0.711666
-1.3204
0.198331
-1.14145
-0.0366924
-6.30577
-6.48331
0.905578
5.92306
1.48627
-1.66434
0.772485
5.45797
2.87423
-20.2218
2.08498
0.657338
4.59774
-4.2152
-0.252029
-0.581126
0.319806
0.751118
-0.53567
-0.942725
-0.492713
-0.516635
0.308858
0.971846
0.253878
0.313101
0.489053
0.531499
0.600096
0.418199
0.502435
0.0912425
0.242379
0.244322
0.433969
-0.203926
0.126074
0.365288
0.944244
0.245948
-0.142796
0.417647
-0.132577
-0.454501
0.376428
-0.0957286
0.231702
-0.309115
0.442305
0.00392623
0.953025
-1.95205
0.327724
0.402267
-0.27794
-0.119191
0.0438967
-0.603558
1.04511
0.72198
0.553348
-0.399039
-0.269972
-0.652858
0.291003
0.343906
-0.164273
0.293545
-0.314301
0.693504
0.351003
1.02043
-0.163251
-0.0979921
-0.0725257
3.54557
11.9004
-1.64401
-5.3779
0.308512
-0.142567
-1.25994
-4.33137
-4.55858
13.5207
-0.827136
-1.17171
-8.31258
0.682563
0.40074
0.792156
-0.707506
-0.0917151
-0.255504
-0.0517133
0.81512
-2.47415
0.413761
-1.3003
-0.432308
1.16107
5.56035
-0.974547
-3.4587
-0.631995
-0.327169
-0.800676
-2.51657
-4.98504
-1.86727
-1.28696
-0.962687
-1.50509
-0.340931
-0.714061
-0.423744
-1.55039
-0.189925
-0.0286637
-0.543435
-0.598308
-1.44943
-0.28667
-0.19769
-0.111129
-2.89544
-8.54696
-0.516559
2.47555
-0.211936
0.249396
0.537681
3.6222
0.857012
-7.65709
-0.314845
0.433006
3.5976
-1.67977
-0.126816
-0.622897
0.217526
0.00350854
0.0342709
-0.171384
0.253272
-0.380022
-0.721962
0.169398
0.623217
-1.1871
-4.36976
1.34776
3.2931
-0.922596
0.341004
0.465869
-0.0315971
4.13545
-1.60283
0.429057
1.22047
0.429029
0.866222
0.529252
0.0122892
1.02394
0.306806
0.0249507
0.237686
-1.16205
3.41883
0.49988
0.41546
0.0145361
0.905379
-3.54586
0.887826
0.554877
0.69996
-0.285046
0.257238
-0.295146
1.03786
1.25539
0.49169
0.0410068
0.972185
-1.65923
-0.101337
-0.309765
-0.133484
0.259877
-0.72303
0.100238
0.653325
0.976491
-0.299258
0.244685
-0.0811635
2.13165
1.35783
-0.246065
-1.41797
-0.615628
0.370484
-0.221499
-0.501716
-0.660139
3.18649
-0.815273
0.0560098
-2.39715
1.79314
0.00285044
0.98403
0.0612456
0.0452852
-0.108696
1.06675
0.52432
-0.238791
-0.208095
-0.389606
-0.285646
1.64606
0.365859
0.842276
-0.525201
0.0624866
-0.480028
-0.101829
-0.19169
0.605874
2.14609
0.235583
-0.190206
-0.179748
1.89318
0.0746785
0.273512
0.639367
-0.171574
-0.181613
0.654447
0.806193
0.436513
-0.0283396
0.00947927
-0.780958
0.228056
-0.516044
1.04101
1.05421
-0.449673
0.184552
1.57398
0.712059
0.885736
-0.400993
0.17108
1.13588
0.921906
-0.356747
0.0477664
-0.187147
0.860667
-0.287535
-0.133359
0.133016
-0.40177
0.95745
-0.088141
1.77169
-0.0874199
0.182886
0.199627
-0.974079
-1.01808
-0.424135
-0.0900321
-1.14539
-0.223189
-0.253702
1.20713
-0.236428
-0.137486
-0.752996
0.439633
0.355644
0.531524
-1.22118
-0.836147
-0.156107
-0.619499
0.35845
-0.148494
-0.147602
-1.1773
-0.857288
0.393472
-0.888026
0.635102
0.155211
-0.0793353
0.344116
0.369297
0.732985
0.118777
0.919298
-0.310757
-0.050396
-0.220225
-0.528447
-0.28842
-0.284823
0.591086
-0.022936
0.344372
0.225096
0.831908
0.546347
0.317676
0.20516
0.698414
-1.21611
-0.325417
-0.0489258
-0.359506
0.143968
-0.561062
0.0864273
0.31415
0.144097
-2.06494
0.613154
-0.163176
1.31547
-1.35143
-0.12121
-0.383695
-0.668617
0.333639
0.335443
-1.07605
-0.0136972
-0.469186
-0.403751
-0.165257
-0.0287567
-2.47186
-1.5868
-0.358242
1.41257
0.519219
-0.323478
0.252985
0.0534948
1.38034
-3.54693
0.573235
0.697272
2.94232
-2.59579
0.0314746
-0.987394
-0.0363313
0.161165
0.0219541
-0.647288
-0.38332
-0.241393
-0.458836
0.620459
-0.0152388
-9.33804
-18.3046
3.01932
7.61496
0.297888
-0.590265
3.24681
4.49682
10.2688
-26.0742
1.51893
1.53682
12.068
-0.297172
0.324574
-0.450131
2.14195
0.806734
0.783548
1.4318
-0.233054
-0.185955
0.394171
3.37949
0.934418
-3.70253
0.215027
1.62457
2.48115
0.767408
2.02021
5.3898
4.44824
4.19988
-6.32236
1.28255
-1.73296
-5.48266
5.69005
9.45628
-5.85544
-3.18821
3.56734
-1.07343
1.79501
-0.735791
-1.4624
-1.48963
-2.86123
-6.32078
