#input normalization
1 0
1 0
1 0
1 0
1 0
#output normalization
43.5975 176.83
#neurons weights
0.0455766
-0.435599
-0.0736298
-0.453591
-0.363461
0.620731
-0.357133
-13.0156
-0.335347
21.1369
1.95861
-0.357563
-15.0002
1.45344
-0.598812
-0.0403335
-0.738233
14.1626
-0.66414
-6.10685
-0.783681
4.07902
-0.746246
-3.0944
-1.54835
0.369009
-16.0534
0.637211
1.02673
-4.89178
-0.478444
-0.562507
0.736968
-0.730318
-0.192886
-0.619937
0.0860735
-1.36287
-0.818198
-0.0148332
-0.503358
-0.00770977
-0.635725
-0.919548
0.57027
-0.0331386
0.270612
0.772718
3.19044
-0.330819
-1.22253
-0.711828
0.341625
0.12898
-0.0439815
0.595085
#synapses weights
-0.98216
0.00918191
-0.237545
-0.906631
-1.05134
0.938193
0.0119007
0.142194
8.21111
-7.49191
-9.39178
-0.0748817
-3.85145
-8.32968
-5.39133
0.684553
0.0163712
0.113202
4.21686
-2.50141
2.86442
-0.0247346
1.26781
-18.3338
11.2341
-0.500524
0.839603
1.66686
1.26307
1.96225
-0.946695
-0.0629095
-0.808676
-4.64735
0.632441
-0.691037
0.00664218
-0.994715
13.319
-3.91068
-4.53018
1.2636
3.12915
6.35898
0.953904
1.00876
-0.0997446
0.154626
-1.36772
-0.687043
-2.98988
0.0160115
-1.6056
-7.61737
-0.121758
0.820442
-0.673695
0.0886999
-1.62784
-0.405845
0.053546
-0.0120825
-0.0750979
-15.002
5.35676
-2.10145
0.026688
-0.833276
-2.33791
0.536929
-5.81944
-0.0238189
-2.7713
-6.84672
0.178022
-0.886185
-0.00126891
-0.199733
-0.979266
1.15539
4.47912
-0.00185085
2.46754
0.202709
4.60619
-1.15112
0.217017
0.806691
3.53507
-0.362953
-0.00322865
0.00246987
0.0141093
3.31836
-2.39053
-2.99337
0.0454079
-1.5512
-0.69121
-1.56526
-0.364514
0.814678
1.89913
6.63333
0.33672
0.0186994
0.00597324
0.448845
23.9553
-16.7773
-3.71259
0.557087
0.798208
0.530412
0.802716
0.288214
0.416962
2.68423
5.89318
0.516987
-8.91539
-0.222251
-3.07931
-13.6631
-5.80422
-0.256798
-1.33653
-0.256709
-0.087754
-1.27055
0.161772
-1.55423
2.3567
0.144573
-0.144333
-0.315662
0.362244
-0.742026
-0.103483
0.429123
-0.216215
-0.306724
0.509025
-6.05146
0.221762
-0.0909792
1.45166
0.0301221
-0.941883
0.668962
-0.463174
0.353218
-0.742132
-1.28923
-1.29855
-1.10066
0.347109
-1.26089
-0.304529
0.233905
-0.718464
0.503868
0.783891
-1.2756
0.290943
-0.972658
-1.28313
-1.16753
1.50783
-0.661566
-0.0166331
-1.81121
-0.0679782
0.556906
0.165096
0.756645
0.0907259
0.647149
-2.41556
1.7142
-0.09393
0.298601
0.806144
0.0459578
-0.206297
0.526344
-0.310788
3.10083
-0.701697
0.206994
-0.568976
-0.397791
-0.348841
-3.81747
0.0890537
0.442738
0.289367
-0.0638602
0.542833
-0.259069
-0.232205
0.471963
-0.286932
-0.0157094
-0.120698
-0.76638
-0.113575
0.348389
-0.625531
-0.239973
-0.73394
-0.343129
-0.985044
0.281647
-0.518094
-0.477659
-0.500728
0.197138
-1.06875
-0.605648
-0.753465
0.621088
-0.594999
-0.603226
-0.609791
-1.36175
-2.22696
-2.22629
-0.837362
-8.46165
-2.42244
-2.67316
4.3015
-0.403997
-0.0545091
-2.1618
0.705674
4.27001
-2.46566
0.617689
-2.11656
-4.65872
-0.324656
11.8847
-0.0810405
1.47862
3.44661
-0.774554
2.32955
2.7521
0.0841653
1.56023
-0.816031
-0.488507
-1.43789
0.172136
-0.281135
-0.893264
-0.38133
-0.000258076
-1.68025
-0.0793784
-0.352881
-0.295806
0.59665
0.32024
0.55749
-0.80761
0.0801038
-0.177702
0.210414
0.584293
-0.785857
0.362197
1.13525
0.238478
-0.336889
-0.292887
0.100088
0.125603
-0.0952706
-0.249854
-0.528441
0.0833852
0.132074
0.148128
0.411325
-1.11096
0.815344
0.759025
0.536656
0.400618
0.508565
-0.457959
0.757819
0.333559
0.0718128
-0.109376
0.348807
-0.32324
-0.52678
-2.04675
1.70165
0.836587
0.0325628
-1.31317
0.448657
1.01596
-0.805364
-1.22599
0.319747
0.209091
-1.29248
0.718779
-1.06778
-0.411649
-0.320843
0.7998
-0.70513
0.144086
-2.1865
0.936427
-0.734759
-2.4555
-0.862508
-0.255693
-0.74297
0.643891
-0.756609
-0.0907091
-0.734259
0.424622
0.27424
-0.41061
-0.14494
0.13416
-0.279644
-0.832713
0.299133
0.0123446
-0.939939
-0.325668
0.0933459
-0.89324
-0.449818
-0.861866
-0.306366
-0.844132
-0.988585
-0.753875
-0.564949
0.61105
-0.368819
-0.603469
0.000384338
-0.566028
-0.387204
-0.763695
-0.192548
0.433581
-0.826703
0.0290161
0.193882
-0.0723479
0.544451
-1.02225
-0.953296
-0.601156
-0.0242873
-0.115597
0.12746
-0.349432
-0.789063
0.97329
1.19567
-0.663925
-2.38566
0.523244
0.28947
0.553043
-0.616453
0.225258
-0.636831
-0.552852
0.225352
0.891606
0.50087
-1.65391
0.364075
0.023586
0.148173
-0.116842
0.246143
-1.01612
-0.330032
-2.02162
0.225649
0.600737
-2.40979
-1.47631
-0.756234
-0.131032
-0.689033
-1.10182
-0.976928
-0.607712
-0.155421
-0.306104
-0.682169
0.771158
-0.343575
-0.100534
0.287539
-0.561671
-0.229731
-0.346426
-0.51912
-1.26191
0.784295
-0.327581
-0.337944
-0.738444
-0.397774
0.374502
-0.57202
-0.449335
0.799134
-0.619456
-1.24023
-1.69949
-0.481461
-0.232314
-0.0409058
-0.50638
0.128714
-0.157576
0.012541
-0.397438
-1.21579
0.487788
-1.02168
-1.24811
-1.08001
0.92801
-0.912088
0.452837
-0.476207
-0.45122
0.660753
-0.277959
-0.64754
-2.32045
2.08852
0.223464
0.598227
-1.77307
0.62082
0.846526
-0.789929
-1.0469
0.31883
0.468132
-1.38317
0.538699
-0.485027
-0.245782
-0.088655
0.293191
-1.01288
-0.0637722
-1.46033
1.41279
-0.232661
-2.81861
-1.23391
1.08353
1.11232
0.359487
0.386741
0.62421
0.490595
0.470227
0.970762
0.382713
-0.462581
-0.394824
0.182795
0.792816
0.654152
-0.253978
-0.0629692
0.110726
-0.100323
-0.481743
0.483078
0.701545
-0.0566028
0.10037
0.968505
1.20348
-0.847778
-0.0746549
-1.41864
-1.61664
-6.06648
-0.030103
-2.32158
3.02768
-0.446334
0.149952
-1.35563
-0.428531
-1.61167
-0.499743
0.34295
0.252422
-1.43372
-0.503512
0.888973
-1.74315
0.330055
1.15885
-0.183162
0.81037
1.66382
-0.360555
4.75276
0.637875
-1.39027
6.95676
0.21985
2.4743
-4.67374
-0.587096
0.323692
0.62703
0.062507
-1.44168
1.096
-0.37792
1.00896
2.6036
-0.491493
4.44943
0.497149
0.329224
-4.06769
-0.893372
0.408343
-1.2808
0.902542
1.21063
0.0866061
1.22865
-1.86994
0.446872
-0.212144
1.07732
0.624069
-0.148222
0.547871
-0.921659
-1.22354
0.296194
-0.72124
0.0279832
-0.115857
0.506211
-0.250684
0.412937
0.412384
1.08952
-0.0909908
0.535849
-0.119811
2.51346
0.838185
-28.1505
3.65091
9.93849
3.70467
4.34063
-13.8211
2.98751
1.10027
6.90711
1.17516
15.5368
-2.36565
-15.4296
2.4655
6.98676
2.76807
4.4877
2.9453
2.89464
-30.3247
2.93717
3.48991
8.00679
0.0188656
-0.831031
0.517505
-2.07247
8.56997
-0.0237035
0.455092
2.74507
-0.384302
-0.265884
1.40591
0.0400365
-0.02255
0.425201
0.371138
0.540836
0.0271448
0.454032
-1.36324
3.05404
-0.147039
-0.859918
-0.360848
-0.650238
-1.2492
0.366343
-1.43532
1.74015
0.922083
0.351678
-1.24888
-0.622572
0.678755
-1.03862
-0.841144
-0.113364
-0.776426
-1.60244
0.423432
-0.611272
-0.150583
-0.225728
0.299775
-1.58275
-0.336743
-2.0478
0.840244
-0.615986
-1.67961
-0.72798
-0.392638
-1.2638
-0.151574
-0.467086
-0.394477
0.146689
-0.926524
-0.267334
-0.76213
0.406507
-0.355603
-0.716043
-0.8728
-0.153328
-0.207608
-0.0365636
-0.124483
-0.450424
-1.06296
-0.476269
-0.996452
-0.0433119
0.285598
-1.14582
-0.791998
0.218099
1.9544
0.0651937
-3.7082
0.083234
0.304196
0.489401
1.55529
0.330539
-0.277218
0.373831
0.248684
2.59931
-0.188815
0.792106
-0.172659
1.11665
0.205588
-2.4367
-0.181827
1.40867
-2.37636
0.780302
1.27512
-1.01718
0.452061
-1.08243
0.210183
1.5546
0.264041
-0.351719
0.213188
-0.222038
0.459012
-0.50318
0.243355
0.580733
-0.907046
0.955237
-0.59746
0.79764
0.353011
0.93034
0.443952
0.49583
-1.16951
2.05907
0.598755
-1.33674
-0.452041
0.53031
0.979026
-1.40555
-1.91935
1.52065
0.620271
-0.751173
0.171285
-0.569763
-0.0643634
-1.44854
-0.705923
3.30063
0.755418
-0.0669864
-0.545428
-0.375825
-1.58832
2.72233
-1.26392
1.09543
-0.380978
-0.709364
1.20371
1.64225
5.70483
-3.0072
-3.38769
1.96421
-4.10045
-2.01665
0.861147
2.68412
2.96304
-0.366832
4.39532
-1.72287
-2.19896
2.47162
2.83032
-4.56032
-3.01339
3.39294
-3.74521
-2.29268
3.62711
-2.85375
2.47743
-1.16168
3.17495
