#input normalization
1 0
1 0
1 0
1 0
1 0
#output normalization
43.5975 176.83
#neurons weights
-0.034193
0.0328146
0.29138
-0.0349478
0.296765
0.276845
4.65366
-11.9505
1.50811
-1.52804
-0.622944
0.631472
-0.70338
-1.59648
-2.27901
-10.584
-1.01479
10.0331
-1.27701
0.76225
8.22804
0.294258
-0.4
9.8111
-0.0956453
7.01865
-14.914
-0.559054
2.99396
-0.604239
0.369553
0.92935
0.419706
0.706145
-1.04221
1.06413
-1.18747
1.21562
-0.58357
-0.64587
-1.07084
1.42884
-0.486429
0.142535
-0.228518
-1.14249
-1.49044
0.39875
0.918789
0.572673
-0.925389
-0.0321237
0.886183
-0.699946
0.897585
0.793981
#synapses weights
-1.74387
0.201502
0.456525
2.49903
-0.0763761
-0.14221
-0.0115189
-0.00997583
-4.10936
2.15705
-0.522192
0.0106219
-0.717362
11.1206
-4.17328
-2.16157
1.47815
1.88695
4.39613
0.727047
-0.569337
0.069629
-0.0105348
-3.11268
0.526198
2.0858
0.423227
0.0282913
-4.04457
-0.313745
-4.44993
-0.152998
-1.30098
-11.0389
-1.12539
1.92596
-1.86329
-2.23371
-0.0958542
-1.34264
4.30447
-1.92231
-2.65179
-6.30822
-1.22265
1.22855
-1.42195
-0.139763
-0.716968
-1.23338
-0.126373
0.0035902
0.325478
13.8495
-9.15556
2.86762
-1.04857
-0.583402
0.772098
-1.13279
9.29107
0.0533435
3.71379
10.5747
5.99827
0.0361259
-0.315529
-0.324363
-3.34654
-0.914307
-1.08128
0.576048
1.41948
2.47473
1.10394
6.53449
-0.0298908
3.0708
5.09618
2.32961
0.612697
-0.0255448
0.357685
1.60963
0.451116
2.73336
-0.400344
-0.690974
-0.932339
-0.87069
6.57956
0.0738855
3.82258
-1.98596
5.45363
0.485825
0.0186208
-0.00341623
-0.28962
-0.505659
0.0724785
0.00786871
0.0296707
-8.60189
7.20451
-0.121006
-0.0157856
0.181251
18.9952
-10.3303
2.05179
-0.188898
-0.902499
0.441902
-0.0801718
-0.475366
-0.00951135
-0.0737952
-4.25549
3.00839
-0.856709
0.0155824
-0.867231
1.64938
-0.355575
0.263426
0.227543
0.140543
0.931729
-0.087063
-0.0623255
0.827269
0.500369
-1.15954
0.54278
-0.707961
-0.112364
0.282335
-0.341781
0.388421
0.509481
-0.96744
0.162814
0.442301
0.428559
-0.438934
-1.54494
-0.51224
0.224619
1.18399
0.958652
1.95899
1.69245
0.506459
0.810437
0.542516
0.385998
0.556366
0.36229
-0.928353
-1.78854
0.0666788
0.946676
0.530724
1.70699
1.89747
0.900653
0.461294
0.217518
-0.179525
1.59223
1.92836
-0.277522
1.308
0.0420215
0.676115
0.469501
-0.994762
-0.162867
0.304421
0.573252
0.0104229
0.233413
0.375093
0.344292
-0.488667
-0.287185
-0.929382
0.077876
-0.00388601
0.805201
-0.486767
-0.110406
-0.119531
-0.0272927
-1.56267
-1.95672
-0.10862
0.926059
-0.289257
0.475691
-0.257374
-0.506661
0.970387
-0.56437
-0.0884881
0.153229
0.0881796
-1.30523
0.868016
0.718045
-0.386542
0.972855
-0.229003
0.778862
-0.134011
0.204902
0.317661
1.04473
0.74094
-0.475393
-0.599545
0.248068
0.746354
1.15977
-0.598776
0.634194
0.159679
-1.81614
0.425078
0.470607
0.0703789
-1.47764
1.4209
-0.822757
-3.04433
-0.0345974
-2.38621
1.17211
-2.37331
-1.60758
-0.936084
-0.836555
-4.56368
-1.35521
4.00791
9.54737
-0.431055
-0.541458
-0.738672
1.18022
0.388047
1.15237
0.226657
-0.107067
0.441906
-0.210023
0.376143
0.514095
-0.665053
-0.843554
0.338855
0.172872
0.510018
0.522144
0.339079
0.606969
0.31729
0.146553
-0.532537
0.81382
1.34464
-0.135737
0.55407
0.620921
-0.455823
-0.180909
0.497221
-1.11864
0.759023
-0.401486
-0.276449
-0.161557
0.52629
-0.997349
-1.3587
0.0763413
-1.96988
0.683261
-1.22545
-0.193095
-0.228147
-0.409086
-1.51469
-0.920863
0.504779
0.342857
-0.510522
-0.2531
-2.07696
0.402652
-0.00406623
0.494087
0.166713
0.00183759
-0.331274
0.134765
0.105817
0.584833
0.825208
0.398831
-0.0991982
0.554946
0.0682327
0.819723
0.11385
-0.0090125
0.423871
0.501317
0.696483
0.921839
0.168372
0.513407
0.495548
0.288795
-0.186522
-1.28377
0.84123
-0.224892
1.1839
-0.314348
1.00489
0.26188
0.963109
-0.251347
0.492863
0.268052
-1.22086
0.349233
-0.0206515
-0.670512
-0.0328341
0.0484261
-1.51277
-0.530547
-1.9209
0.937881
0.182088
0.748656
-1.46981
-0.959506
-0.0828072
-0.808411
0.3787
-0.151936
0.0282323
0.359091
-0.238532
-0.89474
0.59376
0.879177
0.409035
0.207383
-1.01955
-0.350126
-0.632243
-1.47777
-0.195143
-0.682665
0.819051
-0.125076
-1.78093
-0.504931
-0.44496
0.725921
-0.532364
-0.612561
-0.13051
-1.90621
0.794927
0.248424
-0.736347
-0.178214
0.91809
-1.03029
-1.60058
0.032557
-2.24616
0.89523
-0.701566
-1.134
0.027602
-0.778712
-1.42479
-0.595108
0.818385
0.291311
0.355562
-0.0199676
-1.76304
0.92219
-2.39171
7.11108
1.60168
-1.14288
-0.977791
0.443101
-1.01846
-1.80246
2.43348
10.6119
-0.299275
-4.60195
-1.56229
-0.224818
-6.74738
2.21747
-0.174679
-7.55706
-0.292732
-9.64219
4.35511
-0.808136
-2.97532
1.44118
-0.109117
-0.660289
-1.52092
-0.533029
2.54116
-0.247052
0.415577
-0.171562
0.33612
-0.0989852
-2.97172
-0.223875
-3.41252
0.87028
-0.712625
-2.0779
-1.48105
-0.579209
-1.78371
-0.349072
-0.925268
-0.725618
-0.11393
-0.364188
-2.2258
-0.217776
-1.22313
3.3673
0.672761
-0.702097
-0.238885
-0.0750282
0.315543
-1.0975
-0.272857
1.83729
0.218175
-0.544765
-0.921964
-0.167169
-0.526106
0.246971
-0.14812
-0.221529
0.293353
-2.16281
-0.76832
0.0361563
0.0988523
1.08461
-0.929642
0.615984
1.031
-0.457711
-1.1038
-0.566004
-0.833053
-0.0297334
-0.453125
-0.382449
-0.138821
0.236577
-0.116255
-1.13669
-0.486227
1.16732
0.0817395
0.348902
-1.02057
0.1499
-0.40681
0.476961
0.0116698
-0.795505
0.0102772
-0.226643
-3.19935
12.7626
-0.991609
-6.25254
-0.185526
-4.12593
-0.938464
1.5971
-0.922385
13.4675
-0.0826039
-12.8483
0.0250016
-0.992534
-12.2986
0.813203
-0.542943
-7.7823
-0.896425
-3.81545
19.8854
-0.296432
0.318089
-3.14
-1.2061
-0.544133
-0.609361
-1.74265
0.35833
0.484896
-0.0674637
-0.885393
0.558259
-1.77395
-1.80773
-0.139668
-2.65128
-0.326691
-1.66456
-0.242411
0.115469
0.228538
-1.59975
-1.43865
0.172362
0.682311
-0.762326
-0.24379
-1.41561
0.355453
-0.216601
0.171734
0.541585
-0.462952
-0.493894
0.341983
0.23219
-0.701368
-0.183336
0.0242918
0.450006
0.342483
0.164955
0.0253044
0.31
0.137605
0.114804
-0.0291972
0.236706
-0.45201
-0.0158943
0.127056
0.0561583
0.238895
0.854627
-1.18441
1.09804
1.38878
-0.270801
-0.407068
-0.251023
-0.319447
-0.473608
0.651653
-0.416338
0.278748
-1.37474
-0.358834
0.173604
-0.0731028
-0.625876
0.338212
-1.6074
-0.173442
-4.30823
3.09638
-0.372379
-0.294692
0.241533
0.579791
-0.110487
-0.398113
1.18406
-1.01814
-0.584262
-0.856596
0.948087
-1.3095
1.49142
0.828717
0.601219
3.19191
-0.966473
1.58727
1.54151
-0.227982
0.52685
1.39697
0.816881
-0.890339
-1.75714
-0.159702
-0.287834
1.86181
0.218395
-0.833251
0.942187
-1.15926
0.153919
0.0956559
-0.856767
-0.601543
0.460037
-0.789593
0.40937
-0.282255
-0.149103
0.136175
-0.768234
0.261116
0.251883
0.213145
-0.0893653
0.0900211
0.4052
1.46287
0.569296
-0.72451
-0.814818
0.266347
0.317327
0.735044
-0.0894704
-0.327929
0.407781
-0.374718
0.367355
-0.386235
-0.216251
-0.649075
0.0942347
2.24892
-0.38007
0.467142
1.50952
0.80779
-0.488223
0.720138
-0.178204
1.94669
-0.83104
-0.268192
2.07967
0.45382
0.368264
1.38133
-0.242116
1.36403
1.09944
-0.296443
-0.388239
-0.113097
-0.737004
0.461906
-1.01883
-0.103518
-2.46957
-0.590437
0.269977
-1.18971
-0.561295
0.562686
1.69632
0.225696
4.22511
-3.80587
0.246351
0.461677
0.783913
-0.975708
-3.45844
0.761485
-0.0406428
-2.97762
-0.403696
-0.366499
-0.0367696
-1.25271
0.19908
1.80607
0.35954
0.352418
-0.556624
-0.876366
0.723557
-0.330262
0.217983
-0.0236764
-1.09295
-0.806792
-0.514623
-0.258966
1.71077
0.293906
0.223828
-0.240638
-1.23582
1.46117
-0.691499
0.0702015
0.708771
0.180039
-1.81605
0.868155
1.3706
-0.366194
0.538007
-0.572249
-0.272853
-0.36121
-0.301365
0.129053
-0.0646178
0.590854
-1.21866
-1.42722
0.229518
-0.0902939
0.667018
1.34302
3.89354
-1.13159
-0.777241
4.3335
0.622518
2.48677
-0.573872
-2.02163
0.695932
1.54132
-6.03631
-4.74058
1.46162
1.29119
7.46319
3.65736
-0.329533
-5.05002
-3.20693
-0.817507
2.61567
-3.64259
-3.34192
-1.03964
