#input normalization
1 0
1 0
1 0
1 0
1 0
#output normalization
3.57394 135.817
#neurons weights
0.225545
-0.447711
-0.126812
0.233279
0.172365
8.58236
1.05295
1.04257
-27.8986
18.0269
0.988429
-2.69805
-1.4131
-1.12835
-1.49147
0.362693
-1.09319
1.9048
-5.45948
-0.642708
-23.3947
-1.46534
1.89248
33.8568
-0.0152437
-2.50868
1.47128
-0.298572
11.3884
-1.40329
-0.275974
-1.62972
-0.610641
-1.38547
1.20349
-2.34424
0.375978
1.00005
-0.0784039
-2.75778
-0.388819
1.23599
-0.952247
0.212955
0.440902
1.19997
0.816291
-0.342673
0.269795
-1.99571
1.54663
-1.40193
0.328174
-0.87433
1.20286
3.84388
#synapses weights
-0.0986777
-0.42827
-1.28659
0.832688
-4.53894
1.46396
-1.08796
-0.860621
11.772
0.703758
-1.51366
0.114348
0.361971
-2.78143
0.660424
-0.00677305
-0.636028
-0.0837537
-23.259
15.3092
0.0535499
-0.0750726
0.532476
14.8418
-5.3092
-6.16105
1.7192
1.73689
-2.62879
0.316558
-0.0941178
-0.666521
-1.19503
-9.05572
2.30582
0.0107042
0.0364844
0.154178
-7.10308
-2.78029
1.86636
-0.641506
0.806318
1.34444
-0.80059
0.989736
-1.76277
-1.33693
0.185281
-1.28871
2.16786
-0.360312
-0.343089
3.47532
0.300362
-2.25334
0.722064
1.06721
-9.78603
-0.179491
-1.56853
1.24488
0.821013
-0.166737
1.27188
-0.0315801
0.164452
-0.313837
-4.81912
0.916532
3.07311
-0.603839
-1.24487
7.77329
-0.708133
-0.019625
-0.386139
-0.211543
-13.0242
13.277
1.65331
-0.883931
0.157709
2.23746
-0.463891
-1.84805
0.441104
0.623683
-1.1149
1.26154
0.0344689
0.734697
0.349549
34.9516
-17.1736
-2.45251
1.65853
1.41865
-5.78132
-0.317953
1.61686
-1.74701
-2.85267
-1.31762
-1.31697
0.00588313
1.14681
1.41047
0.168673
1.13056
-2.86232
0.914827
1.28646
-5.86269
0.0258221
-0.0295491
0.493201
-0.270749
5.70995
-10.0002
2.80246
-1.328
-2.932
0.12479
-0.435388
-0.0691347
1.73989
-0.418125
-1.40515
-0.855341
-0.793521
-1.01613
-0.370465
0.372168
0.911498
-0.294874
-1.96576
-0.181958
-0.928416
1.49216
-0.567509
0.466916
0.309436
1.34531
-1.93465
-0.194711
-0.0842337
-1.69211
0.478382
0.342663
1.19075
2.23361
-1.05094
-1.54193
-1.64514
-1.73001
0.00570386
0.810779
-0.0849658
0.312902
-0.838438
-4.1163
-0.981881
-1.01772
2.66407
-2.51012
0.552878
1.44687
2.4236
-3.14871
0.174407
-0.924314
-3.3097
-0.87321
1.19182
0.792414
2.30334
-0.104214
-0.889763
-0.874853
-0.79292
-0.98107
0.5687
-0.0573416
-0.195976
-0.555053
-2.69146
0.0481155
-0.954404
2.52125
-1.54197
-0.102169
0.628667
1.43718
-1.64513
-0.141974
-0.26517
-2.40894
0.009816
0.861165
-1.1501
0.495079
-0.345636
-1.01544
-0.0915057
-0.515044
-0.887659
-0.319997
-0.507557
-0.45171
-0.809453
-1.27074
-0.568232
-1.03318
0.322226
-0.955965
-0.572203
0.359398
0.96484
-1.19392
-0.312082
-0.876117
-1.16018
-0.443863
-0.217316
-0.140223
0.668632
1.40947
-0.105471
0.969605
2.04249
0.643537
0.411038
-0.227203
-0.200049
-0.808582
0.583419
1.19471
-0.174306
1.25626
1.02473
-0.138176
-0.429448
1.76865
0.27794
0.231274
1.36056
0.506649
-1.01512
-0.524835
1.6738
2.02219
-2.10836
18.6038
8.51995
-1.14776
-1.70738
-2.61342
-0.57753
0.182535
-0.610115
-3.9578
-1.06595
2.91241
1.79187
-16.4261
-0.389297
-0.26619
29.5737
-3.40564
0.524947
-2.1512
-3.43106
6.20382
0.206107
-0.691798
-0.448112
-0.32259
-7.2142
-1.14509
0.316513
0.596879
2.7375
0.43913
-0.824921
0.207019
0.312711
0.675594
3.16945
0.0699443
6.27268
0.0565663
0.00886549
-15.3471
0.5827
0.0257305
0.793231
0.437834
-4.11365
0.0538096
1.51384
-0.418532
1.10376
-0.798311
5.38593
1.40696
-2.63306
-1.03644
-0.416155
-0.0279853
0.538853
1.83063
0.757491
2.43968
-0.36649
2.79344
0.105961
0.405492
-18.4816
1.90503
0.0794414
1.27032
2.02502
-0.428818
-0.235751
0.382116
1.4725
-0.592942
-1.16631
-0.760073
-0.576603
-1.03199
0.157017
-0.170899
0.741544
-0.786245
-2.20643
0.243289
-1.01457
2.07082
-0.7164
-0.063828
0.0504044
1.65026
-1.39066
-0.248023
-0.839557
-1.66413
0.0809843
0.386023
5.57787
1.44395
-2.72271
-7.05466
-2.09172
-0.348988
-4.7083
2.58804
-0.7636
-0.405652
-0.892637
-3.55547
-2.41658
0.672498
1.02628
-5.85839
-0.568929
-2.74666
30.8799
-3.9266
-0.754616
-2.77251
-3.74962
-0.169251
0.420375
1.68153
-0.648325
3.99208e-05
-1.5405
0.54009
0.0831328
-0.857224
1.27087
-0.11637
-0.177637
0.324467
0.658881
-0.815335
1.65411
-0.507877
-3.25575
0.306005
0.530766
-1.32085
0.122144
-0.212606
-0.546097
0.539713
1.83172
-0.348131
-0.559701
-2.64304
1.07093
1.56658
1.46492
1.34799
1.26629
-0.916382
-0.483342
-0.818019
1.21014
3.6389
0.478973
1.62293
-2.15768
1.29254
-0.548634
-0.715027
-2.40673
1.85305
-0.141429
0.350024
2.58226
-0.357571
-0.899088
0.432536
-0.0959293
-0.318344
0.149042
-1.79302
-0.443281
0.448036
3.62705
0.532538
0.346896
-0.567017
-0.186215
-0.843371
4.15956
0.268306
12.2775
-0.124263
-0.497507
1.73697
-0.472366
0.488728
-0.762485
0.26553
-2.75093
0.207461
-2.40355
0.487826
-0.0672288
-1.75138
-6.56222
0.485143
3.4424
1.58556
-0.441394
0.0481486
-0.0867527
-0.715296
0.403231
-3.31624
0.401832
9.92352
-0.0801685
0.124444
0.750285
-0.558001
0.17905
-0.0242513
-0.488122
-3.30581
-0.850802
0.878942
-0.556002
0.307453
0.985079
0.587128
1.22274
-0.11307
-0.149304
0.296839
0.133841
-0.0635015
1.02053
0.0978031
1.6749
-1.38501
0.568114
0.0879087
0.40745
-0.760639
0.604046
0.571898
0.0230623
1.08102
0.277449
-0.468101
2.39332
-0.694223
1.43486
7.84544
-0.391103
1.50493
-1.6825
0.223385
-0.522006
0.0906315
0.36514
2.07441
0.616776
5.38856
-1.18741
-1.26213
0.178851
0.669705
-11.5514
1.44978
0.245998
1.30553
1.46991
-1.65837
0.384538
0.664688
0.588657
0.522656
0.34777
0.792532
0.0565708
0.518434
0.798832
-0.288347
-0.289513
0.329763
0.361692
1.04789
-0.95657
0.389629
-0.575633
0.0109401
1.50585
2.16715
0.421024
0.0583958
0.966454
0.373073
0.566016
-0.209728
-0.270918
-1.10251
-1.21613
15.7643
-12.7969
0.784938
1.50326
-4.26682
-1.03518
0.00603204
1.75834
0.326393
-0.488996
6.07958
-1.00952
5.96709
-0.438213
0.193791
-1.5806
0.450194
0.217171
-0.27113
-0.568674
-12.6833
-0.939816
1.10744
-0.205898
0.438213
-0.649106
1.19876
0.219516
0.0280993
-0.189765
0.189699
0.391305
0.116734
0.482883
0.0972124
0.170444
0.273503
0.404145
0.17759
0.481842
-0.808213
0.278952
-0.200642
-0.202168
0.167933
0.080963
0.136776
-1.60443
-1.29125
-0.76953
0.561534
-0.245764
-0.37829
0.385746
-0.823397
-0.583341
-1.14433
0.458238
-0.00262742
-0.931234
-0.247591
-1.75599
-0.262377
-1.14463
-0.777473
-1.6338
-0.457663
-0.768062
-1.4685
-0.534106
-1.47936
-1.48617
3.12106
0.226672
1.59882
10.8706
-4.56337
1.22213
-2.29621
1.55885
-1.11698
0.47228
-0.810309
0.856736
0.501832
3.2349
-0.324374
2.31121
-0.371433
-0.673271
-27.0024
1.01364
0.605253
1.29094
1.31199
-1.29391
0.239885
-2.27714
-1.8451
-0.623799
0.94996
1.17895
-2.87054
-0.846267
-2.41408
-0.181377
-0.82172
0.750169
0.416799
-1.36287
-0.38617
-1.71371
0.515871
-0.538387
-1.68615
-4.31099
0.810381
0.310568
-0.362112
-0.0779994
-2.67548
-2.33044
-0.49507
0.26527
0.981477
-7.24658
2.42739
1.00706
0.612486
-2.83217
0.430702
-0.723374
-0.183054
-0.276087
0.950816
-7.8555
0.475126
3.50872
-0.208345
0.344578
-2.04801
-0.0836489
-0.178645
1.22751
0.435241
0.74195
0.235412
-0.822397
-0.235153
-0.167669
-1.2282
-0.996386
-0.423444
-0.320209
-0.64193
0.0799947
-0.30838
-0.631434
-1.25122
-0.624253
-0.578123
0.0803176
-0.939075
-0.712767
-0.301086
0.0513047
-0.434572
-0.842715
-0.962846
-0.483535
-0.51383
0.137409
-2.43817
0.0593822
1.31344
5.61458
0.147431
0.847751
-1.66301
0.473468
-0.0655181
-0.286414
0.242619
1.40006
1.25223
2.06059
0.171291
-2.91016
0.118966
1.93833
-11.0115
1.2454
-0.650413
1.0287
0.588487
1.44176
0.305584
-4.95902
-3.94081
-3.61434
0.539173
2.12081
-12.0315
-18.2278
-19.8959
-2.77503
-10.8292
5.25479
9.2713
-14.8322
8.06204
2.08056
11.7732
4.56036
10.2465
1.42776
3.59293
-5.54145
5.91548
-12.4536
1.38755
4.56738
