#input normalization
1 0
1 0
1 0
1 0
1 0
#output normalization
3.57394 135.817
#neurons weights
-0.125704
0.452205
0.00144481
-0.185544
-0.399582
-1.62453
-2.60212
1.68404
7.82234
-0.430751
1.19864
0.424677
1.6196
-1.26969
-1.07599
11.1933
1.46277
1.65433
-10.8041
-16.4446
-0.547485
5.05457
-13.6194
0.766385
-6.27805
2.81992
8.50112
-0.90495
2.79314
17.3695
0.851891
-1.12783
0.0389505
-0.767468
0.863753
1.26953
0.582185
0.87391
0.340777
-0.51911
1.24557
0.564956
-1.38403
1.72594
0.463551
-0.512585
1.95469
-0.296269
1.97596
1.13796
-0.669254
0.884813
-1.75944
-0.940203
-1.19213
-1.22745
#synapses weights
3.31201
-1.58207
0.733896
9.07337
-0.999764
1.09202
-5.79653
-2.35805
1.29215
0.231339
0.187706
0.734671
1.61669
3.19409
1.20665
-0.305967
-0.539712
-3.06591
-0.541326
-0.464038
2.98374
-0.596849
-7.38164
-1.87033
-0.795519
-3.41774
0.358395
2.61215
-1.90029
0.397812
-0.214151
1.06192
1.02807
-4.79344
1.51072
-0.768514
1.74
1.21381
-2.53165
1.10382
-0.0886358
0.0587642
-0.885808
-4.90804
1.06711
3.19066
-0.747783
-3.85563
-0.166354
-0.135329
0.0643807
0.937686
0.529844
15.6166
-5.44937
-2.46905
0.115515
2.3885
0.787383
1.00708
-1.37706
-0.366832
3.4335
0.498213
0.82405
-0.0116732
-0.374013
0.0203856
-12.2596
1.29762
0.00636326
0.00836044
0.0351769
-12.1093
9.96827
4.01425
-1.33251
-6.29875
-3.58332
-0.552646
0.049656
-0.11164
0.654663
13.2098
0.60358
0.0200559
-0.296788
0.191623
-9.34893
8.12627
-3.17227
0.50925
2.6169
-0.586009
0.810291
0.0274821
0.352282
0.469436
-13.6272
-2.36308
0.0483119
-0.36058
0.591752
0.849197
-1.64571
0.0621237
0.233348
0.551215
9.98022
-2.47478
2.8167
-0.807636
-1.6256
-0.238247
-1.20437
-2.56237
0.836953
2.09147
4.39499
2.79522
-0.0227586
0.563589
-0.181556
11.7353
-12.4961
-1.57209
-0.712727
0.767095
-1.20555
-0.547329
2.48183
0.453332
1.22775
1.81225
-0.595066
-1.00202
0.31535
0.650847
2.56452
4.36701
-0.623687
-1.97785
2.6804
0.31277
1.5373
-0.446054
-1.05776
-0.115337
0.655549
-3.5444
0.750314
0.649696
0.120691
2.68718
0.240393
-2.67399
0.179964
-0.334555
-2.35398
-0.916439
2.27799
0.0897262
-0.203914
-2.67054
-7.09648
0.105435
1.08861
-2.99719
0.0268608
-3.17557
0.277671
3.95793
0.190823
-0.0369451
5.09961
0.362833
0.763908
-0.4434
0.614161
-0.191586
-0.697866
0.343753
0.0872256
-0.927545
-0.381022
0.614508
0.0772559
-0.118013
-1.29945
-1.80972
0.44346
0.933021
-1.2318
-0.296075
-1.12511
0.953128
1.0382
0.442921
0.0565472
1.5002
1.80477
-0.680015
-0.855339
1.46261
-0.0415113
-1.49594
-1.58806
-1.04906
-2.00152
-0.182363
7.13805
-0.845283
-0.626225
-4.80197
-10.6005
-0.144037
3.95456
-5.32336
-0.912334
-4.21781
2.34143
1.16436
0.174489
-0.986491
6.99224
-0.180713
-0.0913457
0.446828
0.249548
-0.151448
2.19939
-0.681702
0.0908153
0.45844
0.466293
-4.99339
0.188538
0.0575804
3.29986
10.3232
0.226599
-4.188
7.71524
0.455729
2.68354
-1.41806
-1.38137
-0.845446
0.70269
-5.22113
-1.72372
0.999963
1.12502
-0.883831
0.351421
2.73948
2.28754
0.965855
2.09086
0.634915
-10.3128
0.466474
1.20572
0.611148
14.2271
-0.163337
-7.62723
7.29061
0.541308
6.13237
-2.70437
-1.09457
0.0190652
0.478632
-13.8263
-0.81638
-0.19521
0.0439612
-1.41635
-0.22827
2.34799
0.756338
1.32766
1.90202
-0.312309
-2.34628
0.0704818
1.29487
2.43482
5.36301
-0.232837
-2.05187
3.3039
1.21342
2.18026
-1.02187
-0.985407
-0.74163
0.953648
-4.38203
-0.586903
2.64932
-3.12916
-2.23028
0.066491
0.251173
0.821566
1.26503
5.80988
-0.904437
-3.69176
0.39647
-0.145327
2.1178
9.38642
-0.183448
-4.94093
7.48018
0.431429
8.99823
-2.30501
-9.4905
-0.151704
0.635185
-14.4358
-0.904144
0.620488
-0.472156
0.0707355
-0.442258
1.95529
-0.471721
-0.847529
1.64845
0.476497
-5.20616
-0.0144954
-0.0703511
5.59399
11.4605
-0.551553
-0.552653
4.13864
0.0880114
0.982917
-1.27126
-6.15419
-0.231966
-0.170689
-4.24391
0.805421
0.577596
-0.297502
0.176868
0.616008
-1.46314
-0.186611
-0.678054
-0.740571
-0.271355
1.29928
-0.949665
-0.807326
-1.49963
-3.38264
0.0742397
0.540521
-2.64179
-0.289584
-1.24654
0.672878
0.893483
0.422178
-0.589627
2.76692
-0.421236
-0.394373
1.44424
-0.051361
0.620845
0.93425
2.73468
1.86353
0.664299
-0.478831
0.975438
1.65156
1.67619
-4.71476
-4.67619
0.940506
0.643856
-12.9815
1.35644
-2.10038
2.21592
4.20023
0.449499
2.20409
2.96203
-0.901437
-0.608662
0.587312
-0.917504
0.394219
1.90108
0.95383
1.0424
1.49571
-0.396338
-1.49146
0.0532192
0.79712
1.78809
3.4199
-0.336444
-1.35172
1.69366
1.10665
1.34985
-0.423816
-0.899113
0.289674
0.705056
-2.66546
-0.0324734
0.423547
-0.35951
0.303303
0.11321
-1.47902
0.3064
0.281997
-2.19485
-0.0597431
3.78671
-0.859241
-0.38569
-0.12998
-4.40958
0.325515
1.50013
-1.85656
-1.02466
-0.899187
-0.11891
1.57876
1.00237
0.14787
4.04239
0.839563
1.16525
1.38792
1.45114
0.642647
0.568365
0.142782
0.403068
-0.752897
0.650465
2.32029
0.93154
0.954578
-0.947094
-0.219793
1.08353
0.855788
0.561598
1.32002
-0.099607
1.15457
1.36064
0.60087
1.66828
2.23723
0.9261
-3.42603
0.500102
-0.101421
0.151307
-0.867903
-0.262047
0.446501
-0.41503
-0.486572
11.6368
-0.164323
0.939799
-4.08292
-4.98887
0.439394
0.083633
-1.18597
0.751731
3.20831
3.26133
-2.92974
1.12898
-1.06771
5.69492
-0.00325562
-0.291139
-0.339429
1.69686
-0.0128235
-1.78685
0.253442
0.0591456
-0.848419
-0.422233
-0.271238
-0.0984456
-0.105839
-0.0338891
-1.12102
0.318412
-1.0021
-1.52218
-0.155449
-1.22615
-0.1572
0.878959
0.495556
0.697814
0.237191
-0.0675378
-0.0474064
1.69152
0.456727
0.286397
2.2913
-0.899741
-0.950544
1.89362
1.76986
0.395988
0.75276
0.888687
-0.0431297
2.95286
-0.414705
-0.842611
3.31578
0.988474
0.523435
1.64285
-0.151764
-1.32337
-1.255
-0.957386
-0.362115
2.5648
0.358864
0.0692896
0.0905111
-0.270848
-0.460228
0.0602562
1.22883
-0.224356
-3.98788
-0.649065
-0.00974643
4.02788
5.92349
-0.217341
-1.81832
3.98886
-0.395538
2.09376
-1.48339
-3.46284
-0.898515
-0.937183
-3.63566
0.672163
1.00198
-0.972731
0.202215
1.27771
1.98629
2.75053
2.31806
2.42461
-0.33887
-0.976301
0.551989
1.06345
4.36814
4.68659
0.72621
0.119586
1.64435
1.72304
2.87886
-1.23013
-0.255061
1.18129
2.19688
-4.77744
-0.167796
0.693372
0.831984
-2.37715
0.276212
2.38767
-0.247072
0.097549
2.23432
0.91281
-4.52629
0.33503
0.489304
2.50125
7.17253
0.259124
-3.8868
5.06346
1.09084
2.96324
0.0807428
-2.06273
-0.401378
0.426469
-6.41317
0.479698
0.223927
0.217044
1.33802
-0.316164
-0.519961
0.366012
0.468898
0.21056
-0.896527
1.15799
0.52255
-0.384065
-1.65009
-3.39526
0.214887
-0.448943
-1.46724
0.124996
-3.36829
-0.439639
0.167743
-0.0870366
0.866595
3.43483
0.233961
0.339095
0.892244
0.572557
0.399552
0.815172
0.0567107
0.502699
0.776031
0.0407826
0.3842
-0.104502
0.831556
0.110877
0.844436
-0.293912
0.05933
0.330598
0.673276
0.522006
0.654158
0.170099
-0.486962
0.503752
0.216105
-0.928612
-0.794195
-0.857754
-0.000311987
-0.42684
-2.22424
-0.651304
-0.109986
-1.33725
-0.504889
0.34476
-0.812632
-0.608115
-1.61335
-2.63447
-0.163444
0.348818
-2.33812
-1.39594
-1.72713
-0.127483
-0.120727
0.171186
-0.341842
1.42335
-1.23411
0.580778
-0.20376
0.106138
-0.71525
-0.602234
0.623403
1.38615
3.14842
-0.649994
-4.26931
-0.897643
-0.715742
8.12538
2.44931
0.0431046
0.443276
-0.839328
-0.273654
-4.63138
-4.84858
4.69748
0.133648
0.341072
-12.351
1.29327
-0.17951
-0.95042
0.169085
-0.534454
-1.82582
-1.35424
-1.9224
-1.77726
-0.364922
1.90603
-0.642803
-0.926142
-2.85867
-4.75363
0.167815
2.23203
-3.12223
-0.891003
-2.02032
1.36206
1.15955
-0.460824
-0.637288
3.97162
0.185776
-6.34127
-1.71833
-7.76599
-9.64311
9.36306
4.0926
8.93602
-10.2626
-3.20846
7.86563
3.23311
4.37207
-4.82948
6.23958
4.84531
-11.7547
4.33013
7.73344
-7.63586
3.61561
-4.68386
4.12079
14.3072
-6.47722
