#input normalization
1 0
1 0
1 0
1 0
1 0
#output normalization
2.95571 134.779
#neurons weights
0.339648
-0.0887834
0.18539
-0.05725
0.32551
-5.2168
0.671471
0.716443
0.156598
0.446099
-0.949703
-0.97832
-0.730924
-0.193129
3.41228
7.12129
-0.827728
2.86793
-0.295419
0.69131
-0.489912
1.12763
-1.36695
1.25418
-0.431067
-5.4634
0.000331985
0.614334
-0.592803
0.162294
0.413695
-0.306852
-0.46214
0.429318
0.114573
-0.231382
-0.0457684
-0.525232
0.194252
0.208095
-0.214046
0.423043
0.0810789
-0.0371588
0.324484
-0.428925
-0.325723
-0.0761217
-0.324069
-0.143613
-0.104694
0.338399
0.433573
-0.0692579
-0.270416
-0.605095
#synapses weights
-1.0898
-0.0184015
0.0769203
-0.678436
-2.66377
-0.190808
0.308424
-0.205748
0.358527
0.372734
0.459236
-0.0768434
-0.104142
2.16656
-0.724026
-0.269908
0.0122073
-0.180747
-0.0779387
-0.197865
0.485909
-0.652175
-1.17435
-0.832844
0.230846
-1.06585
-0.0923807
0.122016
0.253638
-1.83536
-0.322497
-0.0224646
-0.0585755
-1.13243
-1.18093
1.09488
-0.368793
-0.438081
2.65192
-0.759312
-1.02892
0.42251
0.494575
-0.163058
0.218505
-0.158382
0.0441783
0.0292041
3.65701
-1.76564
2.00094
0.0757773
-0.195737
0.146977
5.51795
1.31887
-0.269389
-0.981459
-1.90351
-0.68288
0.0220038
-0.00891386
0.0125837
-3.70537
-0.883052
0.0821053
0.279645
-0.0564139
1.84845
0.348359
0.661334
0.128949
-0.0615562
-1.29905
0.963055
1.53145
-0.233327
-1.12414
-0.560429
0.106487
-1.42508
0.322698
0.587722
-0.168306
0.170279
-0.577253
-0.122874
0.105845
-0.925573
-0.92495
-0.722778
0.121493
0.238642
-0.491573
0.842152
0.22002
0.0118576
0.0697031
0.213103
-0.2802
-1.25829
-0.0251288
0.140984
0.232263
-3.97435
0.397103
0.355976
-0.243327
-0.30711
-0.153169
-1.19226
0.0445197
-0.0482263
0.062165
-0.204031
0.971524
-0.0440831
-0.0756537
0.407487
-0.884789
-0.0141056
0.167725
0.146625
-0.894549
-0.357696
0.791027
0.0883849
0.998863
0.224046
0.261096
0.487364
0.421714
0.354694
0.810396
-1.21514
1.03229
0.777282
-0.962451
-0.664907
0.794734
0.0720143
0.0381718
-1.17977
0.510039
-0.51763
1.12905
0.264675
-0.264258
-0.69851
-0.25311
-0.861154
0.390488
-0.525814
-0.115941
0.178199
-0.27934
-0.504748
-0.305769
0.296307
0.643756
-0.213112
-0.67457
1.24169
0.306713
-0.475203
-0.193067
-0.252878
0.119095
-0.410059
-0.150505
-1.33925
-0.241543
0.177315
0.618762
0.0145515
1.25083
-0.366458
-0.00730329
0.30289
-0.321285
0.672889
0.705811
-0.0887154
0.523654
-1.40994
0.372807
0.310297
-1.07906
-0.286273
0.174975
-0.400275
-0.0155474
0.027576
0.334535
-0.459003
1.01645
0.0420594
-0.0406882
0.450204
0.174061
1.33932
0.335995
0.858791
0.293898
0.400242
0.258879
1.00749
0.664088
-0.101552
-1.14624
0.71348
0.62999
-1.46281
-0.796551
0.623475
-0.0441974
0.113523
-0.88506
0.566808
0.089911
1.0964
0.0092365
0.277365
-0.289858
-0.699743
-0.210362
-0.385901
0.308847
0.408591
0.409285
-0.219527
0.293226
0.212763
0.00312211
0.579248
-0.139737
-0.31773
0.593801
-0.238595
0.274874
-0.273734
-0.0982068
0.367809
-0.276684
-0.284784
-0.67218
-0.576599
-0.439259
-0.374225
0.213306
0.811827
0.209722
0.0395016
-0.348502
-0.16378
0.544425
0.407789
0.386075
0.435813
-0.0336299
-0.14038
-0.25693
-1.08525
0.320698
-0.0246645
0.14399
0.165563
-0.572504
-0.000374568
-0.418363
1.20451
-0.256925
-0.209292
0.267289
-0.43463
-0.427962
-0.0184063
-0.633239
-0.243951
-0.246658
-0.132523
-0.376703
-0.838909
0.0481495
0.691273
-1.20794
0.0746496
0.846484
-0.451062
-0.539048
0.13702
-0.417148
0.0510357
-0.313097
0.102634
-0.986476
0.206604
0.122583
0.318244
0.112937
-0.332855
-0.412074
-0.564313
0.208343
-0.513682
0.109032
0.0126512
0.0370635
-0.349618
0.927626
-1.14184
0.169681
0.815624
-0.353424
-0.179052
0.251388
-0.0765815
-0.341035
-0.363334
0.384419
-0.839477
-0.0682083
0.206366
-0.63821
0.0861572
0.363389
0.350781
-0.23199
0.0710071
0.496744
0.249159
0.647674
0.340254
-0.264846
-0.914604
-0.0512274
0.298858
-1.0135
-0.319838
0.636681
-0.284997
0.182444
-0.462287
0.349832
-0.100898
0.520827
0.093877
0.286735
0.20423
0.295223
-0.308539
-0.0993076
-0.0618143
-0.0305699
0.293382
-0.129003
-0.376965
-0.591329
-0.325851
-0.080152
-0.292558
0.0124249
0.439452
-0.307825
-0.15716
-0.29355
-0.223223
0.0271266
0.0665484
-0.0786525
0.0547976
0.48193
0.184407
0.596307
0.446081
0.0980951
0.0630311
0.594134
0.108714
0.246936
0.122979
0.520197
-0.0393885
-0.433424
-0.330626
0.0761541
0.432891
-0.54619
-0.526843
0.643429
0.321972
0.0769694
0.0570054
0.490916
-0.377635
0.733199
0.428385
-0.270638
0.0532236
0.207955
-0.689923
0.102042
-0.4825
-0.558605
0.145818
-0.473369
-0.66317
-0.143907
-0.402673
1.574
-1.68625
-0.201273
0.968443
-0.0819191
-0.194402
-0.431589
-0.0906423
-0.0317761
0.100419
-0.274142
-1.19274
-0.182816
-0.208303
-0.131308
-0.443527
-0.0024996
0.522298
0.469709
0.0026013
0.188811
0.305641
0.0226795
0.060288
0.600275
-0.543393
0.0929325
0.481621
-0.690591
-0.580977
0.288068
-0.0562233
-0.205481
-0.236735
0.471972
0.220697
0.631823
-0.326947
-0.191331
-0.650478
0.225863
-1.81578
0.0835164
-0.407079
-0.423447
0.540183
-0.837931
-0.723878
-0.229828
-0.752314
2.22356
-0.499511
-0.848512
2.21351
1.15441
-0.311525
0.718879
0.0607463
0.85457
-0.365189
-0.0482819
-1.7521
-0.30952
-0.269476
0.890609
-0.816492
0.471611
-0.214984
0.162496
0.176511
-0.0114432
0.0242199
-0.141906
0.0446603
-0.0167961
-0.334659
-0.205868
0.302758
-0.427404
0.125079
-0.233236
-0.0727581
0.287245
0.120352
0.322617
0.39086
0.618585
-0.387174
0.24245
0.0940197
-0.0528985
0.734457
-0.358944
0.443399
0.180769
-0.365205
0.790913
0.500484
0.908166
0.0904611
-1.61868
0.646667
0.393493
-0.861049
-0.636729
0.734544
-0.196356
0.309531
-0.729825
0.437173
-0.393232
1.67371
-0.322353
0.30575
-0.775125
0.662053
-1.58761
0.00681684
-0.8296
-0.351211
0.308893
-0.784705
-0.964311
-0.153477
-0.16686
1.75484
-0.383701
-0.11815
1.51096
0.31741
-0.604389
0.361844
-0.247835
0.511466
0.184093
0.130965
-1.18206
-0.589262
-0.301328
-0.207308
0.1974
0.353289
0.425329
0.717464
0.25198
-0.108109
-0.164551
0.715592
0.060316
0.337119
-0.61888
1.56444
0.712302
-0.939767
-0.260462
0.567197
-0.449981
0.470263
-0.516449
-0.097281
-0.29545
1.29477
0.482511
0.34659
0.0917427
-0.437098
-1.12455
0.185897
-0.0461174
-0.260244
-0.273916
-0.209956
-0.432899
-0.378274
-0.0729452
1.05251
-0.351967
-0.0145343
0.563473
0.592029
-0.762888
0.207629
-0.440301
0.535331
-0.0431735
0.570085
-0.637995
0.0949994
-0.311338
0.567817
0.144621
0.800585
0.783639
0.104795
-0.148675
0.625641
0.629721
1.01266
0.648055
-0.135955
-0.873302
1.82513
0.160308
-1.70739
0.0232857
0.0855442
-0.299069
0.492582
-0.684204
-0.220724
0.42481
1.46306
0.55376
-0.161701
-0.251949
0.256911
0.228399
0.437295
0.0619193
0.495717
0.368526
-0.298616
0.229883
-0.404053
0.27073
0.264164
-0.379557
-0.547292
0.581066
0.0499652
0.163251
-0.0724868
-0.293588
-0.142137
0.152147
0.119805
-0.213232
-0.225731
0.169464
0.495493
-0.267586
0.125314
0.389098
0.454864
-0.280953
-0.45979
0.463493
-0.295935
-0.0334129
0.079546
0.116242
0.455199
-0.224147
-0.223381
-0.506285
0.384458
-0.00161504
-0.454078
-0.112972
0.191121
-0.54136
0.160831
-0.43524
0.400702
-0.28744
-0.386312
1.78797
-0.340209
0.985863
0.412617
0.133428
0.284382
0.689134
0.684379
-0.0128847
-2.16029
0.185535
0.448134
-2.48204
-0.679554
0.59752
-0.0416508
0.419091
-0.492683
0.327656
0.039495
2.32326
0.522611
0.520195
-0.156719
-0.0649554
-0.362157
-0.345136
-0.352648
-0.243127
0.385729
-0.047097
-0.0491333
-0.667227
-0.306883
0.83824
-1.0028
-0.251406
1.18722
-0.0409276
-0.160854
0.299584
-0.43768
0.422714
0.237684
0.561396
-1.53412
0.0546805
-0.530145
0.690086
0.0794932
-0.17766
-0.69067
-0.0369255
0.11933
0.105504
0.43536
0.377362
-0.320674
-0.253614
-0.518428
0.0156083
-0.231094
-0.301367
0.447659
0.196819
0.56163
-0.0956772
0.547698
-0.315781
0.104747
-0.82971
-0.234686
-0.222281
0.0986447
0.0569084
2.55869
-2.01231
2.65138
3.34721
-1.25369
1.4546
-2.41656
-1.92722
1.63516
-0.345158
0.939262
-3.19568
0.752137
-4.06457
0.683974
2.64977
-3.77467
2.2547
-2.07142
3.10091
-0.644639
0.462739
4.64063
-2.1722
0.410863
