#input normalization
1 0
1 0
1 0
1 0
1 0
#output normalization
2.95571 134.779
#neurons weights
-0.374534
-0.408392
-0.0166171
-0.43241
0.114136
-5.37951
0.322453
1.0906
-0.935955
1.15112
0.436298
-0.106278
0.752021
0.0079076
-0.436766
0.749312
1.13051
0.50654
2.58476
0.131422
-7.39922
-2.245
-0.19264
0.854424
-1.76242
-0.771105
0.800142
0.420625
4.24627
-2.24865
0.479789
-0.122856
0.3388
-0.37182
0.368199
0.415936
0.365793
-0.448585
-0.522344
0.698106
0.28616
-0.352078
-0.170962
0.215059
0.247569
-0.247667
-0.248239
0.0343362
-0.139074
0.306787
0.0664256
0.286252
0.184631
0.177821
0.250493
-0.42682
#synapses weights
-1.9176
-0.00279791
0.202784
0.207682
-4.37858
-0.754717
0.158861
0.752427
-0.845776
0.553105
-1.15029
0.699105
0.372938
0.132281
0.285364
1.30295
-0.756845
0.165109
-0.799051
-0.338046
-1.81058
0.403337
-0.406174
0.0647856
1.62821
0.345216
0.0366798
0.153961
-0.0306249
1.15016
-0.946307
-0.0306659
0.151012
1.87833
-0.0613007
-0.522419
1.30429
-0.883544
-0.975341
0.431939
0.0770786
0.0573096
0.0489077
1.843
-0.207346
1.6533
-0.732748
-4.53659
-1.18934
0.0669549
-1.4241
0.205786
0.558814
0.488564
0.485566
-1.77172
0.767994
4.99393
0.789653
1.13552
-1.79687
0.543068
1.12029
-1.88478
0.643183
0.828954
0.00334994
-0.14359
1.17742
1.07464
0.51243
-0.370523
-0.366133
-0.336662
-0.318981
-1.09343
-0.0117881
0.143448
-1.27379
-0.868187
0.115913
0.00565296
-0.0157054
3.16172
0.725592
-0.314026
0.658146
0.73161
0.547488
-0.287574
-0.314008
-0.0109021
0.054839
2.82515
-0.792968
-0.496462
-0.00584848
-0.0201124
1.27263
-2.25771
0.288352
-0.0135446
0.498162
0.458013
-0.649875
-1.89237
0.599112
1.38868
-1.26368
0.336026
-0.493247
0.270818
0.550848
-1.19729
0.418572
1.19658
0.00555122
-0.126825
-0.443631
2.45309
0.477732
-0.0572278
-0.143248
-5.86487
-0.885809
0.137906
-0.034285
0.082729
-0.626473
-0.0338573
0.149469
0.196435
0.446764
-0.215746
0.0706578
0.441706
-0.0902809
-0.379368
0.565643
-0.350568
-1.86963
-1.995
-0.687816
1.43319
-0.920117
0.341159
-0.430868
-0.0363365
-1.22311
-0.402831
-0.128716
0.00294009
0.0875909
0.48047
0.243144
-0.725072
-0.0665549
-0.143929
0.492716
0.286898
0.482361
-0.800969
-0.279064
-0.245482
-0.125182
1.27124
1.27271
0.0783385
-0.650561
0.444766
-0.09406
0.356537
0.329427
0.796086
0.751988
0.239617
-0.238426
0.0532437
0.40444
0.189635
-0.712885
0.00259545
-0.518005
-0.107393
0.101251
0.301962
-0.554101
-0.37912
0.1469
0.450117
1.79723
1.75553
0.167125
-0.908127
1.21128
-0.130827
0.300286
-0.169404
0.767677
1.01012
0.214782
-0.266438
0.514511
-0.147198
-0.000991369
-0.699925
0.387657
0.343744
0.334664
-0.255327
0.209432
-0.56689
-0.126375
0.0567381
-0.321631
0.747205
0.913323
-0.174931
-0.356119
0.599519
0.566372
0.158885
-0.180126
1.06951
0.675888
-0.731174
0.290475
0.0693932
-0.0867551
0.22099
-0.913133
0.411081
0.28539
-0.35318
0.288609
0.197209
-1.03149
-0.36279
-0.34787
-0.561118
3.21229
1.71053
0.0700656
-1.62673
1.77722
-0.632295
0.13818
-0.358644
1.11167
0.929733
0.680581
0.0485567
0.0488364
-0.325327
1.19129
-0.7639
0.301203
0.408414
1.18392
0.693335
-0.00819254
-0.757122
-1.04001
0.176075
0.210278
0.694563
1.14555
-0.640111
-1.14461
0.793715
-0.510419
0.410291
-0.67022
2.05203
1.20648
-1.12384
-0.440121
0.22618
-0.519423
0.311037
0.185405
-0.134982
-0.252411
-0.409072
-0.073823
0.0782897
0.856105
-0.214936
1.36813
0.566111
-1.09508
-1.96526
-0.551427
1.59151
-0.574346
-0.210117
-0.380066
0.425269
-0.533197
-0.406766
1.14068
-0.145305
0.614746
-0.311028
0.77421
-0.364593
1.03864
0.0613767
1.27565
0.322253
0.230038
-1.17516
-1.03291
-0.399446
0.647269
1.93963
1.83436
-0.903566
-1.79234
1.40647
-0.226588
1.01843
-1.16297
3.23121
1.16014
-0.390683
0.0786325
-0.0358173
0.0510486
-1.08286
0.0818288
-0.409744
0.0853443
-0.0573705
-0.591394
0.312007
1.02706
-0.291533
-0.254585
-0.276198
-0.549111
-0.767955
0.343605
0.608907
-0.04761
-0.217922
0.0815195
0.00989626
-0.38078
0.0110556
-0.335547
0.152036
0.0454848
0.668354
-0.224946
0.785391
-0.510671
0.281108
-0.530447
0.149571
-0.273338
0.234388
0.370172
0.938111
0.503234
-2.16397
-2.24859
-0.592689
1.87228
-1.30923
0.203183
-0.352283
0.129997
-1.06761
-1.15067
-0.00845668
0.372071
0.561774
-0.190847
0.567587
0.568891
0.099853
-0.246913
0.605516
0.0203493
0.197061
0.500102
0.263469
-0.254923
-0.1238
-0.122505
0.358386
-0.0290541
0.36197
0.0453518
0.056795
-0.19544
0.328543
-0.144638
0.0466975
0.179861
-0.358719
-0.684053
0.120296
-0.729091
0.469429
-0.116098
0.51728
0.0546193
-0.0298374
-0.330054
0.614952
0.184946
0.563331
0.469647
-0.909377
-0.829752
0.429101
0.455592
-0.372666
0.099501
0.244708
0.198757
-0.415643
-0.145338
0.451395
-0.340884
0.414508
-0.131835
-0.187373
-0.19168
0.372503
-0.159098
-0.163706
0.0031129
0.208112
-0.0340379
-0.738206
-0.463657
0.0183908
1.00626
1.2878
0.0608318
-0.795481
0.904261
0.068337
-0.00755786
0.0579738
1.10534
0.619349
0.125053
-0.0730159
-0.265527
-0.283782
0.692887
-0.345915
0.391286
-0.257886
0.466814
0.337587
0.297928
-0.353389
-0.373663
0.246049
-0.00177277
0.539563
-0.00409855
-0.375762
-0.589692
-0.179924
-0.344071
-0.255943
-0.285048
-0.0832331
0.77347
1.31568
-0.0812347
-0.20747
0.157745
-0.638081
0.444674
-0.347145
-0.144617
0.593175
0.242485
-0.282144
0.64331
-0.342693
0.139786
0.728194
-1.81383
-0.951495
0.331599
0.943061
-0.18307
0.344595
0.111857
0.118388
-0.846539
-0.597548
-0.7585
0.427175
-0.12311
0.00606856
0.441772
0.699007
0.0838842
-0.42437
0.259028
0.582684
0.240031
0.285451
-0.346716
0.395273
0.0620401
-1.15891
-1.08136
0.335498
0.603394
-0.195929
-0.689524
-0.114131
-0.384235
-1.13722
0.270849
0.316335
-0.025473
-0.425861
-0.249634
-0.641099
-0.20892
-0.521519
-0.124228
0.306561
0.158947
-0.438902
0.445861
0.0127671
-0.227337
0.345466
0.0625777
0.101441
-0.114055
0.240899
0.38228
0.319981
0.131529
0.0363358
0.128633
-0.374074
-0.122487
-0.134244
0.317655
0.172911
0.341642
0.30424
-0.540169
0.342048
0.453568
-0.24709
-0.155989
-0.319429
0.0195579
0.361069
0.314954
-0.373828
-0.515632
-0.263023
0.428528
-0.180314
0.349246
-0.299699
0.113753
-0.243988
0.285461
0.271954
0.00211663
-0.25956
-0.476697
0.43436
-0.213388
0.331906
0.424525
0.722799
-0.0549833
0.231431
-0.182228
-0.232569
-0.287405
0.327867
0.0834358
1.22851
0.1035
-0.823383
0.565295
-0.370716
0.159873
-0.530593
1.30928
0.805875
-0.703236
-0.199441
0.449079
0.305391
-0.473306
0.507292
0.0742333
0.0126305
0.231727
0.895519
0.277605
0.351536
-0.529807
0.913188
-0.145075
-1.13705
-1.48209
0.232843
0.606038
-0.484545
-0.178406
-0.0278404
0.119866
-1.48234
-0.415892
-0.0122804
-0.189698
0.446889
-0.532681
-0.328469
-0.0964965
0.406976
-0.443032
-0.396203
-0.00227055
0.203869
0.248458
-0.34585
0.215504
-0.490762
-0.177879
-0.441065
0.109171
-0.339154
-0.495016
-0.0232034
0.13764
-0.422658
-0.655337
0.382496
-0.483416
0.175894
-0.672546
0.117301
-0.815597
-0.19377
-0.442542
0.285154
-0.30984
0.44268
-0.0368079
1.11712
0.545216
-0.315228
0.900801
-0.75484
-1.50716
0.138823
1.19236
-0.839155
-0.326756
-0.204067
-0.262992
-0.973627
-0.898459
0.499136
0.250404
-0.168892
-0.338094
0.184148
-0.306448
0.446265
0.322682
-0.15938
-0.330112
0.543608
-0.477367
-0.276783
-0.351386
0.0867421
0.127225
0.906012
-0.12554
-1.01426
0.401718
0.295917
-0.278577
-0.126961
0.788155
0.462117
-0.115472
-0.36329
0.411628
-0.118267
0.201134
-0.494955
0.082552
-0.233667
-0.217667
-0.504632
-0.288854
0.0740824
0.241422
0.326673
-0.41246
-0.493616
-0.0300865
0.405422
-0.19631
-0.371121
-0.0524301
0.0757782
-0.39643
0.400865
0.0189448
-0.748688
0.227083
-0.537263
0.000197419
0.0562787
-0.128863
0.0860454
0.119783
-0.585817
-0.0624905
-0.0177312
0.250272
0.521459
0.906437
0.526139
-1.75146
-2.09345
-0.161127
1.36711
-0.679352
0.157328
0.342724
0.0604869
-0.764668
-0.758523
-3.38523
2.06614
3.10654
1.58823
3.70335
3.12566
-2.65492
4.83238
-0.470823
-3.91994
0.4487
-0.722753
2.18153
0.134576
-2.18749
-2.06253
0.514094
-0.851955
2.98329
-2.88816
-0.530586
-3.1735
1.35303
0.147333
-2.73823
